#ifndef __YUAN_H__
#define __YUAN_H__

const float layer1_Conv2d_weight_yuan[144] = {
    0.227768, -0.326476, 0.321182, -0.291929, -0.187408, -0.079440, -0.199531, -0.329258, -0.181455, 0.064492, 0.215059, -0.023226, -0.040021, -0.135911, 0.019904, 0.106807, -0.333138, -0.096194, 0.143433, 0.083897, -0.122380, -0.160697, 0.302060, -0.231848, -0.228973, 0.129073, 0.155592, 0.106270, 0.235265, 0.008016, 0.188902, 0.046062, 0.248722, -0.280688, 0.139224, 0.269647, -0.081898, -0.007510, 0.080531, 0.104651, 0.097799, -0.065947, -0.015250, 0.320590, 0.069995, 0.035542, -0.164902, 0.150629, -0.224125, -0.281125, -0.070907, 0.148892, -0.180688, 0.001221, 0.319512, 0.188200, 0.029413, -0.043631, 0.335612, -0.268276, 0.180801, -0.067215, 0.037916, 0.006160, 0.181937, -0.123525, 0.005567, 0.108684, 0.119139, -0.230838, -0.098033, -0.254260, -0.091636, 0.002532, -0.210676, -0.032319, 0.022562, 0.098638, 0.004031, -0.231071, -0.141427, 0.106892, 0.055599, 0.062213, -0.311463, -0.216745, -0.035442, 0.303671, -0.113605, 0.237867, -0.053624, -0.219807, 0.026754, -0.132914, -0.209243, 0.266870, -0.085448, 0.222213, -0.020774, 0.284491, 0.256269, -0.139168, 0.089983, -0.276282, -0.173042, -0.351765, -0.227968, -0.176911, -0.218274, 0.002782, 0.329061, -0.135591, -0.170870, 0.146984, -0.299133, -0.265965, 0.094811, -0.249438, -0.192096, -0.271313, 0.245718, -0.014990, 0.175915, -0.290789, -0.059815, -0.157998, -0.268074, 0.144037, 0.249775, -0.309294, -0.082202, -0.312598, 0.257375, -0.229372, 0.080812, -0.212741, 0.231007, -0.238325, -0.202511, 0.180133, -0.182029, -0.025791, -0.278975, 0.119041
};

const float layer1_Conv2d_bias_yuan[16] = {
    -0.232572, 0.021857, -0.228841, -0.001838, -0.268930, -0.283232, 0.361027, 0.032324, -0.243094, 0.282544, 0.265751, -0.199475, 0.266421, -0.262934, -0.109786, -0.102495
};

const float layer2_Conv2d_weight_yuan[4608] = {
    -0.080023, -0.063311, -0.015275, 0.049346, -0.022224, 0.038981, 0.032978, -0.073677, 0.054055, 0.072277, 0.032698, 0.078560, -0.037090, 0.043185, 0.084038, 0.028415, -0.015795, 0.039316, -0.030803, -0.040187, 0.073508, 0.077109, -0.057783, 0.059547, 0.098946, -0.031964, 0.081169, 0.043147, 0.070120, 0.011679, 0.113803, -0.038158, 0.002140, 0.045549, -0.047811, -0.031932, -0.015855, -0.034822, 0.051439, -0.028709, 0.017697, 0.015825, 0.098484, -0.014215, -0.001374, -0.063758, -0.006008, -0.064421, -0.052917, -0.064781, 0.042103, 0.076659, -0.040436, 0.036824, 0.005710, 0.051304, 0.070062, -0.057609, 0.052663, 0.040475, 0.101005, 0.011280, -0.040230, -0.023895, 0.022546, 0.041678, 0.044338, 0.045160, 0.003154, 0.051268, 0.034657, -0.068574, -0.009288, -0.015109, 0.089950, -0.063766, -0.058970, -0.026446, 0.035891, -0.080018, -0.053613, 0.014991, 0.079895, 0.073094, 0.066383, -0.042921, 0.032696, 0.046527, -0.036544, -0.001820, 0.061156, 0.040213, -0.037450, -0.077711, -0.000690, -0.021879, 0.004188, 0.059357, -0.002024, 0.000109, -0.003095, -0.062177, 0.076860, 0.050383, -0.037892, 0.028655, -0.034998, -0.073891, 0.072697, 0.019832, -0.073477, -0.052348, -0.067796, -0.049325, -0.051983, -0.047411, -0.003678, -0.022405, 0.002641, -0.013353, -0.049748, 0.020692, -0.029301, 0.023439, -0.036449, 0.001792, 0.011411, 0.021667, -0.049514, -0.012485, -0.043892, -0.040570, -0.018935, -0.011290, -0.069105, 0.016606, -0.090502, -0.091787, -0.079586, -0.050469, 0.015607, -0.038715, -0.058611, -0.066495, 0.026181, 0.020096, -0.024678, -0.009411, 0.017823, -0.010113, -0.065129, 0.028073, -0.018277, -0.011538, -0.064071, -0.000702, -0.044241, -0.016011, 0.021623, 0.001932, -0.007010, -0.018183, -0.084844, -0.069532, -0.049255, 0.033231, -0.060876, -0.067590, 0.030862, 0.034083, -0.073024, -0.044099, -0.085850, 0.021605, 0.068969, 0.006233, 0.047048, -0.026798, 0.041745, 0.001270, -0.009668, -0.079543, 0.038370, -0.001763, 0.081894, 0.063701, 0.025525, 0.060933, 0.021715, -0.087828, -0.034077, -0.022707, 0.018754, -0.007877, 0.038556, -0.012946, -0.001232, -0.039057, -0.013359, 0.010729, -0.034835, 0.077533, 0.022625, -0.044089, 0.060077, 0.002158, 0.080620, -0.056622, 0.051877, -0.025365, 0.044470, -0.056529, -0.081790, -0.048659, 0.052375, -0.001605, 0.059879, 0.014000, -0.006405, 0.032473, -0.055626, 0.016499, -0.032945, -0.087815, -0.106202, 0.058909, 0.026248, -0.062428, -0.083888, -0.017551, -0.032917, -0.082005, -0.056359, -0.052372, 0.039184, 0.033542, -0.014474, -0.079109, -0.043154, -0.060920, -0.033488, -0.096829, -0.061315, -0.074118, -0.033764, 0.056947, 0.068872, -0.103373, -0.082339, -0.053464, -0.078836, -0.040473, -0.046046, 0.006771, 0.029314, -0.033006, -0.054808, -0.043017, 0.047607, -0.019792, 0.046420, -0.074562, -0.010287, 0.050196, -0.040382, -0.072431, 0.066822, 0.028968, -0.015049, -0.107018, 0.074581, 0.030999, 0.002070, -0.093741, -0.030141, 0.008288, -0.044412, 0.032246, 0.056755, 0.009467, 0.026410, -0.056611, -0.032145, 0.026480, -0.067434, -0.037651, -0.003179, -0.084709, 0.068687, -0.023536, 0.025172, 0.019602, 0.037252, 0.048001, -0.060687, -0.026264, 0.046942, -0.015227, 0.017032, -0.024749, 0.089265, 0.050685, -0.021107, 0.060158, -0.064336, -0.062321, -0.015838, -0.046328, -0.051770, -0.069843, 0.019363, 0.039768, -0.008253, -0.001510, -0.056577, 0.062940, -0.046961, 0.055059, 0.127163, -0.031086, -0.006966, -0.057479, 0.005401, 0.071308, 0.037878, 0.014431, 0.037352, 0.032061, 0.017949, 0.004860, 0.078885, 0.034967, -0.020344, -0.050336, -0.025164, -0.053974, 0.001896, -0.042204, 0.037079, 0.011177, -0.020235, -0.036120, -0.031056, -0.017720, -0.011765, 0.064740, 0.000226, -0.001084, 0.043023, 0.077010, -0.050738, 0.099735, -0.048182, 0.020650, 0.006253, 0.021169, 0.057002, 0.000605, 0.034695, -0.073949, 0.020733, 0.006254, -0.047778, -0.053587, -0.017013, 0.009149, 0.038416, -0.063384, -0.027477, -0.057006, -0.027637, -0.084462, -0.085373, 0.021501, 0.032965, 0.062891, -0.003563, -0.046244, 0.075136, -0.008787, 0.057786, -0.023931, -0.045324, 0.006138, 0.038414, -0.029184, 0.007682, 0.092544, 0.053278, 0.028029, -0.067450, -0.059156, -0.068132, 0.051754, 0.063717, 0.068757, 0.026942, -0.059372, 0.049509, -0.038446, 0.061133, -0.071072, -0.071871, -0.021342, 0.051556, -0.072896, 0.059421, 0.080097, -0.058503, -0.069613, -0.006855, -0.014895, -0.026828, -0.014962, -0.087075, -0.058976, -0.026755, 0.010962, 0.053194, 0.077484, -0.076838, -0.018469, -0.032700, 0.057752, -0.080942, -0.015389, -0.090154, 0.009443, -0.088200, -0.091066, -0.084574, -0.008997, 0.077323, -0.009741, -0.041688, 0.009257, -0.007466, 0.050389, -0.062731, -0.069684, -0.076183, 0.068473, 0.020232, 0.039423, 0.031459, -0.025322, 0.020277, 0.028423, 0.052554, -0.053719, -0.054387, -0.003954, -0.036966, -0.070451, -0.029168, 0.037049, -0.016766, 0.016824, 0.064394, -0.041650, 0.022266, 0.039347, -0.000567, 0.029320, 0.030688, -0.021014, -0.005841, -0.013042, -0.057604, -0.074655, 0.008656, -0.002833, 0.030294, 0.028530, 0.033550, -0.004527, 0.035134, 0.061206, 0.071818, 0.065220, 0.062410, 0.000160, -0.049340, -0.056961, -0.007563, 0.058941, 0.012121, -0.061978, 0.033635, -0.069289, -0.010407, -0.018571, 0.047525, -0.068460, 0.006011, -0.059250, 0.009735, 0.030240, 0.017684, 0.041980, -0.041549, 0.011200, 0.036128, -0.076363, 0.069590, -0.054772, -0.061091, 0.061166, -0.036678, -0.062213, 0.009472, -0.041614, 
    0.015389, -0.080964, 0.060974, 0.056938, -0.040502, -0.053186, 0.007077, 0.035156, 0.034349, -0.071940, 0.045652, 0.056864, -0.008911, 0.022052, 0.026586, -0.009743, 0.015729, 0.010294, 0.033283, 0.065727, 0.052606, -0.058827, 0.035157, -0.054857, -0.011842, -0.008146, -0.057072, -0.062082, -0.053824, -0.020424, 0.011801, 0.001849, 0.040026, 0.019094, 0.049931, -0.074839, -0.068177, -0.046062, 0.052087, -0.005254, 0.018285, -0.076169, 0.026256, 0.053671, 0.067569, 0.032414, -0.021734, -0.079890, 0.005748, 0.002494, 0.044884, 0.032210, -0.084761, 0.033604, 0.044919, 0.030607, -0.053151, -0.006746, 0.036999, -0.022473, 0.025458, 0.005919, 0.016491, -0.036206, 0.007482, 0.067003, -0.051067, -0.064830, 0.067806, 0.019831, 0.024580, -0.080700, 0.066221, 0.037915, 0.068342, 0.026257, 0.026049, -0.012624, -0.054444, 0.016790, -0.027169, -0.053812, -0.036684, 0.004817, -0.052195, 0.032298, 0.032802, -0.049845, -0.028966, -0.035073, -0.020495, 0.026195, -0.062411, -0.064350, 0.004335, -0.061429, -0.001107, 0.067038, -0.085836, 0.060173, 0.002329, -0.091718, 0.039419, 0.022396, -0.023873, -0.045947, -0.039516, -0.021117, -0.043528, -0.008642, 0.041135, -0.019213, 0.051186, -0.088036, 0.043645, -0.060744, 0.036951, -0.073052, -0.050247, -0.069624, 0.056535, 0.024298, -0.030336, -0.040881, 0.055768, 0.067218, -0.032837, 0.018819, 0.059690, -0.083231, -0.016613, -0.072675, 0.021737, 0.053944, -0.073455, 0.070739, 0.040818, 0.069924, -0.019049, 0.026591, -0.079865, -0.071699, -0.047068, 0.035461, 0.066112, 0.007210, -0.047375, 0.035893, -0.007438, 0.018814, 0.054240, -0.059862, 0.015353, -0.044201, 0.066854, -0.062487, -0.082398, -0.014044, 0.014895, -0.002814, 0.052063, 0.055592, -0.030201, -0.021537, -0.080920, 0.062885, -0.018472, 0.054054, -0.046985, -0.080523, 0.041395, -0.060628, 0.055556, 0.006842, -0.015542, -0.047573, 0.059972, 0.003784, 0.039887, -0.067203, -0.015711, 0.070845, -0.010861, 0.046615, 0.051469, 0.014680, -0.069517, -0.023287, 0.091502, 0.061710, 0.029102, -0.014249, 0.066895, 0.024440, -0.052159, 0.033746, -0.071427, -0.055994, -0.068174, 0.068577, -0.014307, -0.033756, 0.029111, -0.061446, -0.026941, -0.046023, -0.066843, 0.057430, 0.050939, -0.086507, 0.030630, 0.020441, 0.078242, 0.048182, 0.014384, -0.105954, -0.077402, -0.012472, 0.023069, 0.036342, -0.030115, 0.041468, 0.026126, 0.028278, 0.034376, 0.063224, 0.038894, -0.052818, 0.008168, -0.049771, -0.054600, 0.016143, 0.064337, -0.068924, 0.048095, 0.060941, -0.018268, -0.002155, -0.051289, -0.029247, 0.042267, -0.058441, 0.014222, -0.004863, -0.040605, -0.036591, -0.003637, 0.013835, -0.034420, -0.035858, -0.066150, 0.019038, 0.012219, -0.036048, 0.001475, -0.001358, 0.077064, 0.074442, -0.059497, 0.058145, -0.091260, -0.037010, 0.026880, 0.018025, -0.090136, 0.056005, 0.009042, 0.019646, -0.074616, -0.044687, 0.034658, 0.040847, 0.059501, 0.035455, -0.004905, 0.011862, -0.033378, -0.082403, 0.042051, 0.053243, 0.012653, 0.046137, -0.039129, -0.024936, 0.009033, 0.054010, 0.025738, 0.066310, -0.019012, -0.020930, -0.022713, 0.022139, -0.037120, 0.059956, -0.070686, -0.094128, 0.033769, -0.032271, 0.057998, 0.058453, -0.049043, -0.080254, 0.047311, 0.083965, -0.044666, -0.091012, 0.056927, -0.027780, -0.020132, 0.052018, -0.005229, 0.069249, -0.013809, -0.099037, -0.065073, -0.041339, 0.029760, 0.047453, 0.033318, -0.037110, 0.066332, 0.053387, -0.057676, -0.090141, 0.067224, -0.014109, 0.043365, 0.001557, -0.015726, 0.069079, 0.032756, -0.071323, -0.089726, 0.063846, 0.045046, -0.054276, -0.038862, -0.068610, 0.024625, -0.071028, -0.073895, 0.028529, 0.062189, -0.054184, -0.086564, 0.049286, 0.068098, -0.008922, -0.066051, -0.042001, 0.026484, -0.016690, -0.084751, -0.008064, 0.009920, -0.055723, 0.052900, -0.004885, -0.021898, 0.009775, 0.060099, -0.015858, -0.083523, 0.069286, 0.086947, -0.049871, 0.049898, 0.000148, -0.082407, 0.051761, 0.065574, -0.039945, 0.006980, -0.012793, -0.022117, 0.039946, -0.039406, -0.002496, 0.032179, -0.023059, 0.050938, -0.044583, 0.000717, -0.034993, 0.048138, -0.095692, -0.033275, -0.072813, -0.068385, 0.052335, 0.076024, -0.057170, -0.036195, 0.054875, -0.073108, -0.002317, -0.052924, 0.040397, -0.000728, -0.005567, 0.035018, 0.063890, -0.022694, 0.048050, 0.051619, -0.082014, -0.068375, 0.024552, 0.066788, 0.009655, 0.073808, 0.068115, 0.011305, -0.055219, -0.082353, -0.010275, 0.010939, -0.076333, -0.041762, 0.013811, 0.043357, 0.019572, -0.054693, -0.029065, 0.000040, 0.024077, 0.025865, 0.038144, -0.085364, 0.031439, 0.065548, -0.020624, -0.042689, -0.046538, 0.043867, -0.045662, -0.044536, -0.004607, -0.070118, 0.001656, -0.035883, -0.075717, -0.028492, 0.027719, 0.040513, 0.023325, 0.054161, 0.003430, -0.045509, 0.077796, -0.023794, -0.004692, -0.088425, 0.014470, 0.045129, 0.054665, 0.042745, -0.044030, 0.015950, 0.059734, -0.049734, -0.065850, 0.031397, -0.007432, -0.020159, 0.080491, 0.060881, 0.016290, -0.078113, -0.010593, 0.075873, -0.042423, -0.010389, -0.015883, 0.060269, -0.064393, -0.017441, 0.022452, -0.046585, -0.081961, -0.045283, 0.044312, -0.018390, 0.032197, -0.061237, -0.018745, 0.028113, 0.040753, 0.066512, -0.077921, 0.040190, 0.027594, -0.035826, -0.020086, 0.046365, 0.014416, 0.040155, 0.041541, -0.053257, -0.013170, 0.040113, -0.065653, -0.044685, 0.071422, 0.020213, 0.025288, 0.030182, -0.057598, -0.038565, 0.048846, -0.060472, 0.076355, 
    -0.061749, 0.065949, 0.073891, -0.025091, 0.014659, 0.021503, -0.019530, -0.036858, -0.018499, 0.006839, -0.036024, 0.018426, 0.000937, 0.031989, 0.036406, -0.026465, -0.061126, 0.049894, -0.083232, -0.009033, 0.057299, 0.058524, -0.074159, 0.044260, 0.044233, -0.028034, -0.099797, -0.036197, -0.034393, -0.028120, -0.033701, 0.074555, -0.005467, -0.026998, -0.006298, -0.043712, -0.005517, -0.054798, -0.045399, 0.017072, 0.037614, -0.051378, -0.013422, 0.011438, -0.085067, 0.016393, -0.047933, -0.014889, 0.011889, -0.053699, -0.002307, -0.037763, 0.003678, -0.004817, -0.047929, 0.018707, 0.045192, 0.076102, 0.001039, -0.025492, 0.053162, 0.048851, 0.020218, 0.023479, -0.040516, -0.010535, -0.044036, -0.023909, -0.010106, -0.025416, -0.078510, -0.069643, 0.005366, 0.032341, 0.022816, -0.076370, -0.019052, 0.071072, -0.046782, 0.059280, 0.001556, -0.004745, -0.060325, -0.005002, 0.072580, 0.054758, -0.031667, -0.050308, -0.076525, 0.080663, 0.006728, 0.070985, 0.060315, 0.053095, 0.052609, 0.057899, -0.039234, -0.030195, 0.007665, 0.026003, -0.069778, -0.078071, 0.073273, 0.075262, -0.066972, -0.040420, -0.077966, 0.077916, 0.058821, -0.041823, -0.051184, -0.075579, -0.028581, 0.000194, -0.028912, -0.034097, 0.014500, 0.088966, 0.029419, -0.070674, 0.032058, -0.003834, -0.064375, 0.015825, 0.041463, -0.072269, 0.012892, -0.004147, -0.086365, -0.094356, 0.060661, 0.030394, -0.012200, 0.044036, -0.029500, -0.078467, -0.102411, -0.021111, 0.058858, 0.056857, 0.057198, 0.049339, 0.013954, -0.003928, -0.052531, -0.041065, 0.075790, 0.034501, -0.073871, -0.042204, -0.073050, -0.077497, -0.033783, 0.031480, 0.040981, -0.087541, 0.014788, 0.040899, -0.004946, -0.089692, 0.024157, -0.053474, 0.006042, -0.027792, -0.045925, -0.079003, -0.017714, 0.020844, -0.062299, 0.064592, 0.052529, 0.038895, -0.043759, 0.037610, -0.072295, 0.007069, 0.033120, -0.008335, -0.015655, -0.039852, -0.107680, -0.033609, 0.003786, -0.015185, 0.011815, 0.039048, -0.060729, -0.068137, 0.083620, 0.081476, -0.024171, -0.043524, 0.041237, 0.045887, 0.015287, 0.012805, -0.030911, -0.091526, -0.018831, 0.060223, -0.081137, -0.009276, -0.027184, 0.067692, 0.071270, 0.008495, 0.032922, -0.100241, 0.022048, 0.028368, -0.040323, -0.034019, 0.069695, -0.050844, 0.070667, -0.090477, 0.002859, 0.039868, -0.064522, 0.025253, -0.078776, -0.036504, 0.065867, 0.045208, -0.104044, 0.048912, 0.023383, -0.084692, 0.065642, -0.045523, 0.055050, 0.061454, -0.021378, -0.026821, -0.091597, -0.093465, 0.002898, 0.014165, -0.048453, -0.033225, -0.014168, -0.052185, -0.104040, -0.146582, -0.136766, -0.031938, 0.029626, -0.023843, 0.063357, -0.079215, -0.029892, 0.048794, -0.030685, -0.039463, -0.033672, 0.010334, 0.007272, -0.056753, -0.024353, -0.031461, -0.014234, 0.015903, -0.058567, 0.084902, 0.024784, -0.049809, -0.045886, 0.081990, 0.084060, -0.093111, 0.022017, 0.032389, -0.102212, -0.002042, -0.046356, -0.088842, 0.045638, -0.093692, -0.044406, 0.061257, 0.063895, 0.045300, -0.038715, -0.022340, 0.035147, -0.003425, 0.042934, 0.026915, 0.067144, -0.055326, 0.017999, -0.087015, -0.076921, 0.023104, 0.066047, 0.004807, 0.032482, -0.003833, 0.077394, 0.058614, 0.042968, 0.067948, 0.004022, 0.061871, 0.000508, 0.086052, 0.028245, -0.030036, 0.090859, 0.057977, 0.031371, 0.078389, 0.049887, 0.028641, 0.000442, -0.003733, 0.016167, -0.009857, -0.007749, -0.075593, 0.058246, -0.094969, 0.028333, -0.026699, -0.037160, -0.046109, 0.068176, -0.006271, 0.000923, 0.027230, 0.019028, -0.061035, 0.005910, 0.049987, 0.028508, -0.018150, -0.050470, 0.007579, 0.079291, 0.018274, 0.071395, 0.030275, -0.002736, -0.003030, 0.046887, 0.037791, -0.026769, -0.052486, 0.017469, -0.049077, -0.001178, -0.029138, 0.023449, -0.045137, 0.039537, -0.032566, -0.033644, 0.053700, -0.006282, 0.058548, -0.057452, -0.005511, -0.088490, -0.064703, -0.089706, -0.048738, -0.017719, 0.040999, -0.027585, -0.067158, -0.038580, 0.012716, -0.001419, 0.037363, -0.055075, -0.060601, 0.063328, 0.058181, 0.084452, -0.072146, -0.094159, 0.030118, 0.050270, 0.010302, 0.061502, -0.038837, 0.037592, 0.080431, 0.074491, -0.026680, 0.035602, 0.043933, 0.048976, -0.045782, 0.004074, -0.055248, -0.000417, 0.048029, 0.025802, -0.047305, 0.020774, -0.058862, -0.047468, 0.014939, -0.002333, 0.022855, 0.037156, 0.013627, -0.078186, 0.045932, -0.068939, -0.007912, -0.076386, 0.021821, 0.032121, -0.058499, -0.029207, 0.056374, -0.041540, -0.048697, -0.030104, 0.067687, 0.026438, 0.001663, -0.048082, 0.046263, -0.078056, 0.011456, 0.007653, -0.048927, -0.051048, 0.038629, -0.079172, 0.015224, -0.001519, -0.063014, -0.085113, -0.058342, -0.074464, -0.058801, 0.021378, 0.040285, -0.001775, 0.077997, 0.033427, -0.074897, 0.061837, 0.050093, 0.001555, 0.001387, 0.003563, 0.084694, -0.034902, 0.086323, -0.065608, 0.043313, 0.018866, 0.072376, 0.098240, -0.025277, 0.014758, -0.085478, -0.092671, 0.037182, -0.014372, -0.079309, 0.000558, 0.004344, 0.020982, 0.026014, -0.011287, -0.053263, -0.068410, 0.085866, 0.081816, -0.052289, 0.077245, -0.048071, -0.004490, -0.001474, -0.042671, 0.041697, 0.062756, -0.058992, 0.054852, 0.005233, -0.034553, -0.061920, 0.016358, 0.046211, 0.030279, -0.033222, 0.071058, 0.083492, -0.028222, 0.011041, -0.053059, 0.067136, -0.076252, 0.031235, 0.062395, -0.076024, -0.097019, -0.065196, 0.015840, -0.044994, -0.017372, -0.026035, -0.004514, 0.085731, -0.071567, -0.016950, 
    -0.078285, 0.031709, 0.006460, 0.013641, 0.000349, -0.061506, -0.041070, -0.018783, 0.064308, -0.054032, -0.071794, -0.024828, 0.083257, -0.086657, 0.062341, -0.074266, -0.017494, 0.026329, -0.023488, -0.098655, 0.080058, -0.032660, -0.026605, -0.080567, -0.079609, -0.031591, -0.073673, -0.034962, 0.043746, -0.015346, -0.014457, 0.055493, 0.028466, 0.025259, 0.003581, -0.095536, 0.067970, -0.063339, 0.080424, -0.006826, -0.058953, -0.075306, -0.097704, 0.020229, -0.084241, -0.063264, -0.001856, -0.000877, 0.041963, 0.079401, -0.023952, 0.048670, -0.001266, -0.062345, -0.051644, -0.002670, 0.055304, 0.012890, 0.026290, 0.022004, -0.016101, 0.061929, -0.050238, 0.021117, -0.030090, 0.037779, 0.010863, 0.051251, 0.002143, -0.023104, 0.059007, -0.016483, 0.055971, 0.030233, -0.070740, 0.019009, 0.053460, -0.033649, -0.076311, 0.044891, -0.024645, -0.013306, -0.086937, 0.015501, -0.002770, -0.035870, 0.005704, -0.047235, 0.013334, 0.006568, -0.073806, 0.036568, -0.010432, -0.063273, 0.042634, 0.047974, -0.078472, 0.058304, -0.015973, 0.009913, -0.021297, -0.053865, -0.081528, 0.003672, -0.087460, 0.039943, 0.033374, 0.032559, -0.052469, -0.012564, 0.037844, 0.037356, -0.043809, 0.062623, 0.043526, -0.073756, -0.034177, 0.007006, -0.096984, 0.042365, -0.025499, -0.075285, 0.066786, -0.007150, 0.070584, 0.066772, 0.029872, -0.071123, 0.032529, -0.020484, -0.020818, -0.034060, 0.040994, -0.070596, -0.080925, 0.002347, -0.033010, 0.014536, 0.019071, -0.069775, 0.004188, -0.007647, 0.083720, -0.063814, 0.036198, 0.038430, -0.003460, 0.081275, -0.025326, 0.016827, -0.078546, 0.027332, -0.036791, -0.046349, -0.056984, 0.062642, -0.012817, -0.002752, -0.012899, 0.066153, 0.075027, -0.029388, -0.032871, 0.025406, 0.062653, 0.068845, -0.055705, -0.077715, 0.004802, 0.035207, -0.006540, 0.010312, -0.053983, -0.062400, 0.060367, 0.068806, 0.004404, -0.060534, -0.015402, -0.079411, -0.030959, -0.067452, 0.021723, -0.036186, 0.049602, -0.077733, -0.046785, 0.033650, 0.025369, 0.067779, 0.001868, -0.010017, -0.070744, -0.071499, -0.033312, 0.090256, 0.083474, -0.063005, 0.011695, -0.046742, 0.073416, 0.013638, 0.035476, 0.054127, -0.026497, 0.059395, 0.079451, -0.078928, 0.073643, 0.045796, -0.081646, -0.045302, -0.081157, 0.080736, 0.019587, 0.042510, 0.064825, 0.008285, -0.049261, 0.041302, -0.064240, 0.055120, 0.083729, -0.002774, 0.061519, 0.024263, -0.049598, -0.059451, -0.012888, 0.036512, -0.023356, 0.062431, 0.008522, 0.016427, 0.067777, -0.076967, 0.042215, -0.034344, -0.083522, -0.055264, -0.022422, -0.035049, 0.066846, 0.035888, 0.001050, 0.060354, 0.035484, -0.044980, 0.012653, 0.034739, 0.000482, 0.066831, -0.029394, 0.022865, 0.066298, 0.052017, -0.000092, -0.040667, -0.004518, 0.004866, 0.004814, 0.006271, 0.007958, 0.027694, 0.040856, 0.023499, -0.078485, 0.041257, 0.051818, 0.066717, -0.072983, 0.042995, -0.015501, 0.034472, 0.012166, -0.014403, -0.064521, -0.012435, -0.029614, -0.055794, -0.078801, 0.040137, -0.026676, -0.076812, -0.017138, 0.030017, -0.034393, -0.015872, 0.004822, 0.028028, -0.043686, -0.080805, -0.018933, 0.020875, 0.087577, -0.005381, 0.051000, 0.078555, -0.021345, -0.023677, -0.084687, -0.068885, 0.054809, 0.047701, 0.019108, 0.052135, -0.057827, -0.020765, -0.047895, -0.073809, 0.058643, 0.062965, 0.017339, -0.039065, 0.001047, -0.079108, -0.054188, -0.016447, -0.066232, 0.074477, -0.009550, -0.018353, 0.030730, -0.048800, 0.040878, -0.047116, -0.080636, -0.033936, -0.022442, 0.028994, 0.023378, -0.042361, -0.011338, 0.014806, 0.027927, -0.028119, 0.066108, -0.018041, -0.085625, 0.040180, 0.024032, -0.046177, -0.002652, 0.052826, 0.064853, -0.043267, -0.020357, 0.034542, -0.092813, -0.025439, 0.046323, 0.069667, 0.050060, -0.037877, 0.003990, 0.002425, 0.046816, 0.016558, -0.011591, 0.042922, 0.047947, 0.027800, -0.076980, 0.076336, 0.074194, 0.086281, -0.014167, 0.063016, 0.037083, 0.071135, 0.011509, 0.082300, -0.033807, 0.077622, 0.077497, 0.083645, 0.088768, 0.000453, 0.059809, -0.055819, -0.037173, -0.007595, 0.065978, -0.046073, -0.047243, -0.000817, -0.057812, 0.045053, -0.013231, -0.084959, 0.068309, -0.021266, -0.064473, 0.067017, 0.044703, 0.034737, 0.049891, -0.070251, 0.014066, 0.068843, 0.052913, -0.009486, -0.035146, -0.016541, -0.049603, -0.073593, 0.006921, -0.026770, -0.022543, -0.085371, -0.035017, -0.030254, -0.001425, 0.017453, 0.009432, -0.038656, -0.018086, -0.061228, 0.050001, -0.006985, -0.048548, -0.062637, -0.088914, 0.053807, -0.077880, 0.044883, 0.062458, 0.041631, 0.037799, -0.011331, 0.034331, -0.083524, -0.083601, 0.017199, -0.029590, 0.065638, -0.073048, 0.012820, -0.069035, -0.013223, 0.039729, 0.006289, -0.023727, -0.026123, 0.049077, 0.053591, -0.010307, 0.059941, 0.009639, -0.050301, 0.069731, 0.020320, 0.003612, -0.020328, -0.091464, 0.071184, 0.016008, -0.051313, 0.036399, 0.040850, -0.030932, -0.043961, 0.061657, 0.039211, 0.056136, 0.056313, -0.060190, -0.063911, -0.081809, -0.047304, -0.030320, -0.007887, 0.064701, -0.001210, -0.030263, -0.084837, 0.017412, -0.031080, -0.079697, -0.091298, -0.105914, 0.048670, -0.070333, -0.083819, -0.108986, -0.022950, -0.027270, -0.056907, -0.041782, -0.043349, -0.026852, -0.008407, 0.060897, -0.030659, -0.026031, -0.024764, -0.018313, 0.039842, -0.082619, 0.070935, 0.079085, 0.003251, 0.054264, 0.092943, -0.048977, -0.007275, 0.040260, 0.030756, -0.037854, 0.092876, 0.030104, 0.088408, 
    0.020576, 0.031762, 0.005272, 0.083845, 0.079740, -0.030468, 0.096430, -0.024837, -0.022049, -0.052561, -0.018304, -0.006323, 0.034843, -0.078027, -0.094537, -0.006041, -0.013309, -0.066465, -0.011305, -0.044824, -0.036812, -0.004615, 0.014520, 0.071297, -0.060256, 0.040839, -0.057694, -0.027882, -0.009955, -0.032101, -0.009523, -0.058941, -0.118379, -0.010128, 0.070096, 0.029738, 0.022624, 0.001837, 0.054524, 0.058282, -0.074671, -0.049158, 0.001569, 0.007395, -0.104556, 0.030863, -0.030938, -0.032634, 0.022600, -0.037733, 0.089726, -0.036389, -0.035220, -0.027475, -0.002294, 0.008620, -0.038844, -0.001483, -0.064678, -0.022619, -0.066560, -0.134774, -0.105233, -0.043514, 0.007180, -0.062870, -0.002206, 0.022913, 0.034059, -0.002446, -0.076423, -0.062043, 0.063059, -0.006643, 0.025213, -0.007782, 0.016980, 0.021210, -0.033999, 0.036931, -0.026622, -0.077093, -0.024775, -0.059428, -0.098473, -0.032498, -0.056521, -0.031996, 0.018719, 0.036712, -0.066845, -0.046097, 0.020147, 0.001322, -0.002084, 0.075434, 0.012687, -0.089485, -0.002541, -0.060178, 0.047138, 0.018568, 0.063985, -0.114234, -0.056253, -0.095479, -0.103564, -0.076347, -0.092576, 0.023211, -0.054758, -0.125196, 0.028410, -0.046787, 0.020213, -0.088576, -0.037663, 0.057011, 0.089821, 0.050012, 0.069872, 0.068613, -0.020829, -0.055901, -0.066339, 0.056849, 0.031982, 0.050535, -0.048151, 0.060735, -0.060029, 0.026579, -0.020492, -0.073931, -0.067688, -0.045414, 0.020856, 0.004453, 0.053961, 0.011888, -0.046147, -0.018416, -0.049933, 0.057135, -0.023835, 0.071490, -0.007175, 0.070660, 0.024734, -0.043968, -0.054359, 0.053756, -0.052000, -0.034869, -0.067273, -0.004550, 0.003626, 0.001106, -0.038458, 0.055645, -0.024214, 0.002824, -0.102812, 0.043809, -0.069301, 0.042302, 0.037634, -0.009218, 0.012365, -0.060967, 0.051968, 0.036545, 0.073809, 0.028575, -0.076307, -0.095301, 0.070807, 0.005917, -0.065159, -0.087805, -0.074602, 0.000057, -0.032225, 0.047142, 0.059777, -0.089231, 0.012192, 0.063970, -0.087777, -0.066863, 0.031301, 0.074412, 0.005363, 0.078952, -0.015743, -0.067570, -0.022108, 0.054011, -0.000776, -0.000827, -0.023588, 0.032909, 0.076466, 0.001201, 0.030202, -0.053332, 0.028287, 0.085246, -0.069772, -0.024753, 0.014366, 0.068719, 0.050328, 0.062903, -0.001603, -0.024284, 0.051831, -0.057190, 0.050490, -0.030205, 0.094653, -0.056670, 0.077979, -0.087109, -0.008150, 0.002071, 0.074173, 0.009670, -0.047604, -0.023347, -0.040469, -0.053382, -0.035291, -0.088801, -0.033360, -0.069090, -0.043058, -0.067227, 0.000868, -0.011512, 0.080496, -0.007876, -0.076339, -0.052966, -0.042453, 0.024243, 0.002508, -0.059527, -0.014558, 0.059085, -0.025009, -0.016474, 0.038518, -0.011481, -0.019924, -0.069667, -0.062901, 0.040871, -0.004625, -0.024138, 0.032857, -0.011089, 0.030506, 0.074668, 0.030641, -0.004868, 0.007767, -0.087817, 0.011927, -0.023568, -0.071185, -0.023611, 0.024724, -0.076499, 0.040488, 0.012185, 0.012050, -0.018196, -0.069962, -0.018598, 0.075129, -0.008537, -0.062758, 0.007051, -0.015722, -0.107342, 0.037233, -0.048343, -0.087832, 0.042475, -0.090311, -0.095586, -0.099092, 0.051846, 0.020408, 0.049812, -0.044815, 0.047727, -0.109849, 0.004747, 0.030283, -0.011216, 0.035436, 0.023800, -0.021079, -0.007966, 0.074080, 0.065918, 0.082187, 0.084561, -0.089519, 0.020695, -0.093013, -0.042569, -0.032369, -0.024822, -0.097269, -0.009859, -0.029745, 0.007009, 0.009534, 0.047385, 0.064310, 0.022312, 0.055758, 0.068115, -0.055318, 0.041558, -0.035287, -0.030047, 0.038907, 0.015446, -0.084225, 0.034948, 0.045022, 0.088532, 0.032286, 0.068836, 0.075356, 0.043423, -0.065621, 0.022416, 0.030168, -0.068235, -0.076105, -0.076351, -0.015380, 0.069714, 0.005783, 0.052768, 0.031233, 0.024053, -0.025655, 0.040858, -0.044577, -0.087794, 0.059109, -0.073891, 0.077476, -0.048695, 0.001574, 0.024312, 0.019548, -0.001390, 0.010095, 0.069328, 0.045650, -0.034980, 0.066745, -0.024849, -0.028605, -0.068455, -0.053601, 0.013477, -0.037894, 0.027002, -0.079051, 0.026833, 0.016493, 0.000589, 0.093153, 0.009914, -0.021833, -0.002828, -0.076269, 0.004071, -0.038369, -0.005340, -0.001315, 0.079612, 0.021986, 0.076063, -0.061056, -0.026150, -0.047621, -0.055159, 0.027902, -0.059615, 0.060077, 0.041165, -0.006666, 0.062756, 0.073292, 0.009457, -0.056721, -0.018333, -0.073190, 0.035283, 0.022530, -0.077338, -0.014508, 0.009638, -0.017974, 0.087469, 0.051908, 0.063681, -0.025262, 0.049404, 0.015394, 0.043249, 0.010089, -0.007694, -0.037562, -0.064555, -0.022763, 0.005595, 0.005651, -0.044837, -0.052009, -0.093344, 0.006889, -0.094711, 0.019721, -0.036577, -0.053770, -0.027184, -0.013113, -0.063632, -0.049903, -0.056656, 0.056680, 0.059434, 0.078821, 0.056577, -0.029741, 0.052693, -0.053125, 0.066564, 0.070487, 0.058099, -0.000693, -0.014546, 0.053567, 0.055373, 0.027711, 0.032248, -0.023179, -0.037900, 0.037337, 0.074111, 0.058051, 0.052038, 0.065693, 0.016817, -0.004599, -0.080377, 0.002294, -0.075334, 0.052067, -0.042667, 0.029141, -0.045798, -0.072055, 0.065141, 0.065600, -0.015209, -0.073510, -0.039503, 0.015061, 0.056699, -0.067539, 0.008111, 0.042611, -0.064391, -0.006589, -0.029895, -0.041625, 0.068013, 0.074883, 0.062455, 0.029083, -0.036178, -0.012560, 0.078074, 0.051427, 0.007384, 0.025016, 0.087438, -0.022182, 0.044192, -0.051155, -0.059119, 0.040028, -0.036406, 0.066987, 0.016174, 0.020798, -0.094498, 0.066933, -0.059922, 0.036750, -0.066656, 
    -0.059830, -0.047950, -0.037076, 0.038122, 0.045837, 0.049528, -0.026949, 0.076440, -0.053024, 0.027973, 0.048768, -0.041191, -0.005159, 0.061014, 0.057671, -0.061832, 0.048955, 0.045412, 0.059353, -0.071848, 0.023591, -0.050182, -0.054725, 0.026099, 0.007343, 0.058946, 0.050111, -0.019681, 0.068581, -0.066994, 0.017312, 0.000036, 0.005494, 0.035505, 0.031035, 0.095313, 0.006156, 0.012730, 0.042978, 0.010092, -0.000544, -0.070639, 0.037351, 0.042141, -0.019411, -0.029266, -0.036056, -0.023743, -0.099632, -0.071941, -0.016833, -0.080413, -0.061427, 0.028912, -0.051482, -0.033121, -0.025126, 0.058572, -0.051806, 0.048287, -0.057361, -0.076521, -0.074169, -0.017355, 0.093828, -0.085934, -0.043140, -0.035335, -0.032980, 0.072853, 0.039286, 0.002540, -0.083685, -0.063751, -0.061163, -0.028400, -0.012047, -0.053379, -0.069637, 0.037917, -0.007585, -0.072000, -0.007094, -0.090821, -0.022171, 0.021811, 0.007184, -0.071997, -0.071369, -0.029850, -0.003104, -0.048894, -0.061373, -0.036341, 0.011272, -0.036604, 0.089040, -0.075209, -0.080204, -0.092235, 0.076983, -0.063425, -0.040466, -0.069723, 0.001962, -0.011459, -0.048892, 0.025317, 0.026814, -0.017953, 0.009741, -0.079559, -0.045925, 0.027418, 0.023978, -0.033349, 0.079638, 0.019729, 0.026817, -0.000016, -0.087640, -0.049546, 0.014604, -0.053341, -0.012559, 0.080469, -0.056717, -0.034210, -0.064161, -0.032626, -0.068778, 0.024436, 0.055038, -0.032109, 0.088964, 0.047470, 0.037332, -0.060935, 0.012123, -0.066824, -0.058070, -0.027696, 0.038207, 0.071818, 0.026263, -0.001187, 0.042671, -0.077429, -0.049949, 0.062908, 0.031061, 0.047988, -0.002538, -0.081768, 0.008116, 0.040235, 0.009863, 0.071498, -0.066346, -0.075962, 0.041734, 0.060872, 0.053171, 0.036754, 0.007700, -0.014043, -0.006383, -0.056145, 0.058707, -0.040095, -0.058974, -0.022849, 0.036672, 0.023900, 0.077852, 0.035371, 0.061200, -0.050819, 0.057709, -0.023408, -0.074541, 0.012487, 0.035626, 0.027189, 0.021748, -0.057455, 0.031169, -0.000071, 0.058971, 0.040680, -0.055388, 0.047152, -0.052331, -0.072638, 0.014778, -0.020232, -0.044583, -0.059114, -0.036337, -0.054769, 0.054335, 0.037868, 0.068922, 0.031124, 0.010340, -0.069113, -0.015669, -0.046061, -0.048950, -0.086922, 0.005551, -0.036117, 0.012205, 0.048838, -0.055607, 0.048865, 0.011659, 0.008960, -0.002409, -0.078268, 0.040419, -0.018537, -0.045054, -0.002599, 0.050646, 0.026585, -0.042986, 0.076280, -0.056791, -0.035016, 0.012619, 0.026357, -0.030958, -0.069085, -0.036741, 0.035998, -0.076931, 0.073349, 0.028335, 0.020165, 0.072383, -0.058294, -0.058661, -0.071166, -0.043414, 0.059123, 0.039358, -0.037455, -0.029272, 0.020773, 0.040326, 0.018842, -0.060556, 0.003743, 0.071226, -0.043321, 0.060117, 0.027457, -0.086157, -0.022475, 0.071517, 0.015782, -0.030555, -0.019229, -0.019487, -0.040319, -0.077953, 0.010867, 0.062849, 0.047535, 0.003446, 0.065312, 0.025699, -0.032696, -0.072410, -0.007806, -0.025375, -0.059200, 0.032367, 0.050942, -0.089203, -0.043604, -0.014659, -0.081352, 0.057203, 0.040924, 0.012258, 0.047793, 0.020842, -0.021222, -0.058884, -0.009029, 0.046027, 0.075570, 0.074228, 0.051576, 0.025243, -0.009776, 0.065895, 0.070753, 0.009217, 0.069440, 0.017155, 0.034453, -0.063134, 0.032422, 0.018746, 0.044799, 0.046321, -0.062514, 0.002992, -0.027212, 0.071545, -0.000462, -0.015079, -0.011033, 0.017765, -0.084355, 0.048748, 0.063168, -0.027378, 0.010753, -0.074104, -0.052082, -0.019214, -0.000609, -0.013579, 0.085828, 0.048714, -0.036873, -0.023873, -0.035067, 0.086508, 0.028614, 0.007483, -0.054323, -0.022987, 0.011258, -0.042810, -0.029199, 0.037509, 0.031897, 0.078987, 0.083698, 0.062109, 0.007006, -0.061054, -0.045213, 0.022443, 0.060685, 0.083212, 0.000786, 0.003114, -0.030000, 0.041648, -0.035690, 0.062095, 0.066174, 0.090697, 0.080896, 0.009425, 0.001580, -0.004102, -0.040067, 0.020750, 0.004798, -0.005933, 0.057022, 0.001056, -0.063023, -0.038204, 0.075189, 0.066656, -0.011303, 0.003595, 0.014673, -0.006630, -0.043789, -0.028942, 0.052417, -0.044627, -0.039503, -0.046644, 0.038065, 0.079484, 0.000438, 0.080702, 0.001177, -0.000886, 0.039510, -0.013328, 0.033209, 0.015175, 0.024511, -0.049675, 0.042324, 0.041297, 0.037098, -0.016294, 0.081368, -0.063804, 0.025587, -0.033612, 0.000500, 0.045679, 0.006649, 0.053695, -0.056621, -0.060810, -0.067243, 0.000826, -0.018319, -0.037893, -0.049658, 0.031395, -0.059778, 0.042911, -0.055697, -0.016053, 0.035883, -0.046416, -0.088124, 0.075192, 0.088492, -0.063942, 0.035591, 0.033957, 0.002990, 0.019161, -0.035323, -0.032522, 0.056319, 0.037628, 0.076690, 0.066673, 0.039648, -0.038234, 0.027314, -0.041042, -0.065738, -0.054153, 0.051410, -0.067690, 0.036243, -0.046944, 0.060096, 0.048262, -0.057389, -0.036657, -0.003917, -0.045299, 0.054810, -0.048059, -0.056925, 0.081329, -0.082260, 0.004475, -0.041612, -0.065944, -0.064537, -0.076749, -0.058915, -0.016739, 0.013931, 0.034141, 0.038831, -0.009654, 0.041654, 0.023894, 0.053592, -0.008478, -0.077187, -0.032013, -0.001349, 0.052955, 0.071290, -0.055246, 0.043401, 0.072221, 0.014379, 0.036702, 0.053896, 0.003749, 0.013930, -0.054411, 0.041461, 0.040475, -0.011676, 0.076079, -0.037381, -0.037093, 0.031038, -0.009673, -0.022903, -0.096258, -0.035439, -0.041003, 0.043502, -0.095871, 0.063741, -0.095439, 0.033177, -0.010012, 0.048352, 0.008141, -0.037598, 0.000451, 0.002514, -0.034085, 0.054731, 0.022428, -0.079470, 
    0.021972, 0.020628, 0.029547, 0.056918, 0.069294, 0.011640, 0.044285, 0.010370, 0.045318, 0.033823, -0.085503, -0.057453, -0.050867, 0.067180, -0.086994, -0.020447, 0.030590, -0.078057, 0.040009, -0.004106, 0.065735, 0.021450, -0.023161, 0.052657, 0.059824, -0.028707, 0.076267, -0.002928, -0.075906, 0.024499, -0.029038, 0.053125, -0.035112, -0.082120, -0.077030, 0.035940, -0.032985, -0.050164, -0.069203, -0.021148, 0.028869, -0.072644, 0.014317, 0.079858, -0.053712, -0.067532, 0.020945, 0.023658, 0.004448, -0.079568, 0.052304, -0.048378, 0.010571, -0.021899, -0.016983, 0.011859, 0.077235, -0.028109, 0.046633, -0.027054, 0.052365, -0.073281, -0.057952, -0.079284, 0.046159, 0.043040, 0.008017, -0.085669, -0.047294, -0.030842, 0.065032, 0.079889, 0.024517, 0.053525, 0.039227, 0.088740, 0.017753, 0.034565, -0.034064, 0.000798, 0.038008, 0.057618, -0.031186, 0.004071, 0.067094, -0.041265, 0.036080, -0.055935, 0.087459, -0.000925, -0.046956, -0.044322, -0.064398, -0.083113, 0.001266, -0.065245, 0.043467, 0.070859, -0.010129, 0.069447, 0.032182, -0.011374, 0.017373, 0.050049, -0.013226, 0.036146, -0.005477, 0.068965, 0.026635, -0.015144, -0.090648, 0.041739, 0.003083, 0.045286, 0.073336, 0.012616, -0.045531, -0.011602, -0.054732, 0.051731, 0.075066, 0.047359, 0.029476, -0.004842, -0.094350, -0.032549, -0.079639, -0.052237, -0.060217, 0.052761, 0.027361, -0.000394, 0.074807, 0.080494, 0.060643, 0.005829, -0.081478, 0.054824, 0.047355, -0.002428, 0.079973, -0.049353, 0.059292, 0.061201, -0.075466, 0.039889, -0.019247, -0.054041, -0.056167, -0.008464, 0.024100, -0.062168, -0.027284, 0.069344, 0.041640, 0.003400, 0.045318, -0.085361, 0.057790, -0.050096, -0.001920, -0.042529, -0.051927, -0.041726, 0.070652, -0.058404, -0.079134, -0.013094, 0.013794, -0.036031, -0.021877, -0.004862, -0.080272, 0.068737, -0.077359, 0.051854, -0.062030, -0.059662, 0.075395, -0.073888, 0.011287, -0.004437, -0.033659, -0.047487, 0.025060, 0.076783, 0.024567, -0.051024, -0.050402, -0.061362, 0.050980, -0.001330, 0.053663, 0.035295, 0.008687, 0.087031, -0.006344, 0.061826, 0.060024, -0.082432, 0.021893, -0.004362, -0.035559, 0.034407, 0.003128, 0.032622, 0.001893, 0.009685, -0.023966, 0.023919, -0.057551, -0.009161, -0.041676, -0.010528, -0.022931, 0.036387, -0.013458, -0.037298, -0.001632, 0.051656, 0.011156, -0.038973, 0.004624, 0.038830, -0.075182, 0.054393, 0.007230, -0.087062, -0.015686, 0.050148, -0.040644, 0.015344, 0.037916, 0.070091, -0.051603, -0.016395, -0.063052, 0.039638, -0.028155, 0.049211, -0.031756, 0.016196, -0.075546, -0.005807, 0.052876, 0.062646, 0.026942, 0.072590, -0.021048, 0.021230, 0.065499, 0.095291, -0.026893, 0.069131, -0.064868, -0.075497, -0.076288, 0.114848, -0.062077, 0.043560, -0.037320, 0.015579, 0.032516, -0.039591, 0.021244, -0.081193, -0.055115, -0.030941, -0.046405, -0.046608, -0.020620, -0.010212, 0.046512, 0.002589, -0.116149, 0.016931, 0.014045, -0.058344, 0.020945, -0.093300, 0.031507, -0.057193, -0.030418, -0.041374, -0.023656, -0.089362, 0.026985, -0.089654, -0.113872, 0.069310, 0.038755, 0.005871, -0.060508, -0.079185, -0.058224, 0.007039, 0.077021, -0.079825, 0.014350, 0.067007, -0.023182, -0.087641, 0.072064, 0.025288, -0.086087, -0.056754, -0.000839, -0.003108, 0.080536, -0.010034, -0.025917, 0.051972, -0.051780, -0.040281, -0.053002, -0.116371, -0.065957, -0.000322, 0.004152, -0.041957, -0.053464, -0.067612, 0.040054, 0.073085, -0.056603, 0.068614, 0.098054, -0.110568, -0.100368, -0.046232, -0.079433, -0.001396, -0.084798, -0.026093, 0.078803, -0.020048, 0.014297, -0.070605, 0.018473, -0.079070, -0.035539, 0.030742, 0.012391, 0.066782, 0.058884, -0.069159, -0.099525, 0.019025, 0.017023, -0.026282, -0.032419, -0.105820, -0.008284, -0.000818, -0.058295, 0.037990, 0.038308, -0.030655, -0.018289, 0.031895, -0.084919, -0.003540, 0.008912, -0.041721, 0.000857, 0.043554, -0.038874, 0.048028, -0.034842, -0.019194, -0.052516, -0.027377, -0.060133, -0.086803, 0.027468, 0.061151, -0.128633, -0.048837, -0.034116, 0.054681, -0.037347, -0.043475, 0.064952, 0.087708, 0.014809, -0.046268, 0.061920, -0.063313, -0.024259, -0.092797, -0.097165, 0.038979, -0.071309, -0.047780, 0.023093, 0.057843, -0.002354, 0.043587, 0.028124, -0.094688, 0.042570, 0.054360, -0.032770, 0.005253, -0.006062, -0.082952, -0.040936, -0.093118, 0.002553, -0.082199, -0.018748, 0.061305, -0.068302, 0.015123, -0.059136, -0.084005, -0.060437, 0.056509, 0.040664, 0.071944, -0.041389, -0.075138, 0.000430, 0.068311, 0.036984, -0.007403, -0.015119, -0.084310, 0.028888, -0.040766, -0.075629, 0.008380, 0.022606, 0.024614, 0.011620, 0.008926, 0.004898, 0.032732, -0.035619, 0.008858, 0.016832, -0.054655, 0.054661, 0.032646, -0.028536, 0.065224, -0.028889, 0.006792, 0.000038, -0.051370, 0.046112, -0.052465, 0.057759, -0.082011, -0.008125, -0.014240, 0.038044, -0.050532, 0.033680, 0.015600, 0.042618, 0.065671, -0.028757, 0.034119, -0.086719, -0.020828, 0.048261, -0.019711, -0.025383, -0.039337, 0.050181, -0.035091, -0.070021, 0.006733, -0.043333, -0.023018, -0.020348, -0.046787, -0.083224, -0.046610, 0.032606, 0.002184, 0.035562, -0.073284, -0.005006, 0.030664, 0.007649, 0.033106, 0.015476, -0.088999, -0.008790, -0.092403, 0.032524, -0.015620, -0.001678, -0.041391, 0.061056, 0.040281, -0.012478, -0.115784, -0.113924, -0.070677, -0.079645, 0.049407, 0.031690, 0.015840, -0.060725, -0.070170, -0.014852, -0.054532, -0.079070, 0.004841, 
    -0.060713, 0.069383, -0.010809, 0.026862, -0.081178, 0.027175, -0.081773, 0.047537, 0.030532, 0.050784, -0.062246, -0.050133, -0.051753, 0.009904, 0.014033, 0.056807, 0.029528, 0.020200, 0.023575, -0.066557, -0.013397, 0.048697, -0.025289, 0.068509, 0.054941, -0.044218, 0.033648, -0.055937, -0.043059, -0.076841, -0.041601, -0.032254, -0.067056, -0.071029, -0.028160, 0.020090, 0.047169, 0.042169, -0.008977, -0.000295, -0.076363, 0.076919, -0.030922, -0.052546, -0.032398, -0.030780, -0.062640, -0.000610, 0.014413, -0.008464, -0.087902, -0.002070, -0.035146, -0.014931, 0.003722, -0.021912, -0.059985, -0.099924, 0.028261, -0.086800, 0.074215, -0.039813, -0.031374, -0.049684, -0.003378, -0.000849, -0.013967, -0.018497, -0.056499, -0.049565, -0.007785, 0.063823, 0.078610, 0.033953, -0.004748, -0.062185, 0.029177, -0.081163, -0.010735, -0.028980, 0.066515, 0.037701, 0.019312, 0.046708, 0.071944, 0.010641, -0.053917, 0.002706, -0.061016, 0.053465, -0.025769, 0.054494, 0.060173, 0.047300, 0.001239, 0.018806, 0.079469, 0.070003, -0.023412, -0.079686, -0.024120, -0.037916, 0.047808, 0.063237, -0.008733, 0.031277, -0.046296, -0.088942, 0.053724, 0.086025, 0.055864, -0.053119, -0.006193, -0.054460, 0.010456, -0.072830, -0.087281, -0.035290, -0.084336, -0.015096, -0.033818, -0.001410, 0.061201, -0.006593, -0.079897, 0.073524, 0.060320, -0.065377, -0.073826, -0.015162, -0.044599, -0.053795, -0.039588, 0.010308, 0.028493, 0.065081, -0.077028, -0.082238, 0.052130, 0.028760, 0.072843, 0.074653, 0.040470, -0.051827, 0.054194, 0.032396, -0.005187, 0.080279, -0.035443, -0.058171, -0.015638, -0.064643, -0.027030, 0.074046, -0.059074, 0.048624, 0.078866, 0.025635, -0.048380, 0.030961, 0.043722, -0.046303, 0.011531, -0.008128, 0.000658, -0.013578, -0.007292, 0.059975, 0.004450, 0.025144, 0.030411, -0.011432, 0.054924, 0.052348, 0.078127, 0.029114, -0.036090, -0.031457, -0.012643, 0.020418, 0.039764, 0.043005, 0.002353, 0.066209, 0.035665, -0.055764, -0.012699, -0.016303, -0.072855, 0.013695, -0.082117, -0.036794, -0.082793, 0.053400, -0.029284, 0.060678, -0.062316, -0.053768, 0.003881, -0.047190, 0.030991, 0.046584, -0.098942, 0.025954, 0.053329, -0.014167, 0.014360, 0.075643, -0.012179, 0.022280, 0.053146, 0.042643, -0.007718, -0.089057, -0.030886, -0.084858, 0.014538, 0.050042, 0.024532, -0.075713, 0.005525, 0.030194, 0.039325, -0.038665, -0.071168, -0.017676, -0.049808, -0.090193, -0.063316, -0.035014, 0.030077, -0.030111, 0.070803, -0.031476, -0.018497, 0.003423, -0.038013, 0.054272, -0.066449, -0.048612, 0.035941, -0.022857, -0.079620, -0.069942, -0.088650, -0.028945, -0.089041, -0.011471, -0.085872, -0.000489, 0.050140, 0.038288, 0.031456, -0.015278, 0.058478, 0.042753, 0.063823, -0.014045, 0.028136, -0.070068, 0.024755, -0.067020, 0.084790, 0.073883, -0.036057, -0.028518, -0.034604, 0.003072, 0.008001, -0.041102, 0.003318, -0.022254, 0.069148, 0.003028, -0.075431, 0.043414, 0.027819, -0.029257, 0.012389, 0.075281, 0.052913, 0.039782, -0.027290, 0.068091, -0.076352, 0.071530, 0.024841, 0.010533, -0.076172, 0.059750, -0.053763, -0.000568, -0.030449, 0.000831, -0.009862, -0.062246, 0.009593, 0.036756, 0.045389, 0.079409, -0.066079, -0.036492, 0.033213, 0.070692, -0.019199, 0.050407, -0.064150, -0.047059, -0.078837, -0.080060, -0.004500, 0.080213, -0.004322, -0.039762, -0.071912, -0.009489, -0.058048, -0.027385, -0.003554, -0.004942, 0.032500, 0.034172, 0.096675, -0.054189, 0.040317, 0.073469, -0.068261, 0.060689, -0.059404, -0.010111, 0.068709, -0.025229, 0.082091, 0.017999, -0.034034, 0.072702, 0.080106, -0.041020, -0.062786, 0.065656, 0.057993, 0.037392, -0.043979, -0.016400, -0.008590, -0.010533, -0.033280, 0.007932, -0.073435, -0.065570, -0.054283, -0.062486, -0.057636, 0.052716, 0.032677, -0.015446, 0.029806, 0.098437, 0.096175, 0.080821, 0.013048, 0.000886, 0.016250, 0.033407, 0.067328, 0.076288, -0.018053, -0.076498, 0.000988, -0.060816, 0.057558, 0.073930, 0.050864, -0.029346, 0.052645, 0.030742, 0.021177, -0.063729, -0.068630, 0.070458, 0.011109, 0.066317, 0.044681, 0.006408, 0.075119, 0.050754, 0.051163, 0.082036, 0.077648, 0.023110, -0.028685, 0.032420, 0.089992, 0.060724, 0.060111, -0.076362, 0.072937, 0.036776, -0.074890, -0.082268, 0.081995, -0.009237, -0.033158, 0.018335, -0.066355, 0.041908, -0.033675, -0.061705, -0.034427, 0.024096, -0.027648, -0.060334, -0.007785, -0.059480, -0.084596, 0.050736, 0.055287, -0.043620, -0.058086, -0.065333, 0.020834, -0.062266, 0.012943, 0.008976, 0.055461, -0.032155, -0.083153, -0.034731, -0.010223, -0.055081, 0.070603, -0.072694, 0.027429, 0.002055, -0.024001, 0.034633, 0.036044, 0.023125, 0.085649, 0.053751, -0.035693, -0.044851, -0.044853, -0.077935, -0.056300, -0.082179, -0.054086, -0.039915, 0.011812, -0.035163, 0.017643, -0.026964, -0.058199, 0.073819, -0.060663, -0.040111, -0.088982, 0.007079, -0.034739, 0.028208, -0.009103, -0.013546, 0.006597, 0.058116, -0.045907, 0.003860, -0.000931, 0.049035, 0.024733, 0.035108, -0.024367, 0.000956, 0.074547, 0.067504, 0.018394, -0.042323, -0.076902, -0.007393, 0.025692, -0.090254, -0.034224, -0.000057, 0.043617, -0.051606, -0.045264, -0.044657, -0.090566, -0.034706, -0.017243, -0.087392, -0.045623, -0.032648, 0.038104, 0.034217, -0.019240, -0.056094, 0.001741, 0.078986, 0.073127, -0.041979, 0.060244, 0.050889, -0.038678, 0.050454, 0.070198, -0.000435, 0.031845, -0.087243, 0.015543, 0.024538, -0.050262, -0.015173, 
    0.039253, -0.018264, 0.043048, 0.075448, -0.060968, -0.020366, 0.012748, -0.056761, 0.013917, 0.020112, 0.006543, -0.034396, -0.023498, -0.084334, 0.072300, -0.008033, -0.001428, 0.008050, -0.021668, 0.054617, -0.046053, 0.077900, -0.012248, -0.063391, -0.059907, 0.012855, -0.052398, -0.001987, 0.049978, 0.060019, 0.025737, 0.088147, 0.050133, -0.010616, 0.041757, 0.017576, 0.028726, -0.059103, 0.086192, -0.053550, 0.032978, 0.001520, -0.029893, 0.069990, -0.081136, 0.034418, -0.025340, -0.052093, 0.048220, -0.012409, 0.058029, -0.032946, -0.036118, 0.040281, 0.035364, 0.066831, 0.005577, 0.010375, -0.071865, 0.044746, -0.029386, 0.053145, -0.051034, 0.039623, 0.078087, -0.037605, 0.072599, 0.024797, 0.066117, 0.021389, -0.050695, 0.038334, 0.082537, -0.017073, 0.073044, -0.034128, 0.035483, -0.018613, 0.078640, 0.033188, 0.011787, 0.038318, 0.006892, 0.024539, 0.075082, -0.040223, 0.009262, -0.017069, 0.017559, 0.068764, 0.034422, 0.044969, 0.026506, 0.048968, -0.011261, 0.061697, 0.029998, -0.021267, 0.053713, -0.000809, -0.066341, 0.030916, -0.077835, 0.014334, 0.046160, -0.066051, -0.047705, -0.068433, -0.022108, 0.068284, -0.113141, 0.027926, -0.033573, 0.038848, -0.017278, -0.088668, 0.035530, -0.056481, -0.115039, 0.012575, 0.014265, 0.049455, -0.086939, -0.059089, -0.054817, -0.042618, -0.086262, 0.071241, 0.036471, 0.049657, 0.053998, 0.036759, -0.059926, 0.069433, -0.055939, 0.008701, -0.012579, -0.114080, -0.041860, -0.006036, -0.024715, 0.013934, 0.011571, 0.065212, -0.026661, -0.019342, 0.051366, -0.077607, -0.090098, -0.080150, 0.045193, 0.017808, 0.031932, 0.065193, 0.066986, -0.071107, 0.040239, -0.000969, -0.019429, -0.068117, 0.058683, -0.013670, -0.032061, 0.034375, 0.000184, 0.030808, -0.026705, 0.038948, 0.069970, -0.077814, -0.041866, -0.058243, 0.058974, 0.047539, 0.061065, -0.011156, 0.004657, 0.065285, 0.029955, -0.003164, -0.020637, -0.071365, 0.007742, 0.028664, 0.059441, 0.056327, -0.037371, -0.023379, 0.008438, 0.084151, -0.024379, 0.066913, 0.028476, 0.075900, -0.081645, -0.068904, -0.029234, 0.052865, 0.006327, -0.045975, 0.002876, -0.016708, 0.025737, 0.080738, 0.036150, 0.054732, 0.065890, -0.011412, 0.042657, 0.010004, -0.020264, 0.029858, -0.057745, -0.019044, 0.024950, 0.018813, 0.084041, 0.025155, 0.037145, 0.015343, 0.066891, -0.034121, 0.053904, 0.032578, -0.027814, 0.008880, 0.018743, -0.124198, -0.037055, -0.064526, -0.046250, 0.024071, 0.068186, -0.084443, -0.106131, -0.067889, -0.038299, 0.005911, -0.026100, -0.036105, 0.036800, -0.004478, 0.014834, 0.029328, 0.067555, -0.031874, 0.069751, -0.078129, -0.051554, 0.001849, 0.046029, 0.011106, 0.097672, -0.027394, 0.089869, 0.134199, 0.038500, 0.016370, 0.039137, 0.019090, -0.031952, 0.075489, -0.004375, 0.014899, 0.000328, -0.043128, 0.041333, 0.065496, 0.035549, -0.042727, -0.014550, -0.028673, 0.025768, -0.076553, 0.080360, 0.025527, 0.011766, -0.063291, -0.062260, -0.042066, -0.030315, 0.093488, 0.068985, 0.077831, 0.022632, 0.082294, 0.065418, 0.001566, 0.066923, -0.071023, 0.082638, -0.066323, -0.027797, -0.029730, 0.056349, 0.026205, -0.041054, 0.083161, 0.027764, 0.004854, 0.018001, 0.075559, -0.000653, 0.022671, -0.013585, -0.018954, -0.019640, -0.013209, 0.045245, -0.022882, -0.032103, 0.024871, -0.043878, 0.063607, 0.024825, 0.061766, -0.069687, 0.052459, -0.036542, 0.044756, -0.067204, 0.059633, 0.065909, -0.076749, -0.082909, -0.019616, -0.048291, -0.061589, -0.102964, 0.097348, -0.049658, -0.000660, -0.007231, 0.071949, -0.036751, -0.070092, 0.026187, 0.037830, 0.044124, 0.039155, 0.090839, -0.044631, -0.051562, -0.022398, 0.009401, -0.063283, -0.061044, -0.051113, -0.016620, -0.017556, 0.059576, -0.060941, 0.064278, -0.030916, -0.007797, 0.051378, 0.043150, -0.048997, 0.049672, -0.002291, 0.006874, -0.035999, -0.023962, 0.011025, 0.001387, 0.025379, 0.028667, -0.023299, 0.033557, -0.096487, 0.035472, 0.020238, 0.055262, -0.006162, -0.078866, -0.059048, -0.053025, -0.029910, -0.068397, -0.006403, 0.039770, 0.015765, -0.028189, -0.014029, 0.045767, -0.103913, 0.030333, -0.054296, -0.067405, 0.010269, 0.040583, -0.064445, -0.033426, 0.026063, -0.017104, 0.039654, -0.005758, -0.015688, -0.045180, 0.076019, 0.044507, 0.008273, -0.065772, -0.036135, 0.066203, 0.089669, 0.076117, 0.042728, -0.025586, -0.039288, 0.009086, 0.022953, 0.026561, -0.012115, -0.012334, -0.069637, 0.070583, -0.033708, -0.077155, -0.105680, 0.016650, -0.060118, 0.041518, -0.035245, -0.070362, -0.036103, 0.081573, 0.041650, -0.091981, -0.074019, -0.039309, 0.047674, 0.074459, -0.021937, -0.067132, -0.030622, 0.059029, -0.072497, 0.017382, -0.089555, 0.003058, 0.022281, -0.019542, -0.009095, -0.026909, 0.067427, -0.028758, -0.026417, -0.049769, -0.034635, -0.029380, -0.038088, -0.009582, -0.039919, 0.057737, -0.006608, 0.036753, -0.081407, 0.012506, 0.078413, 0.033319, 0.010990, -0.052049, 0.064401, -0.047613, 0.077490, 0.071220, -0.066614, -0.054912, -0.051117, 0.095444, -0.049068, 0.012556, -0.104369, -0.109574, -0.079035, -0.069010, 0.044366, 0.033692, 0.048274, 0.050092, 0.056626, 0.013195, -0.045457, 0.015342, 0.054065, 0.022570, 0.063676, 0.023773, 0.056496, 0.017185, -0.028945, 0.069830, -0.021388, -0.068119, -0.085074, 0.053516, 0.063749, -0.011473, -0.068275, 0.032276, -0.003652, 0.001140, -0.032274, 0.037492, 0.062757, 0.071986, -0.063658, 0.039198, -0.028546, -0.027609, 0.083314
    
};

const float layer2_Conv2d_bias_yuan[32] = {
    0.071641, 0.077447, 0.037827, 0.048845, 0.042638, 0.076693, 0.088097, -0.026274, -0.039302, -0.008992, 0.000897, -0.034037, -0.025561, -0.021708, -0.036950, 0.023091, -0.016183, 0.023553, 0.029705, 0.045455, -0.060225, -0.089075, -0.082782, -0.062217, -0.076381, -0.072720, 0.075507, 0.105575, -0.024106, -0.003871, 0.066555, 0.001222
};

const float layer3_Conv2d_weight_yuan[18432] = {
    0.034332, -0.016905, -0.029407, 0.047107, -0.011200, -0.032255, 0.008210, -0.019957, 0.045641, 0.020054, -0.034800, -0.002186, -0.014062, -0.045654, 0.041509, 0.018411, 0.052797, -0.010216, 0.055068, -0.003746, -0.020513, 0.054885, 0.002199, -0.026216, -0.028005, -0.067418, -0.031005, -0.050346, 0.009973, -0.010773, -0.030789, -0.001813, 0.027591, -0.072314, 0.044105, -0.031403, 0.045673, 0.042836, 0.012800, 0.005392, 0.020587, 0.042979, -0.065596, -0.002418, -0.056736, 0.054735, 0.028541, 0.034552, 0.049451, 0.031561, -0.043193, -0.035940, -0.019943, -0.064821, -0.027677, -0.032795, -0.045248, 0.032273, -0.028338, 0.028469, 0.063297, 0.037200, -0.023091, 0.009346, 0.051527, 0.042935, 0.022587, 0.037506, 0.002537, -0.034495, 0.026037, 0.002733, 0.023717, 0.010210, 0.048792, 0.029744, 0.048069, -0.061694, -0.049793, -0.028447, -0.012965, -0.036917, -0.007253, -0.050362, 0.044108, -0.039218, -0.006014, -0.017805, -0.037703, 0.005214, -0.043752, -0.040793, -0.030702, -0.061740, -0.073684, -0.053260, 0.037608, -0.003272, 0.039063, 0.024028, -0.014980, 0.028822, 0.050812, -0.030694, -0.026588, 0.037140, -0.066654, 0.036183, 0.043905, 0.063764, -0.016094, -0.010128, -0.044026, -0.001890, -0.026029, 0.022683, 0.006213, 0.006258, 0.053920, 0.040347, -0.059237, -0.021948, 0.050786, -0.016115, 0.040805, -0.055188, -0.007067, -0.045681, 0.035121, -0.053019, 0.003904, -0.001983, -0.054398, -0.056319, -0.032557, 0.014497, -0.029152, -0.034238, 0.056935, -0.039743, 0.014524, 0.027184, 0.023492, 0.009848, 0.034649, -0.039793, -0.012133, 0.022201, 0.054610, -0.017160, 0.057549, 0.025322, 0.032209, -0.026545, -0.055740, -0.025053, 0.018880, -0.053724, 0.034422, 0.010339, -0.031622, -0.027801, 0.034345, 0.031512, 0.000721, 0.032257, 0.009829, 0.030698, -0.055905, 0.008188, 0.047018, 0.042494, -0.029061, -0.051192, 0.034310, 0.044244, -0.039244, 0.029808, -0.042004, -0.030072, 0.034857, 0.056570, 0.063006, 0.033455, 0.040259, 0.016454, -0.009609, 0.068008, -0.041832, -0.003917, -0.037261, -0.039235, -0.016975, -0.029368, 0.005493, -0.053359, -0.029982, -0.031736, -0.038100, -0.008100, -0.036348, -0.022537, -0.007502, -0.019436, 0.036654, -0.046080, -0.024575, 0.088737, -0.025454, 0.004808, 0.049759, 0.069552, 0.000253, -0.096825, -0.070803, -0.029090, 0.024979, -0.009346, -0.052661, -0.033348, 0.035886, -0.052500, -0.039592, -0.009010, -0.046602, 0.015503, -0.061241, -0.033925, 0.025908, -0.055665, -0.012077, -0.054992, -0.015541, 0.036674, 0.002719, -0.066287, -0.066124, 0.030554, 0.033733, 0.042863, -0.025709, -0.016289, 0.028461, 0.037528, -0.028445, 0.043535, -0.010317, -0.013751, -0.039770, 0.024421, 0.029109, 0.013497, -0.044807, -0.019985, 0.018947, -0.059270, -0.040440, 0.012077, -0.028598, -0.040009, 0.025554, 0.046394, -0.050569, -0.011193, 0.016209, 0.034145, -0.020091, -0.053308, 0.042331, 0.016355, 0.013571, -0.027634, 0.030437, 0.037165, 0.026784, -0.050865, -0.027834, -0.027458, -0.064400, -0.034803, -0.039853, 0.042547, 0.036790, -0.031689, 0.027409, 0.064665, 0.000931, 0.028709, 0.015922, 0.059449, 0.045950, -0.000637, 0.069332, -0.026247, 0.032639, 0.001406, -0.032230, 0.056317, -0.020614, 0.003233, -0.035019, 0.052765, -0.026041, 0.023513, -0.022813, 0.041299, 0.019876, -0.043675, -0.017614, 0.038968, 0.027589, 0.000831, -0.028861, 0.006369, -0.031846, 0.042687, -0.057265, 0.010337, -0.022192, -0.018751, 0.004508, -0.041452, 0.018625, -0.069863, -0.093150, -0.094470, -0.061799, -0.006423, 0.029011, -0.005727, -0.023428, -0.005433, -0.039197, -0.026263, -0.096818, -0.080723, 0.049721, 0.040385, 0.042514, 0.003175, 0.007965, 0.011938, -0.036078, -0.019038, -0.057349, 0.007406, 0.026471, -0.026961, 0.063899, 0.076496, 0.010781, -0.052519, -0.065068, -0.094141, 0.036897, 0.040042, -0.068338, 0.063848, 0.028372, -0.029940, 0.013814, -0.017807, -0.057047, 0.011804, -0.033112, 0.054721, -0.046747, 0.057448, -0.026963, -0.026683, 0.006407, -0.020648, 0.019035, -0.017670, -0.048925, 0.046822, -0.005948, 0.000379, -0.043773, -0.010677, -0.045786, 0.035010, 0.071673, 0.008418, -0.041470, 0.045671, 0.013268, -0.101008, -0.004137, -0.010512, 0.007405, 0.044994, -0.032041, -0.072434, -0.041387, -0.044352, 0.018741, -0.039341, 0.052315, 0.034959, 0.065961, 0.026403, 0.033726, 0.009392, -0.034210, -0.005029, -0.000112, -0.000636, 0.012224, -0.030824, 0.056562, -0.058196, 0.048163, 0.053272, 0.082354, 0.002741, -0.027497, -0.015185, -0.066930, -0.028828, 0.035074, -0.019629, 0.055652, -0.041733, -0.045301, -0.035119, 0.044148, 0.018760, -0.009734, 0.037236, -0.025066, -0.051577, 0.015708, 0.004950, -0.009988, -0.034666, -0.031654, 0.004050, -0.040048, 0.017411, 0.054061, -0.039598, -0.078882, -0.081904, -0.045137, -0.024596, -0.060390, 0.004925, -0.021302, -0.064537, -0.010041, 0.008832, -0.101803, 0.061030, -0.042054, 0.019691, 0.089650, -0.001018, 0.081227, -0.007385, -0.035889, -0.066125, 0.008958, -0.039980, 0.009795, 0.007578, -0.043756, -0.007771, -0.009781, -0.065316, -0.044110, -0.003511, 0.067377, 0.047080, 0.068717, 0.071995, 0.068316, -0.055544, -0.010541, -0.053206, 0.041662, 0.011655, -0.052126, -0.012962, 0.016182, 0.021831, 0.025708, -0.053697, -0.008783, 0.044878, 0.038162, 0.011067, 0.007709, 0.028192, -0.035817, 0.016703, -0.050302, 0.022118, 0.049319, 0.048537, -0.018060, -0.018445, -0.119898, -0.011204, -0.035091, -0.056692, -0.025918, -0.029404, 0.017876, 0.037072, -0.002540, -0.006077, 
    0.025398, 0.028345, -0.005112, -0.030144, -0.018734, 0.008552, 0.008908, 0.006972, 0.015160, 0.032382, 0.010181, -0.001098, -0.031200, -0.003034, 0.010494, -0.039782, 0.006830, 0.027626, 0.042827, -0.016315, 0.029722, 0.053635, -0.036630, 0.024562, 0.051184, -0.027440, -0.015292, 0.001649, -0.091355, -0.044455, -0.034682, -0.005302, 0.024257, -0.012268, -0.015665, -0.022016, -0.025684, -0.005642, -0.098149, -0.058938, -0.000531, 0.013469, 0.049533, -0.008902, 0.011719, 0.026104, 0.071038, -0.033978, 0.004755, 0.022758, 0.015698, 0.045540, -0.029175, 0.030368, 0.018818, 0.022385, 0.031028, -0.000926, 0.040469, 0.014386, 0.026994, 0.056445, 0.020886, 0.103480, -0.052105, -0.036174, 0.044554, -0.033752, 0.003846, 0.005791, -0.059481, -0.015062, 0.001046, -0.010608, -0.049022, -0.033014, -0.018918, -0.017442, -0.065621, -0.048619, 0.046603, 0.025008, 0.002207, -0.058786, 0.010652, -0.041075, -0.035666, 0.039482, -0.032231, 0.056109, -0.047549, 0.023060, -0.068813, -0.041783, 0.017718, -0.026965, 0.005836, 0.003807, -0.040669, -0.046336, 0.022084, -0.041065, -0.034331, -0.035318, -0.002956, 0.030137, 0.019468, -0.070511, -0.017989, 0.030212, 0.043090, 0.043654, -0.055284, 0.014387, -0.037589, 0.039342, -0.038780, -0.006943, 0.036076, -0.039838, 0.004787, -0.013060, 0.017389, -0.030061, -0.006617, -0.007502, -0.016187, 0.003568, -0.025185, -0.038116, 0.007213, 0.019058, -0.049225, -0.016479, -0.020924, 0.008415, 0.042307, 0.041742, 0.033899, 0.032720, -0.026093, -0.015768, 0.027481, 0.027072, -0.030950, 0.009084, 0.040202, 0.007132, -0.037593, -0.011674, -0.060127, 0.010807, -0.062839, 0.031430, -0.013783, 0.042513, -0.006573, -0.034666, 0.031357, -0.010504, -0.058953, -0.034429, -0.021316, -0.013781, 0.000324, -0.016346, -0.053662, -0.041288, 0.005564, 0.046996, -0.037196, -0.034204, 0.038521, -0.016395, 0.047897, -0.008325, -0.019336, 0.001753, -0.001245, 0.033443, 0.011523, 0.007595, 0.038761, -0.010859, -0.024909, -0.035660, -0.011528, -0.026784, 0.041471, 0.020933, -0.061679, -0.056645, 0.028836, -0.025874, -0.050182, 0.038675, -0.024247, 0.022693, -0.009697, -0.024523, 0.052710, -0.020475, 0.035544, -0.060621, -0.042663, -0.033212, -0.008043, -0.041870, -0.008422, -0.062101, -0.069086, -0.071938, 0.021452, -0.007127, 0.015871, -0.030356, -0.022837, -0.061120, 0.017926, 0.022182, 0.022578, -0.019835, -0.035594, -0.032929, -0.009803, 0.035506, 0.048859, 0.014738, 0.007158, -0.046227, -0.032221, -0.053597, 0.018136, -0.001771, -0.019873, -0.067947, 0.014301, -0.026211, 0.036304, 0.020050, -0.008665, -0.020278, -0.010038, -0.033613, -0.040331, -0.032409, -0.017062, -0.039752, 0.013651, -0.033845, -0.062699, 0.013247, -0.021698, -0.037198, -0.030865, -0.015904, -0.011001, -0.035130, -0.065195, -0.040045, -0.020370, 0.026339, 0.012704, -0.058899, 0.002805, 0.011875, 0.019285, 0.023297, 0.026349, -0.014874, -0.070144, 0.020243, -0.032712, 0.054789, 0.017848, -0.015077, -0.044380, 0.054060, -0.057798, 0.050550, -0.009903, -0.070283, -0.018715, 0.030810, 0.001969, -0.028227, 0.018316, 0.037810, 0.009534, -0.011685, -0.036078, 0.035081, 0.008418, 0.002959, 0.027640, -0.033380, 0.035733, 0.034262, -0.051566, -0.056955, -0.010479, 0.010982, 0.018336, 0.042726, 0.032118, -0.025617, 0.001061, -0.014347, -0.042514, -0.066411, 0.000255, -0.033489, -0.064449, 0.018729, -0.026707, -0.014851, 0.011745, 0.021491, 0.015159, 0.042463, 0.024740, -0.048766, -0.005490, -0.005951, -0.014992, 0.043594, 0.039277, -0.037523, -0.062712, -0.017669, -0.044218, 0.035082, -0.052884, 0.034031, -0.048291, 0.010848, -0.017629, -0.016292, -0.032657, -0.014072, 0.034049, 0.012081, -0.052761, -0.066350, 0.025408, -0.064023, 0.038169, -0.042372, 0.036578, 0.014718, 0.034687, -0.036739, 0.024811, 0.000943, -0.076648, 0.022728, -0.062172, -0.065848, -0.035059, -0.040463, -0.060215, -0.038851, 0.007371, -0.053742, -0.015592, -0.034393, 0.003143, 0.048473, -0.025644, 0.024362, -0.051064, 0.010110, -0.013576, -0.021079, 0.016711, 0.003361, -0.005842, -0.010123, 0.044106, 0.036355, -0.008954, -0.003527, 0.000396, 0.042547, 0.030233, -0.005430, -0.021949, -0.072624, -0.036835, 0.021315, 0.026995, -0.068619, -0.030352, 0.005266, 0.050199, -0.038748, -0.006643, -0.005090, 0.005083, -0.008248, -0.001566, 0.014361, 0.003726, -0.052865, 0.029501, 0.032715, -0.008339, 0.011369, -0.016117, -0.051290, 0.045574, -0.047464, 0.007601, 0.012306, -0.010456, 0.029082, -0.037161, -0.016749, 0.014265, 0.042482, -0.024669, -0.002914, 0.010196, 0.010492, 0.039464, 0.030055, -0.060301, 0.050679, -0.040743, -0.055886, -0.025025, 0.042842, 0.000662, -0.025400, -0.013781, -0.018512, 0.001132, 0.034146, -0.066736, -0.005221, -0.008456, -0.054296, -0.035714, -0.013621, -0.061918, -0.070915, -0.055999, 0.019862, -0.010242, 0.002336, -0.036687, 0.063037, -0.010459, -0.021519, 0.006354, 0.048291, 0.064376, -0.023157, 0.057939, 0.036513, -0.000515, -0.004459, -0.066766, -0.035265, 0.004137, 0.031607, 0.003789, -0.045573, -0.018074, -0.079924, -0.015454, -0.011508, 0.035813, 0.020746, -0.049568, -0.010111, -0.081628, -0.037255, -0.004943, -0.003993, -0.009378, -0.017980, 0.012080, -0.036819, 0.031486, -0.054322, -0.022442, -0.076177, -0.017769, -0.049496, 0.021325, -0.021839, 0.059266, 0.041993, -0.020981, -0.043181, 0.042215, -0.021448, 0.082097, 0.033067, 0.034157, 0.026729, -0.039640, -0.018725, 0.029761, -0.000148, -0.052070, -0.006935, 0.047004, -0.014088, -0.039840, -0.020890, 
    -0.045289, -0.044747, 0.005428, -0.004860, 0.086572, 0.040299, 0.014261, 0.036171, -0.017066, 0.016254, 0.073211, -0.017388, 0.024665, -0.022010, 0.020981, -0.060559, 0.001961, 0.020464, 0.055782, -0.025104, 0.004480, 0.002860, -0.008794, -0.053765, 0.006609, -0.064103, 0.064709, -0.008353, 0.009841, -0.017928, -0.030846, 0.007093, 0.045083, 0.025890, 0.012286, 0.022447, -0.023791, -0.055070, -0.034821, 0.037256, -0.013219, 0.009602, 0.071533, -0.005009, -0.026948, -0.033227, -0.048731, -0.026030, -0.044475, 0.048271, 0.087396, 0.061277, 0.030584, -0.018213, 0.028564, 0.036847, -0.069074, -0.057973, -0.049445, -0.004676, -0.060034, -0.030777, 0.020792, -0.056298, 0.006407, -0.020998, -0.003650, -0.029730, -0.028979, 0.040749, 0.031969, 0.056587, 0.039115, 0.024177, 0.030687, 0.047327, 0.002783, 0.021144, 0.032824, 0.048969, 0.012221, -0.032179, 0.045219, -0.026246, -0.000330, -0.074919, 0.021433, 0.031388, 0.016980, -0.082662, -0.069347, -0.078435, -0.026992, 0.047027, -0.031277, -0.046191, 0.012853, 0.035502, 0.043007, 0.051385, -0.021644, -0.008330, -0.000747, 0.069638, -0.007368, 0.013017, 0.039128, 0.003361, -0.012060, -0.030913, -0.096672, -0.049630, -0.107737, 0.019668, -0.079690, -0.023596, 0.017819, -0.015650, -0.084105, -0.077617, -0.012497, -0.075934, -0.003053, 0.012374, -0.012888, 0.024627, -0.025543, -0.049052, -0.003070, 0.006671, -0.050728, 0.003928, 0.035695, 0.021437, 0.029343, 0.002002, 0.049584, 0.004059, 0.033788, -0.018229, -0.001087, 0.060276, -0.029835, 0.003085, -0.067482, -0.049999, -0.045951, 0.037150, -0.024847, 0.051483, 0.014504, 0.003101, 0.079390, 0.070725, 0.008710, -0.002563, -0.025394, -0.031369, 0.041871, 0.019895, 0.040327, -0.018615, -0.008854, 0.032638, -0.053824, -0.005788, 0.038954, -0.003568, 0.042827, 0.017558, -0.044397, -0.057099, 0.011765, -0.055624, -0.000889, -0.068935, 0.009297, -0.061160, -0.015173, 0.029433, -0.042975, 0.003695, 0.023904, 0.018137, -0.049613, -0.042759, -0.054207, 0.035258, -0.027750, -0.026997, 0.004734, -0.030690, -0.047694, -0.006058, 0.015971, -0.032760, 0.030297, -0.048036, -0.074341, 0.026129, 0.014298, 0.020539, -0.013032, 0.046025, -0.041429, -0.033731, -0.014742, -0.034037, 0.054132, -0.029644, 0.012626, -0.003771, -0.025486, -0.053974, 0.010968, 0.043020, -0.001617, 0.030088, 0.027183, 0.046968, -0.008212, 0.050766, 0.019452, 0.013114, -0.014345, 0.047885, 0.058193, -0.063074, 0.017179, -0.027881, 0.020322, 0.035968, -0.033020, 0.027579, -0.030530, 0.021082, 0.026988, 0.049198, 0.042166, 0.058085, 0.003580, -0.031668, 0.016450, 0.022063, -0.026749, -0.057894, -0.015336, -0.040810, 0.002622, -0.013311, 0.051514, -0.045291, 0.003603, -0.028163, -0.013448, -0.047699, 0.007337, 0.011870, 0.018072, 0.035412, 0.050038, -0.022353, -0.011966, 0.054982, 0.032042, -0.038638, -0.027747, 0.047403, -0.042586, -0.048684, -0.039567, -0.020140, 0.027378, -0.025334, -0.057479, -0.057629, 0.003063, 0.031362, 0.014804, -0.025312, -0.025183, -0.032225, 0.025940, -0.055702, 0.026806, 0.018017, 0.020495, -0.030469, -0.046043, 0.001135, 0.038347, 0.043381, -0.046892, -0.052334, -0.043393, -0.056052, -0.039951, -0.014489, -0.048459, -0.024365, 0.032452, 0.005635, -0.033770, 0.011112, -0.028269, -0.028358, -0.038994, 0.026698, 0.006815, 0.008895, -0.071798, -0.043206, -0.018750, 0.004246, 0.006725, 0.008392, -0.036103, 0.004049, 0.020848, 0.043141, 0.036511, -0.023056, -0.035347, -0.077764, -0.045386, -0.046503, 0.025887, 0.004854, -0.009657, 0.019649, -0.046091, -0.034734, -0.076379, -0.067083, 0.017543, 0.015380, -0.067046, 0.030876, -0.052523, 0.011778, 0.001484, 0.026046, 0.040193, -0.012862, -0.018510, 0.020450, -0.041323, 0.041145, -0.027817, 0.023076, -0.032197, 0.061655, 0.064487, -0.038957, -0.060838, -0.065553, -0.029513, 0.047684, 0.011202, -0.019349, 0.016452, -0.005631, -0.045075, 0.039088, 0.001946, -0.045305, 0.006387, -0.009037, 0.010723, -0.075608, -0.023998, 0.008321, 0.047617, -0.051685, -0.001389, -0.005965, 0.026189, -0.024473, -0.005099, 0.070551, 0.044138, -0.013545, -0.043035, 0.006368, -0.047719, 0.028993, 0.006415, 0.010570, 0.005331, -0.034305, -0.054227, 0.031839, 0.014436, 0.016905, -0.022291, -0.051810, -0.055713, -0.023275, 0.006374, 0.068779, -0.057958, 0.046094, -0.056294, 0.002158, 0.072003, 0.090224, 0.018092, -0.039994, -0.006488, 0.008223, -0.009820, 0.012602, 0.054934, 0.007903, 0.030242, -0.045759, -0.053313, 0.044555, -0.021361, -0.009250, -0.032781, 0.036040, -0.020108, -0.060687, -0.079297, -0.021407, 0.058147, 0.040837, -0.046661, -0.045475, 0.004946, -0.018415, 0.000009, -0.025335, -0.052725, 0.035952, -0.016372, -0.002253, -0.083056, -0.051289, 0.016999, 0.039443, 0.045507, 0.049375, 0.050657, -0.058474, 0.024999, -0.004777, -0.055674, 0.050072, -0.045107, 0.025715, 0.028577, 0.052793, -0.047866, -0.067922, 0.038034, -0.065694, -0.043790, -0.014028, -0.029960, 0.021906, 0.012631, 0.027797, -0.044981, -0.050349, -0.033976, -0.033922, -0.021552, 0.027929, -0.051007, -0.015689, 0.046998, 0.064830, 0.002258, 0.072711, 0.002636, -0.023528, -0.015584, -0.001741, -0.019078, -0.023502, 0.061985, 0.017820, 0.034304, 0.004384, -0.054314, -0.026083, -0.019424, 0.057478, 0.022573, -0.022755, -0.015559, -0.044009, -0.044809, 0.060231, 0.050162, 0.017644, 0.050267, 0.009207, -0.006361, -0.059349, 0.041664, -0.034456, -0.026619, 0.042375, -0.031278, 0.017820, -0.017833, -0.035973, -0.014127, -0.074424, 
    -0.039199, -0.038168, 0.051462, -0.007744, 0.028244, -0.025231, -0.059061, -0.058582, 0.024738, 0.011008, 0.042804, 0.033529, 0.021036, 0.011206, 0.051453, -0.015866, 0.012915, 0.029980, -0.068642, 0.022115, 0.020499, 0.052202, -0.010031, 0.051855, -0.049424, 0.029593, 0.007857, 0.007269, -0.023270, -0.029101, 0.054015, -0.011997, 0.056243, 0.003057, -0.052274, -0.002197, -0.032993, 0.029762, -0.045548, -0.044198, -0.014535, -0.006835, 0.040961, 0.068140, -0.017077, 0.016551, -0.003418, -0.009250, 0.017945, -0.029885, -0.014860, -0.006158, 0.059230, -0.003808, -0.036691, -0.054661, -0.015134, 0.051395, -0.056131, 0.019245, -0.068567, 0.016877, -0.047616, 0.052555, 0.017726, -0.012823, 0.021974, 0.048159, -0.005709, 0.039099, -0.025761, -0.001399, -0.030050, 0.007401, 0.081177, -0.008190, 0.002473, -0.025583, 0.025803, -0.070461, 0.025927, 0.025122, -0.013148, 0.001697, -0.007973, 0.040734, -0.024196, 0.025819, 0.070785, 0.033815, 0.014123, -0.083835, 0.005048, -0.030585, 0.000734, -0.022488, 0.048077, 0.025198, 0.029834, -0.006638, -0.060636, 0.036031, 0.045298, -0.058154, -0.008927, 0.052723, -0.046045, 0.048981, 0.001324, 0.060786, -0.032766, 0.048707, 0.111748, -0.055141, -0.058112, -0.083671, -0.046242, -0.052472, -0.068219, -0.028148, -0.039694, 0.037176, -0.000475, 0.011993, -0.055840, -0.011876, 0.016769, -0.029821, 0.003654, -0.011217, 0.008998, -0.001524, -0.035239, 0.027289, 0.023829, -0.030574, 0.031294, 0.031991, -0.057314, 0.053571, 0.047066, 0.047163, 0.043764, -0.035250, 0.034828, 0.046252, -0.001977, -0.036626, 0.011942, -0.041776, 0.032271, -0.002892, 0.065378, -0.069553, -0.097081, -0.056948, -0.025915, -0.035068, -0.056662, -0.035200, 0.007152, -0.051959, -0.036157, 0.042415, 0.048535, 0.052475, -0.055167, 0.031675, -0.049797, -0.001573, -0.026611, -0.017960, -0.054030, -0.017023, -0.049165, -0.048157, 0.029581, 0.003544, -0.000127, 0.024564, 0.021495, 0.060642, -0.013993, 0.071273, 0.080475, -0.032707, 0.048229, 0.011151, 0.001754, -0.024471, 0.064130, -0.007813, 0.057791, 0.034236, -0.023058, 0.021699, 0.019448, 0.061149, -0.049945, 0.065036, 0.067818, 0.002217, 0.044590, 0.016804, 0.059542, 0.043821, 0.046194, -0.044722, 0.033307, 0.001727, 0.043471, 0.004034, -0.013235, 0.036019, -0.018576, -0.044851, 0.055035, 0.068850, 0.006899, 0.001370, -0.002107, 0.002701, 0.036344, -0.006452, 0.027184, -0.035402, -0.003010, -0.038293, -0.033406, -0.014295, 0.043614, 0.019779, 0.060190, -0.050084, -0.018767, -0.028586, -0.053850, 0.010264, -0.042892, -0.015706, -0.056959, 0.025983, -0.014492, -0.080730, -0.034945, -0.046738, -0.059310, -0.040193, -0.007242, -0.068198, -0.007736, -0.073636, -0.062285, -0.003155, -0.029550, -0.046430, -0.006125, 0.021162, -0.003321, 0.034777, -0.036101, -0.040666, -0.046467, 0.021084, 0.003315, -0.003392, -0.081902, -0.047549, 0.050626, -0.011469, -0.036059, 0.033911, 0.032201, -0.048997, -0.037230, -0.031791, 0.006482, -0.034630, 0.037979, -0.060546, 0.042684, 0.021700, -0.053208, -0.002757, -0.027711, 0.040806, 0.040674, 0.032289, -0.048815, -0.034377, -0.005625, -0.059457, 0.026939, -0.051726, 0.050450, 0.019045, -0.003174, -0.062269, -0.062928, 0.016884, -0.028698, -0.015101, -0.046030, -0.043130, -0.031623, -0.052611, 0.060596, 0.035699, 0.053095, 0.031952, 0.002577, 0.028997, 0.007980, 0.057632, 0.067695, -0.011237, -0.019265, 0.000683, -0.043193, 0.010896, 0.001279, -0.016409, 0.021047, -0.039333, -0.023654, 0.012346, 0.055974, -0.053066, 0.002020, -0.032902, -0.039853, -0.058482, 0.047707, -0.001439, -0.003868, -0.022825, 0.017800, 0.030142, -0.050990, -0.005395, -0.078726, 0.032160, 0.036318, -0.070501, -0.061648, -0.055618, 0.033971, 0.050918, 0.003522, -0.046467, 0.048519, 0.036137, -0.065864, -0.021602, -0.047747, -0.023167, -0.029428, -0.045729, -0.023958, -0.056495, -0.022772, -0.017661, -0.002557, -0.007730, -0.008644, 0.001989, 0.003844, -0.040033, -0.002298, -0.066496, -0.061782, 0.026097, 0.027684, -0.023223, 0.030728, -0.059007, 0.024231, -0.005444, -0.057097, 0.016206, 0.031921, -0.001687, 0.025806, 0.012999, -0.025740, -0.045699, -0.063500, -0.023859, -0.001178, 0.022731, -0.046443, -0.013710, -0.032147, 0.023651, -0.058376, -0.059209, 0.017819, -0.029055, 0.003690, -0.059590, -0.006924, 0.024061, 0.069079, 0.062610, -0.046196, 0.033408, 0.044255, 0.011337, -0.015947, 0.058565, 0.018906, 0.015426, -0.045256, 0.055160, 0.033678, 0.018166, -0.031188, 0.000430, -0.024875, 0.039091, 0.010890, 0.007669, -0.036727, 0.029835, -0.052166, 0.032279, 0.025244, -0.000866, 0.015156, -0.030053, -0.051235, -0.024538, 0.002100, 0.015164, 0.012627, 0.033176, 0.055478, 0.035148, -0.025875, 0.053575, -0.009459, 0.051863, -0.003311, -0.015073, 0.056073, -0.035377, -0.041752, 0.015270, 0.056185, -0.033198, 0.029719, 0.027253, -0.062732, -0.040339, 0.033846, 0.023562, -0.056973, -0.011915, 0.004583, 0.029706, -0.060730, -0.034656, -0.012110, -0.005588, -0.043218, 0.056520, -0.042055, 0.041209, -0.041471, -0.004017, 0.051666, -0.026147, 0.036134, -0.038541, 0.026377, 0.031983, -0.008841, 0.010832, 0.012840, -0.046212, 0.041632, 0.010939, -0.057721, 0.048988, 0.021543, -0.057523, 0.032275, -0.006856, -0.036997, -0.027646, 0.011348, 0.034517, -0.019692, -0.014891, 0.003524, -0.010406, 0.033187, -0.014714, 0.021780, 0.045919, 0.031823, -0.015842, 0.028427, -0.037955, -0.036390, 0.005016, -0.025249, 0.070304, 0.080335, -0.032804, 0.038428, 0.018959, 
    -0.038343, 0.063262, 0.025106, 0.047850, -0.026994, -0.044267, -0.067291, -0.022030, 0.031145, -0.029436, 0.050346, -0.025361, 0.007753, -0.001452, 0.018108, 0.016394, -0.002798, 0.036052, 0.017010, 0.033564, -0.043910, -0.016947, -0.004648, 0.011315, -0.021076, -0.064617, 0.003011, 0.037939, -0.051406, 0.034433, -0.017198, 0.054031, -0.035823, 0.053935, 0.012631, -0.051144, -0.058049, -0.030955, 0.014695, 0.003911, -0.041372, 0.037210, -0.064813, -0.001273, -0.002507, -0.035837, -0.002833, 0.050485, -0.036450, -0.014089, -0.002788, 0.040473, -0.019266, 0.008046, 0.045235, 0.012081, -0.028537, -0.000275, -0.039134, 0.050794, -0.031164, 0.001646, 0.017359, 0.073936, -0.006257, -0.030867, -0.027462, 0.040521, 0.027341, -0.019691, 0.042210, -0.025435, 0.016481, -0.026085, 0.012463, 0.029386, 0.028299, -0.002299, -0.046533, -0.000939, 0.000334, 0.033403, -0.051523, -0.069316, 0.031585, 0.061709, -0.027628, 0.027680, -0.045833, 0.019718, -0.003204, -0.034042, 0.008956, -0.064225, -0.065949, -0.060775, 0.007043, 0.002700, 0.003415, -0.035871, 0.063785, -0.013691, -0.014313, 0.069475, -0.025419, 0.000371, -0.021941, -0.004055, -0.058636, -0.101632, -0.059889, -0.028349, 0.053196, -0.017124, -0.034235, -0.015660, -0.057215, -0.063002, 0.064501, 0.009666, 0.022331, 0.021252, -0.051020, -0.063343, -0.007404, -0.067198, -0.010625, -0.037183, 0.029995, -0.060110, 0.062870, -0.066367, -0.053447, -0.092185, -0.026430, 0.017376, 0.002965, -0.071843, 0.032209, 0.049660, 0.022500, 0.012659, -0.031773, 0.039633, -0.046977, -0.007417, 0.045189, -0.017908, -0.018882, 0.040214, 0.051147, 0.048420, -0.052536, 0.024343, -0.031419, 0.044896, 0.020769, 0.009628, 0.039320, -0.067408, -0.054146, -0.024369, 0.021983, 0.035949, 0.036617, -0.009335, -0.021136, 0.014548, 0.016601, -0.023954, -0.013567, -0.043774, -0.010924, 0.011992, 0.049142, -0.001151, -0.026949, 0.036041, 0.019386, 0.038964, -0.032421, 0.033747, -0.023078, -0.024562, 0.020393, 0.037521, -0.057170, -0.033333, -0.057309, -0.042926, 0.021473, 0.053031, 0.048588, 0.015888, 0.009430, 0.013618, -0.044201, 0.035434, 0.045506, 0.050856, 0.047221, -0.031717, -0.059371, 0.067490, -0.048508, -0.032130, -0.006131, 0.013750, -0.041935, 0.013972, 0.039491, -0.049120, 0.038656, -0.049012, 0.018608, -0.009217, -0.006377, 0.008951, 0.015561, 0.036005, 0.021761, 0.057271, -0.029764, -0.028903, -0.034999, -0.044768, 0.051758, -0.057405, -0.055038, -0.013883, 0.000429, -0.046064, 0.001395, -0.063365, -0.039881, 0.057150, -0.027010, -0.034169, 0.012370, 0.019372, 0.057202, 0.051739, 0.028643, 0.033385, -0.028541, 0.016669, 0.044269, -0.028548, -0.002290, -0.000464, -0.056974, -0.046393, -0.040551, 0.008871, -0.024681, -0.023628, -0.024980, -0.026778, -0.068594, -0.016858, -0.015354, 0.046818, -0.052231, -0.052267, -0.030287, 0.018728, -0.033817, 0.038520, -0.017022, -0.055266, 0.029298, 0.025146, -0.040682, 0.039552, 0.005925, -0.043248, -0.058302, 0.049968, -0.009973, 0.047993, 0.016588, 0.006980, -0.028062, 0.013013, 0.008400, 0.043244, 0.021386, 0.028465, -0.062881, 0.005081, 0.032827, -0.012938, 0.036371, 0.025085, 0.043395, 0.026179, -0.011034, 0.038727, -0.042166, -0.015764, 0.001278, 0.025015, 0.018341, -0.020660, 0.014961, -0.008381, -0.017238, 0.023008, 0.011634, 0.043653, 0.031501, -0.060624, -0.020550, 0.007244, 0.025432, 0.040558, 0.049208, -0.022806, 0.040417, 0.025210, -0.022457, -0.008328, -0.048833, 0.027925, -0.022216, 0.075533, -0.020768, 0.004260, 0.060197, 0.036855, 0.024609, 0.041771, -0.038015, 0.035696, 0.040119, 0.041545, 0.023737, -0.004471, 0.001105, -0.053308, -0.010122, 0.029559, 0.047311, -0.024451, -0.006655, 0.021981, 0.018727, -0.043944, -0.031798, 0.014387, -0.047676, 0.006423, 0.006482, -0.036493, 0.001471, 0.000931, 0.047996, -0.039296, -0.035181, -0.018693, -0.007020, -0.028242, -0.005459, -0.021544, 0.003614, -0.035978, -0.006842, -0.015673, 0.050206, 0.058767, 0.043497, 0.000555, 0.079684, -0.010883, -0.003101, 0.008422, 0.001339, -0.029808, -0.059711, -0.049177, -0.007097, 0.049795, 0.033704, -0.040728, -0.055648, -0.018551, -0.022761, 0.081285, 0.004459, 0.002996, -0.023824, -0.033943, 0.063953, -0.051634, 0.016158, 0.006233, 0.002698, 0.049950, 0.015260, 0.021179, 0.041775, -0.050196, 0.022397, -0.050675, -0.022917, 0.012555, -0.051211, 0.016126, 0.058010, 0.027464, 0.021188, -0.044158, -0.066173, -0.008577, -0.061459, 0.021669, -0.009584, -0.018489, 0.036821, 0.050837, 0.018548, 0.036955, -0.044103, 0.034623, 0.047900, 0.075015, -0.023766, -0.020989, 0.021126, -0.054808, -0.048626, 0.039096, -0.013110, 0.011998, -0.046744, -0.049262, 0.005532, 0.012940, 0.007352, -0.054717, -0.011404, 0.038132, 0.053747, 0.058950, 0.015943, -0.037912, 0.042956, -0.054790, -0.029190, -0.044532, -0.048574, -0.039782, -0.008799, -0.000948, -0.023990, 0.017519, -0.047205, -0.035838, -0.053773, -0.025941, -0.025683, -0.027452, -0.003958, 0.012297, 0.107710, -0.030265, 0.034573, 0.086399, -0.002569, -0.004400, -0.054534, -0.023908, 0.015238, 0.005579, -0.023667, -0.024294, 0.017922, -0.049671, -0.008887, -0.008981, -0.026830, 0.036102, 0.027642, -0.027166, -0.057898, 0.013592, 0.003924, -0.024830, -0.001699, -0.054300, -0.019162, 0.038946, -0.029936, 0.001773, 0.022005, -0.052739, 0.065288, 0.021658, 0.018360, -0.058468, -0.060876, 0.035019, 0.058044, -0.054504, -0.001056, 0.007242, 0.028836, 0.043815, 0.005648, 0.011965, -0.036690, 0.021542, 
    0.024804, -0.001921, 0.018821, 0.016741, 0.042856, -0.062408, -0.008989, -0.041898, 0.021423, -0.029877, 0.035979, -0.040342, -0.022325, 0.019118, 0.018290, -0.063889, -0.031870, -0.013574, 0.019977, 0.052491, 0.046402, -0.034530, -0.001985, 0.040154, 0.018483, 0.059480, -0.026141, -0.015810, 0.057940, 0.024693, 0.079527, 0.056815, 0.039993, 0.059442, 0.008154, 0.056000, 0.017539, -0.041388, -0.001936, 0.005365, -0.023633, -0.018006, -0.029527, -0.008812, -0.059091, 0.043457, 0.027891, 0.039332, 0.036535, -0.011557, -0.057478, -0.023395, 0.039077, 0.011519, 0.017699, -0.022814, 0.039916, 0.032345, 0.022423, -0.061523, 0.059858, -0.022551, 0.039477, -0.015193, 0.001571, 0.019434, -0.047852, 0.048177, -0.023562, 0.068911, 0.017214, 0.031076, -0.034465, -0.028010, 0.047397, 0.028541, 0.015390, -0.048935, -0.040610, 0.036247, -0.051415, -0.031429, 0.049883, -0.001101, -0.017579, 0.058975, -0.015257, 0.011050, 0.072917, -0.037696, 0.031275, 0.001150, -0.012427, 0.002395, 0.040248, -0.035314, -0.046582, -0.028041, -0.025311, -0.000480, 0.003546, -0.056887, -0.059432, -0.017833, 0.008719, -0.039947, -0.042447, -0.051406, 0.045090, -0.037527, -0.000920, 0.037248, -0.037060, -0.030338, -0.037393, 0.046184, 0.018617, -0.004904, -0.048626, -0.016686, -0.010612, 0.009976, 0.015803, -0.020791, 0.063940, -0.046697, -0.045784, 0.022551, -0.034804, -0.056047, -0.009203, -0.056038, -0.004065, -0.040749, -0.044188, -0.023122, -0.057461, -0.011737, 0.038962, -0.054442, 0.011109, -0.002214, 0.055312, 0.015843, -0.044289, -0.043487, 0.008881, 0.017013, -0.057681, -0.012637, -0.034496, -0.029822, -0.005414, -0.020608, 0.001829, 0.004667, -0.042746, -0.025582, -0.031930, -0.050630, 0.073406, 0.030502, -0.028930, 0.011039, 0.059007, -0.011719, -0.010704, 0.003870, -0.035977, -0.013868, 0.009638, -0.021630, -0.052902, -0.013970, 0.049587, -0.056467, -0.052463, -0.033332, -0.018813, 0.016211, -0.046227, 0.013063, -0.056683, 0.030402, 0.062036, 0.051504, 0.001675, 0.047705, -0.053217, 0.020824, -0.009267, -0.023949, 0.059381, -0.035435, -0.056659, 0.001582, -0.029760, 0.012669, 0.008549, 0.014231, -0.022121, 0.004641, -0.033938, -0.011347, -0.014864, -0.024428, -0.044482, -0.010837, -0.010201, -0.012782, -0.061671, -0.044913, -0.020957, -0.049072, -0.047840, -0.032456, 0.011525, -0.009032, -0.003148, 0.031700, 0.022790, -0.021076, -0.021726, 0.004658, 0.047435, -0.062388, 0.025631, -0.032111, -0.060947, 0.007053, -0.061736, 0.015215, 0.022297, -0.054900, -0.056739, 0.017863, -0.017887, -0.055303, -0.037880, -0.036576, -0.015742, 0.064720, 0.037367, -0.012367, -0.014956, 0.011582, 0.023765, 0.034197, 0.031060, 0.020154, -0.034472, 0.036464, -0.056100, -0.025213, 0.042477, -0.030635, -0.028622, -0.046517, -0.038453, 0.010702, 0.049966, 0.043938, 0.016794, -0.032599, 0.010925, 0.015580, 0.017116, 0.021256, -0.024399, -0.014790, 0.005074, -0.034364, -0.056193, 0.014603, 0.055403, -0.045113, 0.029304, -0.038431, -0.022840, 0.017453, -0.025909, 0.009242, 0.038999, -0.018400, -0.012883, -0.048616, -0.041265, 0.011989, 0.027889, 0.007485, -0.060746, 0.032943, -0.039294, -0.057484, 0.042130, -0.031151, -0.047453, -0.007102, 0.024335, 0.007125, -0.033323, -0.047716, 0.062406, -0.009925, 0.022580, -0.052494, 0.064624, 0.025325, -0.042153, 0.015024, 0.009616, 0.030059, -0.007870, -0.047448, 0.018090, -0.061772, 0.050096, -0.032236, -0.011419, 0.043135, 0.026229, -0.043089, -0.043442, -0.008700, -0.000429, -0.005376, 0.032680, 0.017818, -0.020948, -0.039271, -0.033196, 0.031771, 0.034513, 0.020320, 0.021074, 0.011110, 0.027005, 0.044884, 0.006705, -0.033161, -0.051898, 0.031228, 0.037375, -0.028251, 0.027022, -0.016874, -0.055803, -0.037137, 0.020711, 0.043763, 0.019334, 0.056949, -0.024116, -0.058720, 0.002883, -0.011001, -0.025337, -0.014885, -0.027243, 0.051865, 0.051793, -0.016609, -0.041743, 0.017959, -0.039212, 0.021748, 0.011554, 0.010065, -0.041045, -0.004878, 0.016924, -0.036086, -0.039188, -0.063531, -0.024198, 0.054287, -0.016866, -0.007408, -0.000746, -0.012680, 0.017066, 0.053644, 0.051567, 0.035696, -0.043556, 0.004597, -0.009643, -0.014373, -0.002578, 0.023440, -0.021416, 0.055229, -0.018041, -0.067319, -0.053205, -0.040428, -0.016753, 0.049552, 0.027158, -0.047147, -0.067343, -0.008217, -0.027177, 0.034875, -0.002333, -0.024376, -0.053441, -0.062239, -0.057943, -0.061115, -0.059951, 0.048878, -0.023488, -0.079254, -0.061199, -0.027128, 0.014058, -0.025049, 0.017219, 0.028746, 0.011592, 0.015537, 0.020262, -0.048898, -0.037907, 0.010170, 0.041214, -0.020044, 0.015228, 0.045262, 0.036754, 0.050272, 0.051439, -0.056470, 0.006844, 0.008477, -0.030941, 0.017105, -0.025857, -0.034018, -0.053554, -0.044548, -0.011725, -0.062190, 0.044548, -0.054854, 0.053620, 0.068376, -0.017688, -0.012108, -0.015428, 0.052236, 0.028006, -0.030197, -0.012283, -0.025507, -0.034238, -0.007206, -0.015338, 0.049691, -0.034656, 0.052482, -0.042203, -0.023494, -0.043109, -0.004077, -0.022835, -0.014287, 0.020615, -0.023186, 0.045269, -0.029698, 0.055483, 0.018795, -0.035888, -0.018923, 0.005350, -0.060867, 0.004345, 0.045683, 0.033186, -0.056663, 0.038320, 0.056999, -0.028440, 0.011811, -0.041440, 0.024945, 0.021471, 0.051990, 0.063062, 0.056610, -0.026533, -0.056801, -0.050422, -0.000120, 0.043716, 0.030318, -0.061663, 0.016370, 0.006623, 0.059387, 0.036049, 0.025698, -0.021693, -0.032388, -0.049768, 0.041342, 0.050664, -0.048759, -0.032931, 0.019460, 
    -0.003938, -0.061563, -0.039229, -0.041135, 0.035479, -0.005874, 0.025974, 0.012731, 0.054467, -0.050139, 0.017840, 0.006616, -0.060031, 0.020318, -0.017287, -0.006764, -0.038983, 0.031113, 0.010257, -0.020509, 0.043286, -0.006804, 0.011727, -0.029363, 0.000812, 0.001535, 0.002893, 0.034234, 0.011394, 0.017988, -0.046087, -0.070586, -0.008986, -0.012690, -0.022067, 0.041259, 0.007535, -0.052309, 0.041341, -0.029788, -0.026107, -0.064839, -0.053374, -0.024214, -0.014307, -0.008600, 0.005814, 0.035993, 0.060944, 0.041902, 0.021055, -0.056710, -0.049232, -0.020771, -0.013088, -0.065318, -0.017413, -0.008632, 0.027988, -0.051035, -0.027940, -0.038880, -0.040764, 0.016724, -0.032335, 0.033513, -0.061820, 0.036374, 0.015558, 0.035591, 0.056303, 0.032055, 0.016137, -0.007342, -0.037854, -0.029523, -0.020192, -0.043714, -0.058475, 0.009840, 0.038222, -0.000662, 0.026115, 0.024245, 0.004932, -0.005825, 0.006870, -0.030955, -0.051337, -0.068298, 0.054601, 0.047164, -0.007199, 0.041977, 0.043479, 0.003670, 0.008173, -0.036963, 0.054838, -0.050614, -0.024992, -0.092963, 0.044401, -0.004434, 0.001227, -0.003115, -0.049679, -0.012437, 0.023940, -0.020442, 0.059944, 0.037297, -0.082678, 0.005847, 0.019648, -0.012179, -0.060004, -0.018867, -0.038825, 0.020745, -0.039732, -0.086236, -0.095493, -0.043860, 0.012608, 0.050677, -0.013055, 0.048771, -0.023325, -0.068994, -0.021754, -0.054196, -0.040240, 0.026132, -0.053373, 0.044430, -0.030364, 0.028773, -0.066820, -0.051495, -0.082879, -0.049949, -0.008053, 0.012889, 0.015324, -0.012948, 0.021203, -0.043616, -0.070471, -0.054044, 0.051503, 0.031760, -0.024765, 0.039657, -0.054942, -0.045948, 0.045964, 0.063860, 0.064969, 0.047078, 0.049887, -0.021553, 0.047506, -0.031421, -0.035868, -0.017285, 0.046787, -0.037856, -0.004666, 0.065363, -0.051835, 0.055351, 0.022850, -0.026284, 0.000527, -0.019526, -0.002776, 0.014893, 0.023994, 0.039121, 0.009884, -0.041554, -0.001818, 0.036312, -0.037686, 0.021789, -0.022776, -0.053331, 0.032287, -0.023611, -0.033818, -0.056668, -0.033396, -0.035269, -0.033163, 0.031295, 0.063968, -0.003004, 0.063010, 0.017603, 0.027389, -0.055741, 0.026695, 0.039810, 0.045071, 0.047048, 0.052294, 0.052320, -0.008827, -0.072923, -0.032485, 0.046619, -0.002195, -0.042578, 0.002949, 0.047530, 0.056816, 0.046011, -0.046588, -0.045786, -0.041918, 0.029882, -0.031010, -0.044323, 0.046904, -0.041673, 0.013166, -0.032606, 0.046798, 0.085420, 0.003616, 0.034652, 0.070562, 0.059246, 0.050878, -0.018390, -0.064239, 0.031580, -0.028860, 0.046481, 0.055146, 0.040974, -0.019539, -0.018217, 0.001486, -0.054903, -0.023961, 0.057495, 0.062701, -0.032069, 0.028031, -0.025044, -0.038334, -0.021194, 0.022410, -0.053505, -0.001278, -0.015985, -0.047425, -0.011750, 0.062156, 0.044507, 0.059098, -0.014128, 0.039925, -0.021193, -0.092878, 0.029628, -0.038998, -0.050681, 0.033148, 0.002957, -0.026984, -0.010998, -0.000017, 0.020204, 0.017836, 0.007144, 0.023910, 0.019985, -0.029765, -0.059127, -0.015104, 0.033115, 0.050192, -0.010067, -0.007489, -0.034832, -0.039346, 0.028129, 0.025484, -0.013476, -0.010271, -0.010021, -0.027223, 0.059133, -0.022267, 0.015241, 0.013871, -0.022991, -0.036657, -0.055445, -0.018800, 0.021281, 0.034632, -0.084663, 0.105700, -0.065926, -0.049679, -0.130158, -0.124591, -0.040780, 0.043037, 0.010559, 0.013040, 0.052200, -0.018983, -0.022654, 0.005365, -0.048706, -0.047225, 0.036386, 0.052021, 0.001592, 0.031925, -0.030296, -0.054940, -0.091782, -0.073106, -0.033304, -0.043601, 0.036571, -0.039492, 0.033422, -0.005202, -0.047068, 0.054347, -0.034259, -0.031927, 0.033490, 0.016653, -0.042285, -0.036974, 0.018275, -0.074205, 0.007455, 0.040395, 0.024366, -0.070962, 0.024018, -0.061061, 0.017676, -0.018926, 0.001878, -0.014022, -0.072839, -0.045136, 0.024618, -0.017132, -0.004937, 0.010140, 0.013811, -0.018870, -0.011968, -0.064264, -0.062055, -0.024375, 0.022023, -0.028416, -0.003714, -0.004884, -0.033378, -0.040880, -0.058539, -0.074095, 0.019417, 0.030019, -0.000679, 0.019592, -0.039081, 0.043864, 0.026649, -0.028454, -0.041353, 0.040804, 0.008440, -0.040515, 0.046951, 0.001191, -0.053384, 0.088587, -0.018030, -0.003625, -0.042276, -0.001354, -0.046179, 0.008972, 0.058187, 0.059462, 0.008524, -0.038476, 0.039526, -0.035994, 0.042558, 0.039187, 0.078129, 0.050189, 0.089600, -0.037394, -0.023534, -0.031773, -0.005748, 0.009934, -0.034764, 0.018091, 0.034712, -0.058711, -0.045099, -0.006549, -0.043487, -0.031215, 0.018462, 0.046151, 0.046068, -0.017459, 0.031283, 0.042060, 0.042984, 0.009373, -0.006141, -0.026501, 0.044828, 0.003555, -0.037677, 0.009738, -0.017931, -0.009320, -0.047834, 0.028907, -0.010941, -0.066666, -0.058621, -0.036894, 0.029723, -0.031053, 0.000759, -0.021917, -0.039618, -0.033891, -0.026249, 0.011738, 0.035712, -0.002282, 0.037359, 0.017344, -0.076180, -0.021072, -0.061398, 0.010491, -0.054053, 0.047612, -0.029603, -0.033016, -0.052074, -0.001382, -0.020253, 0.034023, 0.028024, 0.026552, -0.055233, -0.029248, -0.054479, -0.031745, -0.060578, 0.060348, 0.006448, 0.024708, 0.017560, -0.024164, 0.030026, 0.019628, 0.077767, 0.004864, 0.031761, 0.003624, -0.035463, 0.003705, 0.044392, -0.034600, 0.000658, 0.038444, 0.002187, 0.052766, 0.014542, -0.001678, -0.024872, 0.036284, 0.014434, 0.009297, 0.034291, -0.057486, 0.036631, 0.022750, 0.050225, 0.026252, -0.044376, -0.061734, -0.020622, -0.031623, 0.021776, 0.019289, -0.037421, 
    0.003578, -0.007138, 0.053475, 0.069746, -0.001921, 0.014192, 0.004159, 0.008841, -0.063997, 0.021953, -0.011621, 0.004553, 0.046903, 0.020985, 0.023135, 0.010972, 0.032864, -0.055542, -0.062933, -0.013291, -0.047590, 0.009059, 0.003653, 0.007179, -0.019449, 0.051896, -0.025891, 0.051907, -0.059987, 0.017766, 0.010685, 0.042606, 0.032335, 0.027619, -0.032796, 0.020188, -0.035421, 0.032347, 0.001565, -0.043808, -0.014087, 0.029910, -0.045796, -0.067951, -0.012574, -0.009148, 0.018806, -0.042153, -0.041422, -0.067299, 0.026698, 0.044997, 0.008322, 0.013985, 0.057967, 0.011138, -0.057517, -0.036469, 0.010667, -0.025613, 0.013413, 0.004587, 0.000992, -0.049583, 0.009009, -0.011301, 0.027778, -0.034683, -0.002672, -0.044040, -0.067680, 0.036831, 0.016363, 0.012735, -0.010470, -0.023323, -0.032694, -0.022199, -0.034596, 0.028442, -0.006900, 0.050698, 0.074580, 0.041555, 0.046623, -0.037871, -0.014872, 0.025840, -0.031005, -0.042962, 0.024282, 0.024098, -0.031128, 0.004033, 0.062384, 0.048674, -0.016386, -0.029226, 0.046992, -0.011717, -0.035041, 0.035806, -0.054246, -0.009968, -0.016583, -0.053562, -0.019674, -0.021077, 0.022405, -0.057980, 0.011635, 0.003295, -0.018968, 0.034049, -0.019313, 0.042706, 0.009125, 0.023662, -0.015420, 0.012669, -0.035149, 0.026213, 0.088959, 0.071718, -0.038478, -0.038457, -0.004291, -0.040252, -0.028322, 0.010007, -0.009269, -0.037141, -0.015655, 0.016033, -0.059638, 0.024329, -0.061876, 0.017575, -0.050161, -0.027980, -0.059589, 0.038902, -0.009241, -0.006647, -0.013152, -0.006699, -0.014137, 0.016862, 0.007325, 0.087687, 0.089211, -0.053802, -0.068877, 0.006507, 0.002554, -0.002060, 0.009038, -0.031688, -0.065229, 0.047173, 0.037014, -0.023866, 0.040099, 0.021268, 0.041276, -0.050478, -0.034435, 0.024753, -0.033300, 0.045143, -0.040671, -0.057852, -0.042777, -0.043658, -0.037787, 0.055859, 0.063600, -0.044383, 0.041749, -0.012235, -0.050235, 0.070956, 0.060694, -0.030990, 0.023381, -0.027137, 0.034908, -0.027801, 0.001864, 0.002392, 0.007676, 0.027317, 0.006456, 0.043445, -0.002889, -0.029089, 0.048135, 0.043854, 0.001931, -0.056236, -0.006152, -0.005739, -0.001522, -0.027183, 0.016416, -0.034834, 0.035967, -0.043003, -0.012904, -0.054168, 0.038985, -0.060710, -0.049866, -0.049294, 0.042180, 0.031174, -0.025339, -0.077687, -0.001943, -0.067507, -0.037610, 0.039662, -0.045036, -0.059600, -0.009822, -0.040862, -0.064085, -0.045957, 0.011253, -0.014244, 0.043156, -0.013028, -0.060933, -0.029398, 0.039764, 0.030010, -0.038222, 0.010228, 0.017638, 0.034964, -0.025213, -0.013419, -0.050434, 0.005971, -0.039359, 0.027640, -0.002079, 0.053983, 0.029073, 0.055429, 0.047191, -0.067268, -0.065043, 0.042374, 0.009779, -0.029138, 0.051006, 0.031072, -0.024706, -0.031415, -0.009510, -0.034280, 0.035484, -0.014140, -0.051248, -0.063075, -0.017820, -0.027245, -0.076094, 0.032284, -0.060597, -0.001778, 0.004255, -0.020688, 0.010406, 0.017303, -0.049222, 0.035969, -0.050291, 0.003708, -0.049433, -0.038690, 0.016558, 0.035413, 0.050333, -0.033258, -0.061016, -0.052235, -0.073387, 0.055060, -0.047681, -0.036592, -0.059198, 0.070425, -0.062912, 0.033339, 0.018424, -0.027768, 0.037447, 0.024679, -0.025317, 0.017967, -0.003455, -0.069147, -0.017949, 0.030360, 0.046499, -0.051868, -0.051024, -0.003274, -0.042223, -0.061545, 0.036448, -0.027297, -0.011940, 0.042788, -0.041806, -0.047304, -0.004171, -0.000782, 0.002949, -0.024743, -0.012326, -0.065043, -0.019053, -0.047039, -0.024184, 0.007418, 0.001223, 0.021607, -0.025429, -0.014462, 0.043243, 0.032194, -0.020055, -0.002724, -0.012806, -0.008097, -0.023405, 0.001391, -0.037583, 0.012466, -0.068023, 0.011941, 0.013466, -0.059998, -0.004632, 0.027039, 0.056311, 0.017940, 0.049482, 0.032393, -0.029057, 0.019823, 0.001279, 0.006903, 0.053160, -0.000799, -0.038300, -0.044003, 0.009013, 0.041667, 0.021844, 0.041744, 0.040348, 0.008649, 0.040827, -0.018891, -0.006157, 0.037228, 0.116765, 0.006935, 0.085598, 0.026387, 0.023064, 0.023412, 0.014920, -0.030457, -0.004339, -0.034400, -0.008112, 0.011532, -0.022899, -0.011369, -0.014746, 0.040093, -0.035137, -0.011425, -0.048962, 0.000317, 0.017703, 0.035099, -0.025946, -0.005538, 0.000126, 0.030558, 0.017815, -0.069043, -0.016271, 0.008156, -0.052730, 0.012128, 0.024043, -0.006685, 0.022552, -0.056581, 0.014303, 0.053513, 0.026944, 0.069988, -0.024408, 0.034923, 0.040160, 0.022585, 0.016874, -0.015040, -0.047230, -0.029571, -0.060892, 0.009471, 0.014906, 0.046139, -0.040020, 0.005903, 0.024295, 0.049349, 0.017594, -0.012679, -0.038738, 0.017063, -0.025900, 0.002302, -0.016134, 0.005295, 0.038542, -0.002950, 0.043697, 0.037353, 0.012273, -0.015203, -0.066301, -0.056945, -0.018058, -0.067162, -0.019069, 0.006382, -0.015220, -0.004292, 0.036719, 0.022445, -0.004506, -0.033406, 0.047458, -0.033093, -0.038136, -0.020671, -0.047996, -0.038769, -0.014276, 0.039805, 0.035755, -0.023289, 0.015490, 0.021773, 0.008089, 0.022459, -0.008361, -0.025268, -0.026962, -0.027860, 0.013033, -0.038646, -0.041206, -0.004086, 0.032591, 0.021809, -0.038703, 0.020219, 0.020601, -0.029484, -0.014899, -0.026288, 0.027225, -0.010677, -0.000476, -0.025003, -0.047640, 0.018433, -0.004353, -0.021273, -0.053906, -0.070915, 0.001935, -0.022406, 0.038391, 0.010561, 0.036732, -0.056225, -0.020342, -0.015195, -0.032851, -0.019517, 0.057013, 0.061361, 0.053701, -0.059793, -0.027501, -0.046790, 0.007181, 0.041845, -0.059444, 0.029443, 
    0.044527, -0.004862, 0.043334, -0.045787, 0.017005, -0.023507, -0.057006, 0.001902, -0.021189, 0.048208, 0.037234, -0.014196, -0.054657, 0.041829, 0.037209, 0.044986, -0.016101, 0.018214, -0.035860, 0.046207, -0.067688, 0.041988, 0.039360, 0.006628, -0.003571, 0.012945, -0.004171, -0.011500, -0.040289, 0.010262, 0.049859, -0.011607, 0.036180, 0.049248, 0.043305, 0.033030, 0.032109, -0.047041, 0.059180, 0.012205, 0.013491, 0.049317, 0.020731, 0.037247, -0.022495, 0.006335, 0.036553, 0.050243, 0.026477, -0.019706, -0.054086, -0.022951, 0.000070, 0.042743, -0.037506, 0.057858, -0.036156, 0.010825, -0.034322, -0.002707, -0.008383, 0.032366, 0.035341, -0.020733, 0.036337, -0.032838, -0.030362, 0.015358, 0.035335, -0.037078, -0.060551, -0.013390, 0.060379, 0.056291, -0.007467, 0.019691, -0.010037, 0.078578, 0.008551, 0.032385, -0.020190, 0.054714, -0.017902, -0.017559, 0.015943, 0.035442, 0.002765, -0.067968, -0.037911, -0.052802, 0.051556, -0.012988, -0.053269, -0.005340, -0.009095, 0.030289, -0.025025, -0.016720, 0.053685, 0.003163, -0.011072, -0.023020, 0.042350, 0.020467, 0.011818, -0.057318, -0.030177, 0.044044, -0.020567, 0.007881, -0.010870, 0.034574, -0.047612, -0.061261, 0.023899, -0.022764, 0.038059, -0.046596, 0.059802, 0.023763, 0.022714, -0.030306, -0.018402, 0.009027, -0.016450, 0.009373, 0.028823, 0.001877, -0.013850, -0.027844, -0.037439, 0.006204, 0.021812, -0.021385, 0.042140, -0.018489, 0.054670, 0.022550, 0.042307, 0.004316, -0.056774, 0.048514, -0.016988, 0.058546, 0.005265, -0.064298, 0.078820, -0.030673, -0.020068, -0.046205, -0.030521, 0.014689, -0.042390, 0.035342, -0.025409, 0.005910, -0.011875, -0.055205, 0.002050, 0.040824, 0.020995, -0.023794, -0.014021, -0.057299, -0.029400, 0.039421, -0.010930, 0.034505, 0.024232, -0.016071, 0.052649, -0.040720, 0.034436, 0.036163, 0.036986, 0.007935, -0.061042, -0.049051, -0.027323, 0.043778, 0.011422, -0.011263, -0.018883, -0.014789, 0.035115, -0.000472, -0.034010, 0.019564, -0.062263, -0.044804, -0.059811, -0.053172, -0.048360, 0.031264, -0.055762, -0.051277, -0.037861, -0.060606, 0.027542, -0.038236, 0.032857, -0.019191, 0.045652, -0.064425, -0.075288, 0.019299, 0.028450, 0.016987, -0.032568, -0.001198, -0.005749, -0.033416, 0.050929, 0.069715, 0.018218, 0.066937, 0.006454, -0.028313, 0.004012, 0.040666, -0.036331, -0.038178, 0.024428, 0.006137, -0.019642, 0.005839, -0.021637, -0.055292, 0.006911, -0.041995, -0.019979, -0.065737, -0.029345, -0.016672, 0.005122, -0.049156, 0.042130, -0.015580, -0.045321, -0.025190, -0.023213, -0.071998, 0.030655, 0.037439, -0.019645, -0.019365, 0.039536, -0.031753, -0.047199, -0.011784, 0.040487, -0.009702, 0.007631, 0.027646, -0.038341, 0.016452, -0.014646, 0.006977, 0.018424, -0.036571, -0.054364, 0.028212, -0.016660, -0.036385, -0.009837, 0.016500, 0.048584, -0.057897, -0.008645, 0.027155, -0.046979, -0.046079, 0.012044, -0.009561, -0.051633, 0.017259, 0.032857, 0.004452, 0.033492, -0.048693, -0.027566, 0.038709, 0.028402, 0.023300, 0.013688, -0.008689, -0.056943, -0.010422, 0.013537, 0.030636, -0.065000, 0.016573, -0.063591, 0.026068, -0.045544, -0.006691, 0.018288, -0.038154, -0.048282, -0.061839, -0.009868, -0.071096, -0.024059, -0.056037, -0.063291, -0.003161, -0.029127, 0.044126, 0.018137, -0.032584, -0.029348, -0.000149, -0.051947, 0.027736, -0.048264, -0.058966, -0.064855, -0.023903, -0.034866, -0.025338, 0.004884, 0.034072, 0.020779, -0.062865, -0.017933, -0.026555, -0.058145, -0.010758, -0.049078, 0.013784, 0.007988, -0.056040, 0.018386, -0.064351, -0.053898, -0.013515, -0.036307, -0.068873, -0.013844, 0.028886, -0.011207, -0.009901, -0.007721, 0.029227, -0.046493, 0.038560, 0.000223, -0.004864, -0.044896, 0.031579, -0.009464, 0.023959, 0.019008, -0.034147, -0.019414, -0.020245, 0.003341, -0.022282, -0.046828, -0.017863, -0.038883, 0.002353, -0.070402, -0.040076, -0.059684, 0.007992, -0.013164, 0.022554, -0.055837, -0.001093, 0.014474, 0.022432, -0.003463, 0.035036, 0.018715, -0.006752, 0.040984, -0.041639, -0.018897, -0.045176, 0.044034, -0.032508, 0.049977, 0.030837, -0.027581, 0.035274, -0.000753, -0.043859, 0.026785, 0.030888, 0.043148, -0.060663, 0.018126, 0.005169, 0.028337, -0.002446, 0.032091, 0.004247, 0.001778, -0.034811, -0.017559, 0.012923, -0.054450, -0.056503, 0.037241, -0.024619, 0.028005, 0.007878, 0.017558, 0.023465, 0.002058, -0.033354, 0.020229, 0.011778, -0.032066, -0.000747, 0.005529, -0.065158, -0.028933, -0.031389, 0.004539, -0.057175, -0.032012, -0.049823, -0.016312, -0.044294, 0.009082, 0.009118, 0.031932, 0.004213, -0.009691, 0.041141, 0.007463, 0.010537, -0.052654, 0.039094, 0.039079, 0.028395, -0.004890, -0.013437, 0.029615, -0.012035, 0.040753, -0.015591, 0.015319, -0.038861, 0.007400, -0.030590, -0.054955, -0.005118, -0.032068, -0.020645, -0.023041, -0.036705, -0.021572, -0.052013, 0.038476, -0.047991, 0.052573, 0.021703, -0.017317, 0.027649, 0.014117, -0.048957, -0.013553, 0.018006, 0.003863, 0.050024, -0.019477, -0.006974, 0.039835, -0.013251, 0.031978, 0.001880, -0.029002, -0.010113, -0.010939, 0.034027, 0.045666, 0.023436, 0.015539, -0.032243, -0.039039, 0.002506, -0.015451, 0.049765, -0.024079, -0.061874, 0.037447, -0.027650, 0.036623, 0.018148, -0.036885, 0.032159, 0.013805, -0.017559, 0.035635, -0.043767, -0.033527, 0.012513, -0.001737, -0.055552, 0.014398, -0.026724, -0.039377, 0.022509, -0.039787, -0.019836, -0.072084, 0.008310, -0.013243, 0.036793, 
