#ifndef __NOISE_H__
#define __NOISE_H__

const float layer1_Conv2d_weight_noise[144] = {
    -0.304574, 0.016627, 0.073833, 0.246352, 0.177268, -0.257203, 0.144735, -0.308707, 0.221719, 0.212663, 0.093872, 0.171926, 0.325495, 0.084881, 0.020928, 0.131634, -0.296376, -0.117574, 0.034852, 0.151891, -0.309415, -0.032363, -0.302364, 0.233149, -0.201746, -0.320534, -0.046320, 0.108397, -0.005660, 0.051879, 0.030970, 0.226969, -0.109444, 0.091887, 0.264960, 0.186370, 0.209950, -0.063626, -0.142921, -0.262186, 0.104228, 0.014032, -0.243462, -0.075468, -0.331672, 0.057155, -0.201443, -0.231470, -0.108457, -0.041662, 0.107389, 0.288172, 0.035376, 0.314144, -0.164618, 0.198968, 0.328674, -0.231829, -0.142641, 0.225188, -0.134551, 0.241214, -0.322767, -0.178065, 0.062233, 0.093549, 0.264248, -0.225909, 0.053291, -0.116913, 0.236256, -0.214455, 0.286629, 0.068156, 0.034949, -0.265017, -0.130693, 0.201258, -0.250048, 0.081252, 0.001814, -0.118995, -0.257191, -0.146843, 0.271757, 0.105761, 0.311985, 0.268111, 0.117556, 0.169638, 0.301905, -0.059001, -0.316086, -0.209288, 0.053549, 0.215001, 0.022649, -0.138462, -0.264759, -0.311875, 0.178775, 0.108439, -0.016128, 0.245204, -0.160012, 0.185443, -0.193386, 0.231371, -0.086330, -0.240704, -0.103212, -0.281675, -0.025741, -0.009153, -0.131657, -0.231838, 0.031544, 0.216161, -0.204116, -0.020840, 0.121656, 0.219324, -0.193777, 0.248333, -0.175587, -0.127634, -0.085023, -0.189441, -0.097481, 0.046149, -0.269212, -0.182557, 0.034118, 0.131486, -0.011701, 0.104508, 0.200235, 0.060289, -0.046589, 0.173448, -0.032399, 0.064678, -0.039115, 0.074181
};

const float layer1_Conv2d_bias_noise[16] = {
    -0.070130, -0.175153, -0.296482, 0.113935, 0.183023, 0.191078, -0.130501, -0.075289, -0.185180, 0.195078, -0.169172, -0.160612, -0.108038, -0.238173, 0.070759, 0.068191
};

const float layer2_BatchNorm2d_weight_noise[16] = {
    1.007007, 0.999564, 1.003453, 1.006461, 0.995775, 1.018078, 1.005929, 0.999629, 0.986573, 0.991668, 1.002608, 0.974887, 0.991836, 1.013697, 1.000674, 1.006746
};

const float layer2_BatchNorm2d_bias_noise[16] = {
    -0.005218, -0.009188, 0.031608, 0.011809, 0.020172, 0.010075, 0.071390, 0.006943, 0.043102, -0.015378, 0.025784, 0.062285, -0.008825, 0.008962, 0.021404, 0.032370
};

const float layer2_BatchNorm2d_running_mean_noise[16] = {
    0.692970, -10.698548, 0.005977, -1.338354, -0.669175, 6.891945, -3.211457, -1.159246, -2.798195, 0.680962, -1.398555, 0.145885, 6.640001, -1.948084, 8.796672, -4.421889
};

const float layer2_BatchNorm2d_running_var_noise[16] = {
    675.036621, 2189.526123, 474.476685, 412.704498, 378.125305, 1283.357422, 1181.058350, 152.475998, 1492.674316, 4914.825684, 534.801331, 74.870598, 1104.371948, 235.476700, 1493.789185, 805.592285
};

const float layer3_Conv2d_weight_noise[4608] = {
    -0.005660, 0.038865, -0.102515, -0.020803, 0.047884, 0.018848, 0.033330, 0.083176, -0.056172, 0.022032, 0.111089, 0.053695, 0.011843, 0.010410, 0.010438, -0.001974, -0.062775, 0.034940, 0.051859, -0.015045, -0.008093, 0.070219, -0.052294, 0.001303, 0.022585, -0.018017, 0.016338, -0.076466, -0.033367, -0.033754, 0.006177, 0.010557, -0.065637, -0.076276, 0.072321, 0.042278, 0.071735, -0.051449, -0.060914, -0.015286, -0.043771, -0.061314, 0.009046, -0.022181, -0.012971, -0.089578, 0.024364, -0.081736, -0.014390, 0.043197, 0.034886, -0.000972, 0.034743, -0.043179, -0.066607, -0.004928, -0.026196, -0.063179, -0.072770, -0.057217, -0.008130, -0.038319, -0.090047, -0.024155, -0.045395, -0.091684, 0.053615, -0.065916, 0.056790, -0.020587, -0.053137, -0.018686, 0.060022, -0.012495, 0.051484, 0.031943, 0.054135, 0.004658, -0.018042, 0.021395, -0.066318, -0.108496, -0.003943, -0.028813, 0.035693, 0.063061, 0.036718, -0.060473, -0.070309, -0.056253, 0.046244, -0.032860, -0.023513, -0.025243, 0.022708, -0.045341, -0.024853, 0.063121, 0.027904, 0.012327, 0.079209, 0.026027, -0.010429, 0.015327, -0.073226, 0.045674, 0.037442, 0.017211, -0.050557, -0.023318, 0.042814, -0.014514, -0.034576, 0.042497, 0.020766, 0.022431, 0.047248, 0.005219, -0.094911, 0.005295, 0.031601, 0.002368, 0.002641, 0.095693, -0.045528, 0.087952, -0.075219, 0.045580, 0.061868, 0.042664, -0.005302, -0.081422, 0.051568, -0.076091, 0.033877, -0.031870, -0.061436, -0.056744, -0.106386, -0.041910, -0.052635, 0.006215, 0.013045, -0.064422, 0.039719, 0.029974, 0.012582, 0.066860, -0.040107, -0.076397, 0.017852, -0.011743, -0.082000, 0.014021, 0.020193, -0.003627, 0.022997, -0.032248, 0.000264, 0.016405, 0.030905, 0.039892, -0.018720, -0.032549, -0.039675, 0.000984, 0.017353, -0.003690, -0.052067, -0.052313, -0.061307, 0.031324, 0.084319, 0.007948, -0.057792, 0.030727, 0.071226, -0.024449, 0.090693, 0.040586, 0.038862, 0.091882, 0.072682, -0.042429, -0.028966, -0.077650, -0.080182, -0.020749, -0.067715, 0.003139, -0.053676, 0.063390, -0.035914, -0.010755, 0.002152, -0.027389, 0.044007, 0.077594, -0.021344, 0.094595, -0.010585, 0.061560, -0.021288, 0.059660, 0.010374, 0.075808, 0.026721, -0.052439, 0.074466, -0.025404, -0.069286, 0.047345, -0.008872, -0.070132, -0.072089, -0.040248, 0.015664, 0.070602, 0.036609, 0.014629, 0.085670, 0.046840, 0.005337, -0.049566, 0.016991, -0.015179, -0.030980, 0.033673, -0.008861, -0.014399, 0.057725, -0.043565, 0.037264, -0.028540, 0.050613, -0.007779, -0.065437, -0.055835, -0.071905, 0.055319, -0.038415, 0.050755, -0.085967, 0.068187, -0.062015, -0.068781, -0.058167, 0.081518, 0.029380, -0.042439, 0.078410, -0.012889, 0.054210, 0.054661, -0.044029, 0.034794, -0.058082, 0.018300, -0.064422, -0.071654, -0.074307, -0.052961, 0.020161, 0.083691, -0.082816, -0.092571, 0.048971, -0.005025, 0.001509, -0.019991, -0.096420, -0.006305, -0.034176, -0.071772, 0.022420, -0.063552, -0.001378, -0.090855, 0.001635, -0.043129, 0.080010, 0.058372, -0.023289, -0.069295, -0.055433, 0.091070, 0.001823, -0.059561, 0.079364, 0.114036, -0.012115, 0.042375, 0.055606, 0.038031, 0.019862, -0.036811, -0.069727, 0.079187, 0.000361, -0.074765, 0.025915, 0.004937, 0.043585, -0.016188, -0.032952, 0.008019, 0.021201, -0.017385, -0.011767, 0.081791, -0.050881, -0.008922, 0.000805, -0.005060, 0.038065, 0.080819, -0.023463, -0.062294, 0.025687, 0.026823, 0.072351, -0.046003, -0.053081, -0.045359, 0.053965, 0.077261, 0.051620, -0.046411, -0.010015, 0.087703, 0.050626, 0.080797, -0.046171, 0.097646, 0.048454, 0.066045, 0.081319, -0.062730, -0.015059, -0.042412, -0.040202, 0.037901, 0.065091, -0.029348, 0.051982, -0.012999, -0.038367, 0.011994, 0.029035, 0.030750, -0.049885, 0.115253, 0.096687, 0.065062, 0.101137, 0.007946, -0.048712, -0.018177, -0.005392, 0.050562, 0.027363, 0.024870, -0.011461, -0.043525, -0.008197, 0.112883, 0.033949, 0.003776, 0.042276, 0.059474, 0.057654, -0.013283, 0.028586, 0.070875, 0.056964, 0.024889, -0.029586, 0.010760, 0.080216, -0.040570, 0.006735, 0.051497, 0.097194, -0.048767, 0.066469, -0.017053, -0.059460, 0.055407, -0.049099, -0.062533, -0.050030, 0.027565, -0.092515, -0.073241, -0.037843, -0.078308, 0.017147, -0.041087, 0.092245, 0.035573, -0.015247, 0.121754, -0.055097, -0.036712, 0.076270, 0.061748, 0.020162, 0.041470, 0.040845, 0.069195, -0.021365, -0.009833, -0.043299, -0.047972, 0.105967, 0.095120, -0.026545, -0.036165, 0.001721, 0.047860, -0.004037, 0.026869, -0.036049, -0.050957, 0.003225, -0.063434, -0.019035, 0.073061, 0.015524, 0.031631, 0.026443, 0.031989, 0.049077, -0.105954, -0.084541, 0.005742, -0.032635, 0.069997, 0.029206, 0.038518, 0.047613, -0.031722, 0.068360, 0.054102, 0.035455, 0.003627, 0.007552, -0.073865, -0.074887, 0.031388, -0.013513, 0.049406, 0.007010, -0.018468, 0.066810, -0.074688, 0.046379, 0.075490, 0.022495, -0.094655, -0.019720, -0.053290, -0.048679, -0.028629, -0.091248, 0.048603, -0.082077, -0.005384, 0.057333, 0.058744, 0.011568, 0.054912, 0.022325, 0.058907, -0.002902, 0.002418, -0.015015, -0.064498, -0.024221, 0.024504, -0.018371, -0.069215, -0.016943, 0.008158, -0.025707, -0.084222, 0.034392, 0.015049, 0.011203, 0.065302, -0.008845, -0.017557, -0.041903, -0.010341, -0.046331, 0.003463, 0.037190, -0.078739, -0.025790, -0.074934, -0.021610, -0.067423, -0.048468, -0.024225, 0.013044, -0.031585, 0.018193, -0.036939, 0.057044, 0.001309, 0.027546, -0.001433, 
    -0.047848, -0.069463, 0.050848, 0.029996, -0.102554, -0.036751, -0.072644, 0.002123, 0.055814, -0.036575, -0.045843, 0.050842, -0.032037, -0.039712, 0.057669, -0.062788, 0.036188, -0.019651, -0.030975, -0.018993, -0.088623, -0.044465, -0.028460, 0.053119, 0.020057, -0.014979, -0.057148, 0.008805, -0.050752, -0.021546, -0.065448, -0.004291, -0.014095, -0.091781, -0.021916, -0.013321, 0.032432, 0.035418, 0.033137, -0.027790, -0.056928, 0.001189, 0.016442, 0.085239, 0.034450, 0.069509, -0.005640, -0.091623, -0.078673, 0.033513, 0.012446, -0.039017, 0.009581, 0.004156, -0.002267, -0.045976, -0.094599, -0.061256, -0.080115, 0.056583, -0.033312, 0.031270, -0.019536, 0.054187, 0.017079, 0.061955, -0.069229, 0.049769, -0.005848, -0.041044, -0.043741, -0.010727, -0.088289, 0.098362, -0.040100, 0.085176, -0.035147, 0.029622, -0.082569, 0.028034, -0.060173, 0.074038, -0.065428, -0.005354, 0.064564, 0.021179, -0.002569, -0.054714, -0.017880, -0.022148, 0.046631, -0.082664, -0.044283, 0.050874, 0.006137, -0.004580, 0.041028, -0.053396, -0.056453, -0.067957, -0.029413, -0.088042, 0.071921, -0.044402, -0.046928, -0.005579, 0.018711, -0.048738, -0.025023, 0.051994, 0.043476, -0.004422, -0.014335, -0.059158, -0.059429, 0.050005, 0.024455, -0.000462, -0.079066, 0.087963, -0.030067, 0.084766, -0.006989, -0.029615, -0.105100, 0.052476, -0.068040, -0.036603, 0.005940, 0.009082, -0.046992, 0.030125, 0.017489, -0.019089, 0.032815, 0.056234, 0.001336, 0.004097, -0.006412, 0.002973, 0.066253, -0.005335, -0.037194, 0.036975, -0.037804, -0.034437, -0.045246, -0.056120, 0.030803, -0.056290, 0.007510, 0.043763, 0.048922, -0.023606, 0.061463, 0.028606, -0.015160, 0.064879, -0.006237, 0.044559, -0.000175, -0.076514, 0.072655, -0.066689, 0.054930, 0.031571, 0.023261, -0.021093, 0.026461, 0.037055, -0.071886, 0.025772, -0.007018, 0.018670, -0.013280, 0.012210, 0.050316, -0.074677, -0.081281, 0.011377, -0.039817, 0.068477, -0.012040, 0.080118, -0.001825, -0.053255, 0.066507, 0.047084, 0.005809, 0.004783, 0.060017, -0.029808, -0.013089, -0.082349, 0.048835, 0.020822, -0.066273, 0.045101, -0.073805, -0.087267, -0.096271, 0.006985, 0.032731, 0.064070, -0.078919, -0.097847, -0.012173, -0.001584, -0.010040, 0.012611, -0.055297, -0.074465, 0.049188, 0.051181, -0.039049, -0.093213, 0.063894, -0.075448, -0.022876, -0.029723, -0.075540, 0.042133, -0.064448, -0.041331, -0.055443, 0.026077, -0.070008, 0.054047, 0.003890, -0.071853, 0.048295, 0.050527, 0.068208, 0.041969, 0.019675, 0.009464, 0.028726, -0.019778, -0.015216, 0.019629, 0.037255, 0.065893, -0.044838, -0.089250, -0.039017, -0.020402, 0.032531, -0.071259, -0.074893, -0.004127, 0.111034, 0.097799, -0.024526, 0.049322, 0.060557, 0.028211, 0.009965, 0.056461, -0.074434, -0.067401, -0.037132, -0.017468, 0.064876, -0.093488, -0.073917, -0.052061, -0.086648, 0.021441, -0.016177, -0.060174, 0.030825, 0.054220, 0.072198, -0.016734, -0.095065, -0.036223, -0.037514, -0.016527, 0.068536, 0.015396, 0.070389, -0.014052, 0.003864, -0.013405, 0.000693, 0.007400, -0.064734, 0.005174, -0.063217, 0.021554, -0.068188, -0.039847, -0.071483, -0.054249, -0.017667, 0.044315, -0.105457, -0.003074, -0.059483, 0.070945, -0.038938, -0.007715, -0.065882, -0.076903, 0.009636, -0.017794, -0.002757, 0.006261, -0.031700, 0.011922, -0.054691, 0.049025, 0.060969, -0.046313, 0.032366, -0.096451, 0.067347, 0.038218, 0.050335, -0.043166, 0.022074, 0.068623, -0.046434, -0.067592, 0.020154, -0.016967, 0.063201, -0.078579, 0.017226, -0.075060, -0.064965, 0.010386, 0.025403, 0.044209, -0.011368, -0.022266, -0.005420, -0.049515, -0.074435, 0.070968, -0.044507, 0.061201, 0.104306, -0.049341, -0.100876, -0.108411, 0.069082, 0.051306, 0.027087, 0.088324, -0.050275, -0.027434, -0.043559, 0.058758, 0.096309, 0.057115, -0.081569, 0.010952, -0.003518, -0.021048, 0.089685, 0.041686, 0.052767, 0.067228, -0.003594, 0.066213, -0.012243, -0.043890, -0.050840, 0.068737, 0.038887, -0.043919, 0.082875, -0.008676, 0.006757, -0.019528, 0.059629, 0.047714, -0.027996, -0.032138, -0.009078, 0.064572, -0.067635, -0.001847, -0.063045, -0.041624, -0.077222, -0.108632, -0.085159, -0.067579, -0.042557, -0.005382, 0.048288, -0.066645, -0.023854, 0.001899, 0.096259, -0.026738, -0.056679, -0.010153, 0.005387, 0.052223, -0.019054, -0.076248, -0.055038, -0.032864, 0.062388, -0.023954, -0.049381, -0.054804, 0.070765, -0.030901, 0.067532, -0.010218, 0.118069, 0.044504, -0.044031, 0.067977, -0.057523, 0.013876, -0.052695, 0.001929, 0.052034, -0.001997, 0.000424, -0.046384, 0.043347, 0.002307, -0.008791, 0.012152, -0.042149, -0.044420, 0.002162, -0.031483, 0.028028, 0.023275, -0.029236, -0.043781, 0.042157, -0.014544, 0.059800, 0.070650, -0.084950, 0.009811, -0.083921, -0.050259, 0.088661, 0.016243, 0.035402, 0.021350, -0.030463, 0.073767, -0.028958, -0.020593, 0.045665, -0.019115, 0.041571, 0.015536, 0.054236, 0.086912, 0.020367, 0.008061, 0.044872, 0.018231, -0.062126, -0.025938, 0.047240, -0.085884, -0.056735, -0.067203, 0.053211, 0.030092, -0.042262, -0.016649, 0.097335, -0.052795, 0.036755, 0.013650, 0.069029, 0.008270, -0.038997, 0.036120, -0.060876, -0.057812, 0.034278, -0.048576, 0.054444, -0.032983, 0.007985, -0.019348, 0.057616, -0.052121, 0.042827, 0.039450, 0.035278, -0.021157, 0.041779, 0.085421, -0.015172, -0.048734, 0.002172, -0.089241, -0.075060, -0.059877, 0.029080, -0.063662, -0.011983, 0.062040, -0.053264, 0.066707, -0.004172, 0.071839, 
    0.012810, -0.049339, 0.037697, -0.058770, -0.012620, 0.010533, -0.059679, 0.011514, -0.076019, -0.000183, -0.023346, 0.033984, 0.072624, 0.073595, 0.050777, -0.007730, 0.054332, 0.103826, 0.006377, 0.032314, -0.035659, 0.104771, -0.010641, -0.061395, -0.013121, -0.097201, 0.029735, -0.095566, 0.016337, 0.066875, 0.044509, -0.014781, -0.023804, 0.043404, -0.020220, 0.066835, -0.024620, -0.026279, 0.030272, 0.049157, -0.031414, -0.072971, 0.040749, 0.046284, 0.026984, 0.049559, -0.042686, -0.034500, 0.043425, 0.090498, -0.008003, -0.077139, 0.021809, -0.091334, -0.008146, -0.055995, 0.007619, 0.058069, -0.029046, 0.044706, -0.038146, -0.091602, -0.006746, -0.008895, -0.028794, -0.021626, -0.063622, -0.021985, -0.064974, -0.026037, 0.028687, -0.060251, -0.033113, 0.015185, 0.072184, 0.103788, 0.063228, 0.010641, -0.082314, 0.040218, 0.014367, -0.050681, 0.037687, 0.007694, -0.025725, -0.043831, 0.046082, 0.027858, -0.025194, 0.054052, 0.104011, -0.010226, -0.055100, 0.026261, -0.016719, 0.073445, -0.036959, -0.019214, 0.060242, -0.025403, -0.033309, 0.031652, -0.053835, -0.069764, -0.049084, -0.088332, -0.023608, 0.048590, 0.065549, -0.011498, -0.003951, 0.059723, 0.024169, -0.052174, -0.007423, -0.014753, -0.060666, -0.060308, -0.063502, -0.072326, 0.075366, 0.030865, -0.044695, -0.025612, 0.022657, 0.024885, -0.057398, -0.042495, 0.044424, 0.048559, 0.005800, -0.040734, -0.044109, -0.068568, 0.050143, 0.029863, 0.003236, 0.026358, -0.080853, -0.008632, -0.046403, -0.032181, -0.023980, 0.100604, 0.017140, 0.028681, -0.084356, -0.067834, -0.089031, -0.060831, -0.056933, 0.062331, -0.058821, -0.061258, -0.062802, 0.071277, 0.041537, -0.051600, 0.024322, 0.037534, 0.057167, 0.059464, -0.008896, 0.035439, -0.044945, 0.059599, 0.043401, 0.048239, -0.035512, 0.015930, 0.046941, -0.075853, -0.004309, 0.026596, -0.045887, 0.066932, -0.062034, 0.044419, -0.006010, 0.000914, -0.001439, 0.058431, -0.015261, 0.013512, -0.004449, -0.047784, 0.006535, 0.022940, 0.028285, -0.051777, 0.007590, -0.071883, -0.090603, -0.112147, -0.008819, -0.077673, -0.055592, 0.035267, 0.020570, -0.063156, -0.052217, -0.054758, 0.023853, -0.036071, 0.004825, 0.019859, 0.069850, -0.036243, 0.036387, 0.040063, -0.045042, 0.006697, -0.004990, 0.015040, 0.058668, 0.032612, 0.115659, -0.007140, -0.009989, -0.051953, -0.109072, -0.052372, 0.035532, -0.005352, -0.046459, -0.020122, 0.001304, -0.048560, 0.032053, -0.020463, -0.058473, 0.052100, 0.019021, 0.020885, 0.070469, 0.056311, 0.043321, 0.016817, 0.063666, -0.056724, -0.032399, -0.072414, -0.034211, -0.042338, -0.046932, -0.092342, -0.037375, -0.058141, -0.064579, 0.052428, 0.029920, -0.025341, 0.028332, -0.056840, -0.034782, 0.064016, -0.074131, -0.029207, -0.000258, -0.074848, 0.056565, -0.038579, -0.045768, -0.008200, -0.014180, -0.057799, -0.025884, 0.024565, 0.011629, 0.005299, -0.039962, 0.054859, -0.059833, 0.005675, -0.031701, 0.043873, -0.070041, -0.066925, 0.070774, 0.042760, -0.006623, -0.062018, -0.040292, -0.029883, 0.099531, 0.076900, 0.075853, -0.036363, -0.039991, 0.045453, -0.089847, 0.004028, -0.092262, -0.017952, 0.010452, -0.077475, 0.032094, 0.046729, 0.061285, 0.003369, -0.039228, -0.039988, 0.062992, 0.079178, 0.017150, -0.046081, 0.040406, -0.086595, -0.012080, 0.017156, -0.007849, -0.011557, -0.029724, -0.016518, 0.015083, -0.030267, 0.017278, 0.088227, 0.047073, 0.045374, 0.006380, -0.083193, 0.026436, 0.057423, 0.018802, -0.012786, -0.053592, -0.038595, -0.064617, 0.048669, -0.060893, -0.039780, 0.084062, -0.034805, 0.022847, -0.065245, -0.081782, 0.029788, 0.069189, 0.013296, -0.084919, -0.022688, -0.089361, -0.071686, -0.059791, 0.074792, -0.043349, 0.048361, -0.025656, -0.100542, 0.043210, -0.053963, -0.075352, -0.005249, 0.046901, 0.039025, -0.033832, 0.025660, 0.018948, -0.049643, -0.016348, 0.070584, -0.112701, -0.008166, -0.097793, -0.048821, -0.020851, -0.001238, -0.032459, 0.003603, 0.011734, -0.017355, -0.007729, 0.017058, -0.008912, -0.080856, 0.059188, -0.042366, 0.010155, 0.002680, -0.043036, -0.053503, 0.101935, 0.019244, -0.024109, 0.062945, 0.014532, 0.037694, -0.010310, -0.015743, -0.105583, -0.011144, -0.010411, 0.015219, 0.040277, -0.064850, -0.004406, -0.083051, -0.007384, -0.067559, -0.041585, -0.019845, -0.010548, -0.032587, 0.112169, 0.003715, -0.008149, 0.072458, -0.032336, -0.000397, 0.032694, 0.044949, -0.002282, 0.069633, -0.007053, -0.031205, 0.054465, 0.050746, -0.019545, 0.034011, 0.035424, 0.040456, 0.016668, 0.016956, 0.062038, 0.064121, -0.043249, 0.049089, -0.047399, -0.060875, 0.042430, 0.082882, -0.019266, -0.048114, -0.010430, 0.088837, 0.054497, -0.008672, -0.012573, 0.046740, -0.011992, 0.045392, -0.056134, 0.068762, -0.065148, -0.018959, -0.069081, 0.013036, 0.020721, 0.041300, 0.057868, -0.019475, 0.067301, 0.047003, 0.025983, 0.070210, -0.079212, -0.071514, -0.010526, -0.003072, 0.059932, 0.037114, -0.046235, 0.068370, -0.058829, -0.026251, -0.092672, -0.046934, 0.056558, 0.083192, -0.017801, 0.074927, 0.048640, 0.092205, -0.051951, -0.058513, -0.003320, 0.042534, 0.037390, -0.064876, 0.002927, 0.007875, 0.073710, 0.018291, 0.001459, 0.016922, 0.075106, 0.052718, 0.036179, -0.028741, 0.034241, -0.036338, 0.005230, 0.072242, 0.083682, 0.063098, 0.003545, -0.049039, -0.024493, -0.062855, 0.065083, 0.001541, -0.016991, -0.067633, -0.050836, -0.019465, -0.060092, 0.058945, 0.080879, -0.000758, 0.066306, -0.063405, 
    0.067655, -0.026106, 0.015059, -0.016620, -0.033440, 0.050981, 0.021936, 0.069493, 0.000406, 0.048809, 0.092806, -0.036314, 0.100998, -0.059488, -0.053297, -0.023459, 0.038233, -0.076335, -0.062818, 0.017732, -0.050114, 0.040030, 0.064704, -0.030148, -0.020816, 0.032271, 0.022066, -0.043599, 0.027150, 0.090377, -0.048500, 0.082813, 0.064188, -0.048852, 0.071405, 0.018539, 0.007988, -0.063109, 0.040890, -0.066242, 0.023352, 0.026317, 0.087278, 0.073662, 0.076908, -0.041294, -0.030620, -0.064881, -0.083958, -0.086233, 0.051529, 0.030660, 0.035783, 0.086359, -0.071678, -0.056806, 0.022827, -0.001731, 0.010596, -0.037036, -0.034711, 0.046593, 0.010309, 0.035029, -0.059966, -0.049452, -0.040499, -0.002601, 0.049053, -0.005727, 0.070383, -0.047871, -0.009430, -0.057335, -0.087944, 0.078721, 0.079315, -0.019064, 0.034368, 0.080309, 0.074849, -0.059209, 0.030548, -0.033083, -0.065723, -0.052440, -0.071077, 0.000421, 0.068762, -0.007876, 0.017675, -0.076185, -0.101255, 0.037794, -0.062838, -0.057033, 0.023526, 0.037145, -0.010503, -0.089623, -0.013006, -0.018897, 0.013080, -0.093388, -0.012475, -0.091828, 0.015286, 0.064577, -0.045824, -0.050346, 0.020020, 0.011026, 0.003215, 0.059740, 0.085105, 0.056470, -0.002235, 0.042347, -0.009708, -0.014546, 0.056206, 0.009450, -0.081071, -0.009907, 0.029980, 0.054470, 0.083337, 0.001833, 0.058249, -0.078396, 0.044042, -0.032728, -0.011652, 0.079193, 0.079882, 0.084181, 0.020105, 0.038393, 0.013660, -0.031625, -0.050049, -0.037134, -0.011927, -0.069057, -0.064364, 0.024224, -0.028473, 0.034363, 0.018506, 0.020598, -0.023120, 0.004550, 0.006329, -0.005420, -0.034931, 0.035746, -0.062858, 0.042470, -0.001281, 0.019712, -0.066879, 0.022013, -0.038696, 0.036776, -0.024480, 0.001790, 0.078993, -0.083811, 0.028803, -0.051404, -0.022635, 0.045415, 0.012890, 0.062267, 0.066716, -0.022836, -0.015652, 0.006567, -0.030176, 0.066322, 0.077090, 0.030962, 0.077143, -0.004661, -0.021985, -0.062622, -0.034088, -0.003343, 0.051633, -0.054998, 0.065590, -0.049752, -0.066644, -0.044811, 0.032357, 0.054688, 0.073716, 0.013251, -0.075327, -0.060680, -0.006097, 0.016404, -0.035735, 0.047918, -0.002156, -0.046778, 0.028755, -0.007337, -0.065243, 0.082597, -0.055910, -0.028016, 0.071927, -0.075762, 0.086666, -0.008898, 0.061556, -0.012275, -0.041387, 0.042981, 0.049512, 0.062323, 0.070062, -0.034402, -0.027553, -0.087146, 0.052792, -0.047838, -0.014202, -0.061023, -0.037066, -0.024979, -0.025895, 0.015532, 0.084308, -0.065166, 0.078028, -0.008845, 0.004381, -0.064922, 0.026941, -0.060496, -0.071791, -0.073976, -0.074449, -0.000437, 0.056198, -0.020240, -0.056330, 0.042858, -0.008471, -0.059649, -0.000611, 0.000729, 0.004489, -0.004125, -0.029772, 0.046217, -0.005664, 0.013847, 0.052797, -0.029568, 0.034485, 0.077517, -0.049167, -0.055034, -0.034239, -0.024506, -0.068165, -0.069486, 0.105926, -0.029923, -0.002431, -0.054868, 0.051610, 0.053504, -0.027392, -0.033799, -0.034563, -0.008372, 0.055764, -0.010778, -0.043116, -0.020036, -0.079796, -0.088068, 0.037589, 0.071374, 0.057713, 0.014502, 0.050647, 0.024192, 0.093173, 0.028076, -0.038892, -0.062301, 0.005514, -0.022774, 0.059396, 0.050967, 0.053905, 0.064398, 0.011774, -0.099986, -0.052852, -0.054749, 0.038310, 0.028673, -0.098359, 0.063365, -0.008647, -0.049628, 0.075040, -0.050751, -0.080780, -0.031876, 0.081258, 0.040268, 0.057665, -0.008816, 0.072185, -0.009377, 0.042605, -0.028610, -0.013310, -0.019797, -0.073919, 0.052960, -0.080488, 0.067436, 0.018972, -0.074176, 0.076746, 0.035289, -0.087093, -0.041554, 0.081469, -0.017891, -0.070949, 0.044141, 0.003975, 0.068328, 0.038162, -0.011371, 0.045719, 0.026639, 0.027476, -0.064054, 0.022815, 0.049500, -0.034927, 0.005834, 0.022690, 0.028854, 0.076831, 0.034938, 0.003468, 0.055221, 0.030230, 0.051581, 0.046418, 0.060496, 0.076846, 0.048964, 0.057162, -0.008438, 0.009949, 0.050374, 0.067898, -0.003701, 0.086196, 0.081509, 0.013370, 0.086181, 0.023001, -0.016937, -0.067845, -0.053153, -0.056318, 0.055448, 0.038179, 0.023125, 0.051190, -0.099584, 0.027969, -0.059096, 0.026337, 0.061412, 0.039443, -0.018637, -0.075073, -0.063222, -0.070576, 0.035194, -0.064738, -0.084258, -0.002948, -0.031281, 0.012969, 0.058042, 0.031486, 0.023586, 0.005775, -0.061117, -0.093148, 0.016523, -0.026271, 0.041326, -0.072365, -0.078658, -0.048050, -0.058435, -0.087206, -0.074373, -0.032025, 0.003769, 0.077529, 0.041555, -0.034473, 0.025986, -0.032038, -0.044277, -0.057441, 0.041289, 0.068287, 0.041968, 0.060645, -0.004844, 0.079581, -0.000260, -0.076064, -0.038025, -0.011066, -0.041140, -0.035170, 0.019129, 0.068705, -0.069604, 0.021453, 0.068535, 0.002001, 0.045361, 0.024379, 0.000825, -0.022334, -0.060295, 0.012888, -0.015721, -0.075034, -0.040484, -0.013503, 0.000734, 0.090256, -0.054776, 0.065862, -0.065267, 0.021420, -0.000430, -0.065248, -0.052142, -0.010203, -0.034940, 0.028142, -0.023576, -0.016139, -0.031629, -0.038204, 0.010631, -0.101526, -0.077168, -0.066824, -0.013069, 0.026245, -0.073716, -0.029661, -0.035390, 0.062372, 0.066219, -0.032155, -0.051010, -0.027724, -0.082034, -0.021702, 0.051117, 0.009383, 0.011946, 0.029996, 0.027144, -0.004112, 0.029075, -0.049517, 0.009729, 0.047545, -0.018223, -0.062952, -0.043575, 0.007015, -0.019586, -0.062406, -0.017525, -0.004799, -0.016001, 0.063291, 0.074845, -0.018188, 0.048349, 0.048096, -0.058419, -0.059888, 0.029129, -0.047116, 0.026396, 
    0.039285, 0.070333, 0.040017, -0.011766, -0.087242, 0.009816, -0.049797, 0.045887, 0.007068, 0.044120, 0.045417, 0.033719, -0.025037, -0.029856, -0.070521, -0.015912, 0.074320, 0.056158, 0.066445, -0.047679, 0.032598, -0.062305, -0.044649, 0.068971, 0.050408, -0.011646, 0.008102, -0.041289, -0.036737, -0.006660, 0.069122, 0.072604, 0.052235, -0.011605, -0.077934, -0.050582, -0.029959, -0.058057, -0.058467, 0.036590, -0.024726, -0.054699, -0.021040, 0.026219, -0.017068, 0.007205, -0.026473, 0.044250, 0.042045, -0.095173, -0.026275, 0.043052, 0.068572, -0.083794, -0.058904, -0.030426, 0.066104, 0.008553, 0.038121, 0.079174, 0.048875, -0.005586, -0.036063, 0.035333, 0.009919, -0.001782, 0.070088, 0.039648, -0.035922, -0.032355, -0.026035, -0.005721, 0.042913, -0.048421, -0.053332, 0.092641, -0.002570, -0.080443, -0.077826, -0.046598, 0.018266, 0.058055, -0.106346, -0.086891, -0.040503, -0.024563, -0.053445, 0.029629, -0.006325, 0.022517, -0.001790, 0.033012, -0.023635, 0.007975, -0.036982, -0.040907, 0.037364, -0.028479, -0.020764, -0.036494, -0.100519, -0.030141, -0.112683, 0.024106, -0.007112, 0.071005, -0.056610, -0.023172, -0.038470, -0.066852, 0.053790, -0.015412, -0.050569, 0.033896, 0.023320, 0.001058, -0.060418, -0.005322, 0.051521, -0.016644, -0.038963, 0.017340, -0.017769, -0.070643, -0.031734, -0.009508, 0.037179, 0.000972, -0.078410, 0.053422, 0.035238, 0.050543, -0.036023, -0.073315, 0.055786, 0.097218, 0.080007, 0.052645, 0.028110, 0.008766, 0.076392, 0.074858, -0.013201, -0.064356, 0.073388, -0.002129, -0.111400, -0.002261, 0.052621, -0.020319, -0.053253, -0.012226, 0.050308, 0.059369, -0.027423, -0.044462, -0.011042, -0.023245, -0.030818, -0.055276, -0.041513, -0.016753, -0.025693, -0.010603, -0.065158, -0.042466, 0.029023, -0.058433, 0.056165, -0.015575, 0.038895, -0.027040, 0.040290, -0.038708, 0.099197, 0.054412, 0.067576, -0.057759, 0.089244, -0.053037, -0.004148, -0.090033, 0.059245, -0.047910, 0.004863, 0.031985, -0.016567, -0.022274, -0.020951, 0.056869, 0.005301, 0.051951, 0.041037, -0.057511, 0.037798, 0.058605, 0.044190, -0.041819, -0.056310, 0.011270, 0.060871, 0.069449, 0.055468, -0.069023, 0.068205, 0.086899, 0.017273, -0.036585, 0.056722, 0.056228, 0.029502, -0.066705, -0.024531, -0.024874, -0.050829, 0.008015, 0.064580, -0.086872, 0.052649, 0.045273, 0.024402, -0.081546, -0.086651, 0.001966, -0.086914, -0.075278, 0.008258, -0.037732, -0.073108, 0.015129, 0.015694, 0.073444, 0.034512, 0.097555, -0.039848, 0.016010, -0.020315, -0.041470, 0.058850, -0.083409, -0.025419, -0.033112, -0.051360, 0.027684, -0.105586, 0.011862, 0.029320, 0.004892, -0.081906, 0.014903, 0.009472, -0.006228, 0.048474, 0.054941, 0.060215, -0.041972, -0.028249, -0.044850, 0.054506, -0.049100, 0.083374, 0.097206, -0.065208, 0.033606, 0.006308, -0.000350, 0.010194, -0.068143, 0.082716, -0.062480, -0.022867, 0.080790, 0.015373, -0.021391, 0.046591, -0.043064, -0.061167, 0.042814, -0.075881, 0.029949, 0.035719, 0.055368, -0.057054, 0.040050, 0.012634, -0.021124, -0.051199, -0.071414, -0.072195, -0.092543, -0.079402, 0.001568, -0.058114, 0.027052, -0.057529, 0.058583, -0.081478, 0.058349, -0.026702, -0.068982, 0.049697, -0.082879, -0.021395, -0.018720, 0.044087, 0.005364, 0.032743, -0.039557, -0.006731, -0.123028, 0.049473, -0.050009, 0.073931, 0.019991, 0.023022, -0.002156, 0.120542, 0.053107, -0.008509, 0.038966, 0.077899, -0.035932, -0.004463, 0.024973, -0.002160, -0.060332, 0.010954, -0.053940, -0.065127, -0.094375, 0.038496, 0.034970, -0.088761, 0.047595, -0.016964, -0.041809, -0.022012, 0.011902, 0.057530, 0.046427, -0.065829, -0.029861, -0.022400, 0.066409, -0.070702, 0.056913, 0.068315, 0.067654, 0.048420, 0.069142, 0.070539, 0.108289, 0.051468, 0.061739, -0.001548, -0.036881, -0.048278, 0.021423, 0.008303, 0.048653, -0.016507, -0.018876, -0.038504, 0.095542, -0.065609, 0.048696, 0.030342, 0.021748, 0.065505, -0.049715, -0.069274, -0.002643, -0.017451, -0.069886, -0.073937, 0.062086, -0.025400, 0.005966, 0.106742, 0.073601, -0.069226, 0.060640, -0.041287, -0.062157, -0.088808, -0.028297, -0.061106, -0.025477, -0.049124, -0.104558, 0.022547, 0.053008, 0.009642, 0.004827, 0.000055, 0.036074, -0.067058, 0.031327, 0.050108, -0.003291, -0.051060, 0.061324, 0.003811, 0.037142, 0.076575, 0.020398, -0.011983, 0.070290, -0.016074, 0.061762, 0.018437, 0.032795, 0.007377, 0.059471, 0.060977, 0.073932, 0.044004, 0.076732, -0.055891, -0.015100, -0.074011, 0.043170, 0.078982, 0.075811, -0.023310, 0.002048, 0.065491, -0.052822, -0.074347, -0.070241, 0.102424, -0.014324, 0.026153, -0.029779, 0.056139, 0.008472, -0.005675, -0.025326, -0.059947, -0.012703, 0.002702, 0.023657, 0.050873, 0.032673, -0.032125, -0.017966, 0.038079, -0.022642, -0.070226, 0.003036, -0.080821, 0.043190, -0.000718, -0.010011, -0.010694, 0.005794, -0.069713, 0.055198, -0.001292, -0.047079, 0.041940, -0.020846, 0.090463, -0.070472, -0.046843, 0.009169, 0.067604, -0.029958, -0.023358, 0.003635, 0.036671, -0.065053, 0.013424, -0.069344, -0.008855, -0.030676, -0.063823, -0.010847, 0.013931, -0.016150, 0.029574, -0.048321, 0.022083, 0.057132, -0.038357, -0.028361, 0.037186, 0.048907, -0.013685, 0.028902, 0.014401, -0.112073, -0.009131, -0.028201, -0.028289, -0.039011, -0.080228, -0.012691, -0.002090, 0.050229, 0.063921, -0.039293, -0.066766, 0.076586, -0.067073, -0.063119, 0.057465, -0.091829, -0.078485, 0.032336, 0.064219, -0.074954, 
    0.076168, 0.047746, 0.063844, 0.087210, -0.052599, -0.092415, 0.033712, -0.017391, -0.058041, 0.017590, -0.053561, -0.082892, -0.038483, -0.045295, -0.035540, 0.069950, -0.050128, 0.081431, -0.075675, -0.026353, 0.082190, 0.032496, 0.068662, 0.010411, -0.000751, 0.076000, -0.055198, 0.067011, 0.036933, -0.034928, 0.049910, 0.040008, 0.018566, -0.095825, -0.058059, -0.048254, 0.062960, 0.086739, 0.020408, 0.060776, 0.037855, 0.048856, 0.013545, 0.048200, -0.051395, -0.060704, -0.005007, -0.032403, 0.040759, 0.096874, -0.010049, -0.010724, -0.008263, -0.027417, -0.018382, 0.071861, 0.014327, 0.077174, 0.008403, 0.072769, 0.093357, 0.004537, -0.093681, 0.052282, 0.041673, -0.014861, 0.070063, 0.091102, -0.101350, 0.046878, -0.089281, 0.029665, -0.032125, 0.060852, -0.072480, 0.016342, -0.062236, 0.054316, -0.089371, 0.036252, -0.015606, -0.027798, 0.034376, -0.013280, -0.103538, -0.077821, 0.047234, -0.001611, 0.000523, -0.063708, 0.068265, 0.073275, 0.072430, -0.054483, -0.045567, 0.040171, -0.070727, -0.094584, 0.078211, 0.004171, -0.010210, -0.020729, 0.083293, 0.082051, -0.014675, -0.074473, 0.023059, -0.044645, 0.040159, -0.057582, 0.023040, 0.071775, -0.068317, 0.067793, 0.006166, 0.026456, 0.053810, 0.040122, 0.008051, -0.056118, -0.034134, 0.036806, 0.046938, 0.040391, -0.101154, -0.067607, 0.028117, 0.027628, 0.018103, 0.009953, -0.089399, -0.043959, 0.057212, 0.045394, 0.001432, -0.050899, -0.028867, 0.076545, 0.031585, 0.050948, -0.052845, 0.011874, 0.006838, 0.034993, -0.013798, 0.033531, 0.056602, -0.007481, 0.039254, -0.074733, -0.053458, 0.029516, 0.054520, 0.036438, 0.035944, 0.095211, -0.066375, 0.053438, -0.032555, 0.055966, 0.024296, -0.050135, 0.043988, 0.063277, 0.013886, -0.060728, -0.031944, 0.081230, -0.042012, 0.029781, -0.033147, -0.090971, 0.060408, 0.062929, 0.027226, -0.031696, 0.037640, 0.038081, 0.004211, -0.043102, -0.033963, 0.036214, -0.011444, 0.018087, 0.006322, -0.033627, 0.058831, 0.020217, -0.020946, -0.007988, -0.037691, 0.090001, -0.014569, -0.021693, 0.003141, 0.062643, 0.026299, -0.032143, 0.009284, -0.000847, -0.045965, 0.042420, 0.072607, 0.062629, 0.024305, 0.031991, 0.049192, -0.000286, 0.095963, -0.051119, -0.073918, 0.012154, -0.065747, 0.004836, 0.031299, 0.017351, -0.022925, -0.012696, -0.030789, 0.034205, -0.000779, 0.034100, 0.057836, 0.009884, -0.101476, -0.079327, -0.089188, -0.030971, -0.027370, 0.004333, -0.055023, 0.002974, -0.069486, -0.044224, 0.063119, 0.008979, 0.016755, 0.005645, -0.051144, -0.077495, 0.066296, 0.051927, 0.033676, -0.035984, -0.030790, 0.037401, -0.041266, 0.049451, -0.015580, 0.062001, 0.054461, -0.074912, -0.027510, -0.036767, 0.026721, -0.060305, 0.081919, 0.034558, -0.038595, 0.033507, 0.020780, 0.009545, -0.019330, -0.053202, -0.095305, -0.068151, -0.081066, -0.022664, -0.036458, -0.048118, -0.031950, -0.018891, -0.028764, -0.061903, 0.031440, 0.053622, -0.017099, -0.039833, 0.047774, -0.035286, 0.004889, -0.007407, -0.079000, 0.058068, -0.003221, -0.078928, -0.048487, -0.045679, -0.038398, -0.024542, 0.059495, 0.010166, -0.069542, 0.049774, 0.043739, -0.065078, -0.037349, -0.003106, 0.058201, 0.038011, -0.025759, 0.045769, -0.046093, 0.062820, -0.030113, -0.103429, -0.052996, -0.011749, 0.001507, 0.065573, -0.064409, 0.019704, 0.031017, 0.073739, 0.067225, 0.042869, 0.033207, 0.052567, 0.017028, -0.043480, -0.072997, -0.072105, -0.024763, -0.075592, -0.056449, 0.082991, 0.029097, 0.051502, -0.029114, -0.027175, -0.004393, 0.096881, 0.002503, -0.025622, 0.017150, -0.050980, -0.018170, -0.079992, 0.051715, -0.081060, 0.008867, -0.058086, -0.013135, 0.070215, -0.044387, -0.020774, 0.001297, 0.021932, -0.063891, 0.007505, -0.027212, 0.017592, -0.054386, -0.000446, -0.029538, -0.070558, 0.025459, 0.021188, 0.073459, -0.020452, 0.064442, -0.037402, 0.061161, -0.037947, -0.024832, 0.003627, 0.018189, 0.059646, -0.062240, -0.092870, -0.033706, -0.040806, 0.067001, -0.035105, 0.008641, 0.013983, 0.014997, 0.046412, 0.060354, 0.071181, 0.038023, 0.007877, -0.016984, 0.028209, 0.027076, -0.070056, 0.071687, 0.010814, -0.003287, 0.092687, 0.033228, -0.029921, 0.036614, -0.009134, 0.016722, 0.063079, -0.008559, -0.037633, -0.081771, -0.079738, -0.002490, -0.053877, -0.007063, -0.047333, -0.066833, 0.063763, -0.026646, 0.011148, -0.042271, -0.046840, -0.019395, 0.038472, 0.038377, -0.027905, -0.053846, -0.068699, 0.068220, -0.042150, -0.033550, -0.004302, 0.017341, -0.004279, -0.016925, 0.035000, 0.078389, 0.053458, -0.004556, 0.045169, -0.056245, 0.001943, 0.000350, -0.030468, -0.024956, -0.005758, 0.021849, -0.022727, 0.057976, -0.051558, -0.009455, -0.019068, -0.010044, -0.053516, 0.108846, -0.056229, -0.046567, 0.006219, 0.018183, 0.005715, -0.030867, 0.024026, -0.080643, -0.059420, 0.025655, -0.015476, -0.050273, -0.084841, -0.098954, -0.063426, -0.039545, -0.083694, -0.006590, -0.063805, 0.030481, -0.035501, 0.037287, 0.043951, 0.049324, 0.059002, 0.003225, -0.035344, 0.052691, 0.039825, 0.088585, -0.082333, -0.049143, 0.022575, -0.112099, -0.083808, -0.051954, 0.035639, 0.047650, -0.062246, 0.056177, -0.017057, 0.066502, 0.073741, 0.053075, -0.044210, 0.046167, 0.036091, 0.047781, 0.033510, -0.015097, -0.035831, 0.013275, -0.050117, 0.063176, -0.037005, 0.068358, -0.008423, 0.032044, -0.012395, 0.018652, -0.017243, -0.053120, -0.008878, 0.061463, -0.074255, -0.011844, 0.019466, -0.104000, -0.019251, 
    0.007857, 0.019498, -0.005029, -0.028618, -0.046839, 0.066994, 0.044655, -0.098527, -0.011718, -0.038297, 0.060669, 0.050236, 0.050551, 0.017718, -0.022963, 0.058133, -0.072525, 0.049152, -0.048464, 0.037894, 0.080714, -0.031320, -0.054962, 0.068241, 0.044700, -0.087247, -0.090976, 0.025841, -0.071841, 0.081736, -0.054102, 0.008712, 0.059835, 0.009786, -0.033090, -0.073984, -0.061329, 0.072151, 0.004444, 0.076409, 0.032530, -0.066953, -0.027115, 0.071096, -0.079849, 0.016943, 0.076704, 0.047660, -0.057345, 0.061498, 0.016880, -0.087140, 0.006068, -0.094401, 0.075565, 0.014519, -0.037550, 0.091319, 0.050827, 0.054811, 0.024225, -0.066549, 0.043141, -0.049565, 0.030088, -0.060449, -0.032536, -0.051823, -0.031006, -0.027020, -0.090597, -0.007755, 0.034263, 0.061049, 0.013409, 0.093235, -0.048172, -0.031949, -0.023508, -0.003575, -0.048536, 0.078393, -0.051312, 0.036411, 0.063151, 0.082969, 0.004199, -0.066786, 0.038967, -0.065667, -0.086501, -0.103343, -0.017892, 0.046016, 0.066402, -0.062687, 0.030350, 0.033802, -0.012657, 0.077918, 0.006896, -0.064350, -0.014935, -0.021163, -0.084817, 0.055417, 0.050236, -0.015126, -0.036940, -0.093454, 0.023181, -0.078136, 0.002644, -0.025314, 0.097187, 0.029004, 0.031327, 0.000864, 0.065492, 0.030126, -0.075300, 0.011407, -0.062183, 0.071198, -0.041593, -0.053974, 0.013253, 0.026947, -0.099291, -0.087369, -0.020710, 0.033220, 0.066081, 0.060647, -0.059327, 0.034022, 0.049786, -0.006796, 0.004001, -0.079063, -0.087298, -0.027635, 0.040079, -0.049293, -0.043460, -0.019375, -0.081450, 0.034726, -0.094669, 0.047511, -0.048145, -0.034292, -0.081828, 0.050430, -0.071688, 0.008802, -0.079544, 0.014281, -0.074492, -0.028599, 0.021829, -0.009192, -0.003334, 0.081503, -0.014862, 0.026513, -0.053054, -0.015865, 0.060192, -0.005246, -0.059035, 0.091252, 0.015918, -0.051309, -0.055977, 0.057775, -0.035185, 0.078912, -0.012364, 0.059460, -0.007729, 0.072557, -0.086336, -0.084211, 0.033401, -0.051541, 0.046646, 0.016432, 0.044497, -0.017856, 0.035385, -0.023727, -0.039196, 0.064605, -0.008548, -0.069777, 0.076438, 0.001773, -0.074928, 0.008129, 0.067994, -0.086136, 0.048195, 0.003056, -0.041088, 0.075842, 0.029163, 0.001645, -0.039612, 0.070184, -0.042181, 0.081006, 0.072327, -0.015575, 0.006406, 0.019626, 0.007533, -0.059358, 0.023516, -0.082912, -0.090292, 0.041522, 0.009900, -0.028517, 0.008129, -0.068700, 0.053433, -0.035134, -0.095021, -0.026128, 0.050413, -0.043097, 0.019003, 0.032247, 0.051008, -0.005017, -0.073305, -0.083032, -0.049856, -0.082822, 0.008258, 0.007328, 0.001319, 0.045623, -0.014824, -0.052061, -0.044049, 0.038212, -0.061129, -0.032945, -0.073645, 0.028687, 0.060827, 0.080223, -0.017153, 0.028182, -0.043820, -0.018451, -0.012779, -0.032955, -0.068097, 0.021278, -0.092923, 0.039870, 0.046834, 0.034952, -0.010768, -0.029585, 0.079082, 0.019016, 0.044227, 0.040903, 0.042504, 0.001656, -0.014128, -0.006415, -0.022771, -0.038727, 0.045548, -0.026596, -0.052577, 0.027567, 0.076772, 0.097597, 0.008787, -0.003366, 0.063980, -0.084945, -0.066016, -0.045702, -0.005580, 0.076543, -0.048290, -0.043366, -0.050658, 0.030791, -0.017778, -0.055227, 0.031409, 0.033534, -0.072330, -0.068673, 0.026200, -0.050668, 0.044433, -0.082199, 0.020087, 0.050121, -0.088996, -0.078029, -0.000539, 0.044017, 0.016372, 0.028404, -0.009628, -0.049411, 0.039711, -0.040943, -0.001720, -0.079628, -0.069081, 0.068664, 0.055961, -0.025890, -0.026314, -0.089360, -0.019272, 0.005271, -0.093735, 0.016091, -0.070510, 0.036547, -0.095518, 0.032232, 0.033920, -0.099650, 0.011291, 0.005473, 0.025784, -0.008603, 0.049807, 0.016794, 0.005089, 0.004252, -0.033114, 0.052788, -0.013199, 0.051435, -0.029405, -0.058760, 0.071360, -0.096457, -0.030333, -0.089509, 0.056281, 0.006343, 0.005122, -0.066963, 0.044404, -0.043694, 0.052979, -0.021175, 0.028166, 0.009457, -0.043300, 0.063159, 0.043702, 0.045971, 0.065573, -0.080511, -0.083229, -0.028574, 0.077714, -0.054406, 0.015931, 0.053211, -0.066868, -0.024254, 0.032651, 0.055885, -0.076423, 0.062100, -0.027655, -0.071113, -0.032474, 0.020995, 0.015042, -0.032267, 0.043278, 0.024388, -0.015479, -0.050020, -0.055357, -0.115141, -0.117897, -0.090898, 0.039852, -0.029278, 0.054354, -0.007281, 0.016759, -0.042494, 0.041812, 0.076968, 0.073188, 0.066938, 0.040561, -0.021704, 0.060305, -0.074690, -0.020938, -0.041775, -0.021381, -0.043530, 0.003782, -0.073473, -0.000927, 0.086777, -0.034915, -0.014949, 0.005285, 0.023266, -0.037177, 0.091199, -0.041257, -0.012143, -0.077629, -0.018292, -0.014596, 0.051721, -0.066743, 0.024010, -0.042320, -0.068087, 0.017613, 0.011985, 0.067853, -0.028927, -0.080821, -0.099410, 0.029175, -0.002634, 0.038280, -0.029974, -0.008462, -0.032981, -0.078477, -0.051866, 0.040758, -0.001059, 0.020412, -0.060177, -0.005081, 0.050931, 0.024641, -0.042536, -0.096256, 0.039587, -0.020330, 0.026230, -0.072315, 0.047366, -0.001669, 0.043221, 0.035937, 0.066245, -0.083478, -0.060539, 0.021559, -0.081782, -0.094340, 0.032960, -0.044344, 0.097938, -0.026584, -0.063645, -0.051261, 0.002094, 0.061359, -0.007768, -0.054810, -0.081140, 0.068285, -0.068028, 0.020923, -0.045955, 0.032326, -0.029098, 0.024418, -0.072118, 0.012927, -0.075659, -0.011921, -0.065836, 0.033755, -0.023371, 0.078556, -0.025008, -0.041069, -0.043373, 0.065887, -0.061232, 0.051395, 0.040296, 0.009744, 0.007840, -0.076869, -0.061057, 0.046625, -0.061668, 0.059190, -0.087658, 
    -0.026644, -0.003213, -0.045973, 0.049080, 0.002161, -0.008175, -0.054164, -0.060829, -0.080451, -0.052699, 0.063115, -0.104709, -0.078146, 0.035481, -0.070979, -0.039721, -0.001533, 0.000073, -0.004841, -0.011675, 0.008479, -0.049594, 0.023061, 0.030471, -0.074668, 0.074142, -0.026030, 0.010145, -0.070453, -0.018913, -0.012423, -0.089958, -0.057210, -0.010526, 0.068553, -0.056942, 0.054439, -0.026717, 0.014854, -0.023158, 0.050904, -0.095046, -0.001083, -0.058138, 0.014395, -0.034654, 0.022988, -0.019240, 0.050364, -0.045500, 0.059125, 0.028411, -0.030194, 0.021695, 0.064890, -0.019824, 0.050143, -0.016128, 0.028089, 0.054568, -0.000849, 0.065300, 0.044914, 0.005502, 0.059868, -0.078317, 0.008180, -0.036048, -0.063677, -0.059515, -0.066097, 0.001382, -0.056186, -0.017044, -0.062332, 0.019305, -0.058268, -0.069450, -0.063823, -0.028147, -0.044568, -0.043302, -0.057071, 0.074419, 0.024610, 0.026285, -0.088432, 0.014709, -0.021117, -0.043443, -0.008427, 0.049908, 0.015780, 0.087242, -0.103034, -0.084361, -0.006597, -0.026119, 0.010257, -0.083799, -0.053352, -0.006418, 0.046655, -0.074758, 0.036582, 0.002311, 0.048684, 0.014477, 0.065722, 0.051244, 0.047116, 0.016516, 0.036017, -0.099994, -0.095249, -0.000259, -0.033222, 0.102463, -0.031808, 0.006234, -0.045589, 0.011216, 0.061221, -0.044398, 0.059766, 0.053988, -0.007932, -0.098231, 0.020790, -0.020538, -0.090299, 0.034724, -0.046562, 0.029075, -0.062148, 0.073991, 0.068093, 0.044245, -0.016148, -0.065934, -0.028944, 0.039315, -0.027265, -0.009687, 0.063540, 0.017435, -0.096185, 0.009735, -0.070281, -0.008746, 0.020348, -0.022215, 0.014312, 0.068712, 0.024366, 0.085117, -0.052223, -0.101025, -0.039311, -0.043215, 0.075576, 0.019504, -0.013964, 0.013896, 0.034181, 0.039597, -0.007323, -0.085063, 0.055505, -0.002586, -0.111918, 0.046403, 0.021337, -0.032189, -0.071740, -0.005061, -0.080154, 0.002285, 0.069835, 0.032214, 0.046325, 0.019030, -0.002847, -0.026066, -0.069564, 0.042108, 0.063588, 0.000708, 0.056859, -0.013790, -0.028513, 0.070727, -0.052878, -0.019316, 0.105256, 0.089719, -0.069187, -0.047846, 0.069783, 0.026982, 0.078236, -0.053164, -0.035778, -0.057788, 0.052630, 0.047436, 0.009026, 0.021436, 0.034257, 0.065950, -0.049666, 0.065823, 0.020538, -0.076205, -0.028234, -0.110757, -0.121837, -0.015863, -0.040842, -0.057524, 0.029548, -0.004127, -0.020791, -0.057396, 0.058899, -0.075923, 0.024920, -0.092229, -0.094921, -0.002235, -0.028887, -0.001345, 0.017226, -0.030261, -0.060482, -0.080358, -0.036174, -0.041447, -0.035082, -0.067433, 0.039189, 0.035946, -0.093337, 0.060400, -0.004158, -0.079527, -0.045352, -0.060748, 0.032420, 0.081424, 0.059549, 0.017062, -0.063530, -0.065482, -0.048103, 0.056511, 0.028490, -0.012859, 0.019953, -0.087634, -0.035712, -0.060785, -0.087914, 0.039393, -0.097934, 0.093894, -0.066203, 0.088100, 0.018214, 0.045561, 0.026012, -0.018964, 0.029442, 0.014577, 0.016681, -0.033509, 0.022328, -0.007318, -0.005610, -0.033248, -0.095448, -0.101624, 0.007903, -0.003552, 0.054322, -0.088140, 0.029595, 0.048376, 0.066310, 0.035488, 0.046742, -0.058901, 0.065720, 0.051440, -0.049658, -0.111378, -0.089596, 0.000295, -0.032085, 0.062127, -0.013724, 0.048114, 0.047035, -0.027805, 0.016381, 0.017843, -0.020487, 0.012911, -0.028207, 0.035008, 0.007648, 0.095911, 0.028345, 0.019503, 0.040320, -0.078639, 0.024812, -0.027064, 0.056253, -0.037845, 0.018048, 0.018713, -0.014757, -0.106923, -0.037799, -0.040394, -0.045949, -0.074009, -0.028561, -0.082066, -0.075426, 0.045940, 0.086060, -0.049855, -0.019487, 0.059493, -0.009780, -0.027954, -0.014767, 0.009758, -0.017085, 0.053455, -0.102078, -0.043444, 0.026584, 0.043157, -0.079522, -0.065460, -0.056147, -0.005115, 0.051374, -0.025203, 0.028585, 0.031898, 0.013004, 0.093039, 0.123127, 0.033183, 0.027996, 0.053874, 0.016312, -0.044590, -0.070545, 0.063042, -0.054510, 0.041767, 0.057483, 0.004457, 0.026361, 0.006898, -0.077612, 0.020615, 0.054337, 0.078171, -0.031151, -0.032517, 0.049424, -0.048627, -0.003436, 0.066796, -0.029214, 0.046570, 0.004367, -0.028199, -0.000049, 0.012871, 0.051463, -0.028673, 0.082478, 0.038643, -0.088458, -0.030549, 0.058095, 0.053273, -0.062865, -0.083967, -0.055204, -0.073107, 0.009481, 0.003703, -0.013854, -0.059206, 0.063578, -0.069718, -0.013818, -0.092274, -0.069167, 0.011790, 0.048918, 0.019317, -0.000648, 0.077540, 0.050707, -0.075037, -0.005023, -0.031594, 0.061829, 0.017695, 0.006741, 0.044116, 0.067964, 0.064751, 0.008825, -0.056606, -0.012651, -0.072889, -0.063360, 0.004481, 0.037274, -0.015851, -0.023199, 0.077960, 0.071945, -0.006362, 0.018135, -0.089354, -0.013837, -0.024267, -0.016329, 0.056800, -0.006560, -0.007963, -0.039022, 0.069071, 0.089797, -0.006916, -0.052374, 0.034030, -0.014371, 0.009440, -0.027332, -0.098920, -0.038206, -0.010779, -0.094926, -0.056114, 0.086230, -0.082964, 0.050855, -0.059098, 0.110063, -0.048060, 0.000532, -0.024788, 0.061808, -0.027567, -0.063259, 0.044115, -0.072796, 0.048529, 0.051071, 0.026189, -0.000708, 0.066453, 0.073791, 0.036706, 0.002894, -0.035989, -0.011767, -0.025725, -0.069905, -0.054359, 0.029522, 0.020519, 0.017553, 0.060908, -0.053343, 0.039022, 0.017307, 0.087760, 0.018881, -0.002847, 0.108634, -0.054663, -0.068536, -0.050559, 0.039151, -0.028413, -0.080482, -0.102975, -0.022228, -0.087410, -0.003828, -0.017959, -0.002666, 0.063540, -0.004345, -0.004470, 0.067498, -0.001639, -0.063449, -0.057124, 
    0.025368, -0.014858, 0.039617, 0.025686, 0.018450, 0.070726, 0.084439, 0.040491, -0.027710, -0.061770, 0.074708, -0.079206, -0.028639, -0.070543, -0.011436, 0.038614, -0.021147, 0.009612, -0.030108, 0.019062, -0.034771, -0.063927, -0.079531, 0.011832, 0.000459, -0.066380, -0.023843, -0.056478, -0.047612, -0.081387, 0.099074, -0.048358, 0.044758, -0.048207, 0.047551, 0.050508, -0.064865, -0.072028, 0.009799, 0.034580, -0.049384, -0.063580, -0.049305, 0.015585, -0.081224, -0.066024, -0.056571, 0.018747, 0.000095, 0.046791, 0.057401, 0.016389, 0.049561, 0.077496, -0.047216, 0.033945, -0.024635, 0.014244, -0.090520, -0.041645, 0.031684, -0.038623, -0.053426, 0.040242, -0.021025, -0.006877, 0.054431, 0.008913, 0.013594, -0.032222, -0.070437, -0.000688, 0.048818, 0.038070, -0.071775, 0.015555, 0.021288, 0.027665, -0.008161, 0.022472, -0.017851, 0.081647, 0.082325, 0.065359, 0.019296, 0.068519, -0.007653, 0.005947, -0.076885, 0.016281, 0.022445, -0.017799, 0.075212, 0.082170, -0.016727, -0.037265, 0.056270, 0.056174, 0.065932, -0.036010, -0.002638, -0.028036, -0.026705, -0.007331, -0.029856, -0.030819, -0.084014, 0.029684, 0.042407, 0.058072, 0.075211, 0.108562, 0.027326, 0.055654, -0.044032, -0.028176, -0.077612, -0.019206, -0.069783, -0.075067, -0.079206, 0.033224, 0.065765, 0.077947, 0.006951, 0.017363, 0.047711, 0.058351, 0.080796, 0.024470, -0.019213, -0.007287, -0.007700, -0.034134, 0.025672, 0.034796, 0.026018, -0.023667, -0.049604, 0.078670, -0.065654, 0.026487, 0.060747, 0.008856, -0.023937, 0.067125, 0.003070, 0.011086, 0.010683, -0.034246, 0.076134, 0.043764, 0.001179, -0.068228, -0.032445, 0.063508, 0.033345, -0.002639, 0.068183, 0.010659, -0.022186, -0.058501, 0.096017, -0.012251, 0.053776, 0.002971, 0.089977, -0.025121, -0.012793, -0.043461, -0.027695, -0.017712, -0.006603, 0.015784, -0.058640, 0.015912, -0.072301, 0.021860, -0.013097, 0.030363, 0.003888, -0.048964, 0.011351, 0.097072, -0.021172, 0.031306, -0.004407, -0.036612, 0.066276, -0.043400, -0.024132, 0.000500, 0.003812, -0.034050, -0.098645, 0.019899, -0.090840, -0.019963, 0.013523, -0.061120, 0.055556, 0.032588, 0.026629, -0.015408, -0.055302, -0.045971, -0.019208, 0.064955, 0.049923, -0.009362, 0.030584, 0.072795, 0.042078, -0.009668, -0.042794, -0.014908, 0.038162, -0.006077, 0.107070, -0.011023, -0.032690, 0.052130, 0.067968, 0.040114, -0.011433, -0.083836, -0.018892, -0.089667, 0.026015, 0.023536, 0.053266, 0.012929, 0.042377, -0.001554, 0.070011, 0.036148, 0.031018, 0.020118, -0.074934, 0.045334, -0.032071, -0.009626, -0.073829, 0.051220, -0.020075, 0.004072, -0.030856, 0.063690, -0.024304, -0.045610, -0.050130, -0.052081, 0.064807, 0.016603, 0.020622, -0.028695, 0.080926, -0.104270, -0.014286, -0.007524, -0.116096, -0.080693, 0.034763, 0.041769, -0.090491, -0.090033, -0.046745, -0.047813, 0.068698, 0.002278, -0.013841, 0.025411, 0.035724, -0.089633, -0.019625, 0.005283, -0.088510, 0.026923, 0.060002, 0.035967, 0.006212, -0.011849, 0.031395, 0.072727, -0.011856, 0.039196, 0.069091, -0.040708, 0.011595, -0.058788, -0.044061, -0.051232, -0.049717, -0.031093, 0.034208, -0.003623, 0.025457, -0.066361, 0.054274, 0.059787, 0.036771, -0.042067, -0.041694, -0.001244, 0.105680, -0.028375, -0.002757, -0.013920, -0.026739, 0.011089, -0.035127, -0.072879, -0.112263, 0.004795, 0.022051, -0.043939, 0.010034, -0.053712, -0.060138, 0.051020, 0.059749, 0.060965, 0.033813, 0.054282, 0.012543, 0.003387, 0.023477, -0.041261, 0.077771, 0.013673, 0.048704, -0.043492, -0.057331, 0.065650, 0.057087, -0.008811, 0.032944, -0.065886, -0.069896, -0.039995, 0.004214, 0.079476, -0.017186, 0.080495, -0.088339, 0.011202, 0.085672, 0.030276, 0.068014, 0.110364, 0.077518, -0.033709, 0.011442, -0.066784, 0.046018, -0.018175, -0.035993, 0.070564, 0.017093, -0.028794, 0.083376, -0.058508, -0.009536, -0.051583, -0.028832, 0.023906, 0.024683, -0.006629, 0.099135, 0.047629, 0.009555, 0.052296, 0.024634, 0.007500, -0.075578, -0.091570, -0.052411, -0.041279, 0.038987, -0.039974, -0.005370, -0.063293, -0.057640, 0.044698, -0.001099, -0.010434, 0.053917, 0.081419, -0.075929, -0.074793, 0.034127, -0.067705, -0.027853, 0.029510, -0.057412, 0.058920, 0.047115, 0.070631, 0.029123, -0.023540, -0.044956, -0.026865, 0.049545, 0.032474, 0.026842, -0.069266, 0.028662, -0.045903, -0.069010, -0.049462, 0.003923, -0.008910, -0.040192, 0.054250, -0.015565, 0.009238, 0.029475, 0.079968, -0.028513, 0.051330, 0.051942, 0.006776, 0.055363, -0.003552, -0.034111, 0.076346, -0.068466, -0.025064, 0.088610, 0.005688, -0.056088, -0.059990, 0.092360, 0.084297, 0.026192, 0.020041, 0.072847, -0.011246, 0.006829, -0.072248, -0.073850, 0.008233, 0.012811, 0.009953, 0.059737, 0.048243, 0.021037, 0.014861, 0.028075, 0.056593, 0.078160, 0.049507, 0.053115, 0.005125, 0.090790, 0.038821, 0.057530, -0.023810, 0.016429, -0.046432, -0.071201, 0.070283, -0.024093, -0.045278, -0.040016, 0.046546, -0.065230, -0.056033, 0.063278, -0.004087, -0.058862, 0.016425, -0.013676, -0.026633, -0.053655, -0.021026, 0.056085, -0.025589, -0.084612, -0.038525, -0.046035, 0.083495, 0.012650, 0.026477, 0.044880, 0.015959, 0.082238, -0.024646, 0.049762, 0.041044, 0.098253, 0.060617, -0.026067, -0.022357, 0.015751, 0.008274, 0.060009, -0.039641, 0.057719, -0.041023, -0.094386, -0.063902, 0.041881, 0.055909, 0.009264, 0.025259, 0.059709, 0.009188, 0.053011, -0.022119, 0.070447, -0.009770
    
};

const float layer3_Conv2d_bias_noise[32] = {
    0.068223, -0.064894, -0.063756, -0.007632, -0.084325, -0.002691, 0.047783, 0.021320, 0.018104, -0.024499, -0.049197, -0.062381, -0.020661, -0.013567, 0.033878, -0.079928, -0.051311, -0.021891, 0.010591, -0.079480, -0.044074, -0.015214, -0.063847, 0.020733, 0.038603, -0.067665, 0.076575, 0.064932, -0.024241, -0.016221, -0.033309, -0.057752
};

const float layer4_BatchNorm2d_weight_noise[32] = {
    0.986950, 0.993872, 0.966341, 0.990872, 1.019717, 0.995371, 1.019666, 0.986363, 1.035735, 1.043361, 0.973569, 0.964721, 1.006965, 0.979064, 0.996227, 1.023962, 1.035856, 1.043148, 0.954082, 0.988007, 0.988548, 0.970957, 0.992889, 0.995762, 1.001146, 0.972614, 0.983941, 1.021090, 0.975646, 0.967802, 1.013352, 0.962390
};

const float layer4_BatchNorm2d_bias_noise[32] = {
    0.017527, -0.018857, -0.028405, 0.005686, 0.011115, 0.027226, 0.029069, 0.008387, 0.020005, 0.026101, -0.022532, -0.013198, 0.014854, -0.017220, 0.025586, 0.001831, 0.004005, 0.006737, -0.037500, 0.026297, -0.027779, 0.001126, -0.021868, 0.027747, -0.039673, -0.010155, -0.000184, -0.003337, -0.012845, -0.034046, 0.029324, -0.027868
};

const float layer4_BatchNorm2d_running_mean_noise[32] = {
    -0.391599, -0.055169, 0.868803, -0.619722, -0.251860, -0.413039, 0.079410, 0.029846, -0.463151, -0.441360, 0.587461, -0.050991, -0.171028, -0.034053, -0.103703, 0.051210, 0.011469, -0.080793, 0.313745, -0.228226, -0.467112, -0.005616, -0.386768, -0.335744, -0.624684, -0.279206, -0.399378, -0.181357, -0.405411, 0.584545, -0.095490, 0.383090
};

const float layer4_BatchNorm2d_running_var_noise[32] = {
    0.511956, 0.140282, 1.646751, 0.992758, 0.131490, 0.321951, 0.092778, 0.373825, 0.271800, 0.197092, 0.346574, 0.322326, 0.210313, 0.150315, 0.444446, 0.103714, 0.135670, 0.127411, 0.409403, 0.695584, 0.429661, 0.619309, 0.348185, 0.838587, 0.391696, 0.293424, 0.230373, 0.114839, 0.740084, 1.025884, 0.124902, 0.618662
};

const float layer5_Conv2d_weight_noise[18432] = {
    -0.018266, -0.028144, -0.007661, 0.008015, 0.033301, -0.016394, 0.055323, 0.021828, 0.090688, 0.032387, -0.064236, -0.025852, -0.027946, -0.038208, -0.000312, -0.020007, -0.015332, -0.011481, 0.003010, -0.033258, 0.045632, -0.021256, -0.032560, -0.004277, 0.029362, 0.007664, 0.055244, 0.031536, 0.023871, -0.004651, -0.053257, -0.020371, -0.007435, -0.017268, -0.010973, 0.060271, -0.021055, 0.036668, 0.015521, -0.020368, -0.028498, -0.055682, -0.000324, -0.074319, -0.071725, -0.006814, -0.048564, -0.031556, 0.023655, 0.034105, -0.017201, 0.057100, 0.041944, 0.059176, 0.021397, -0.053982, -0.037930, -0.050649, 0.028778, -0.008261, -0.045559, -0.026985, -0.043836, 0.035699, -0.017452, -0.043335, 0.009616, 0.000315, 0.005535, 0.054636, 0.042723, 0.046289, 0.048091, -0.029886, -0.027936, -0.005262, 0.025495, 0.010439, 0.050050, 0.014390, 0.021163, 0.046037, 0.021519, 0.029393, 0.072086, 0.065265, 0.080741, 0.080740, -0.014125, 0.014052, 0.000859, 0.041273, 0.067766, 0.006931, -0.044407, -0.023041, -0.043809, 0.046685, -0.025690, 0.009740, -0.012101, -0.010871, 0.054456, 0.013557, -0.007814, 0.052974, 0.005883, 0.019528, -0.014871, -0.035900, 0.023532, -0.053270, -0.024338, -0.054071, 0.027883, 0.009675, -0.030698, -0.017389, -0.007280, -0.016171, 0.072962, 0.014787, -0.011679, 0.067226, 0.021094, 0.042233, -0.001595, 0.015489, 0.027347, 0.011573, -0.067978, 0.033262, 0.011130, -0.024258, -0.020590, 0.041590, -0.072552, 0.014793, -0.049517, -0.053521, -0.023464, 0.008504, -0.040683, -0.064811, 0.012229, 0.018947, -0.050987, -0.050118, -0.043056, -0.008652, -0.074058, -0.090235, -0.026726, 0.033322, -0.001811, -0.005368, -0.004970, -0.002077, 0.042012, 0.054240, 0.030379, 0.020417, 0.015598, 0.028475, -0.045014, -0.005695, 0.045886, -0.040143, -0.036071, 0.042431, 0.055954, 0.033426, -0.077622, -0.061076, -0.032250, -0.031860, 0.039690, 0.058268, -0.056034, 0.033132, 0.012863, -0.021969, 0.026624, -0.050573, 0.029343, 0.052339, -0.004961, 0.025846, 0.005428, 0.032645, 0.046100, 0.024062, -0.014074, -0.041540, 0.026508, 0.078934, -0.027333, 0.043672, 0.053023, 0.032095, -0.032690, 0.059138, 0.023807, 0.033794, 0.009500, -0.010963, -0.039199, -0.030164, 0.022324, -0.014324, -0.001872, -0.052605, 0.011890, 0.001146, -0.038882, 0.008139, 0.018982, 0.022518, 0.021254, 0.045559, 0.061852, -0.019033, -0.031073, 0.040358, -0.011887, 0.014799, -0.049592, -0.041133, -0.052032, 0.003179, -0.013313, 0.004521, -0.018818, 0.020280, -0.006146, -0.008948, 0.028073, 0.009792, 0.006172, 0.040839, 0.044349, 0.021202, 0.067566, 0.041997, -0.043610, 0.061441, 0.056310, 0.077921, 0.070454, 0.017125, 0.061848, 0.014517, -0.046105, 0.039243, -0.050094, 0.008594, 0.023741, -0.032750, 0.030751, 0.045727, 0.055619, -0.045668, 0.043149, -0.018000, -0.006481, 0.056795, -0.037980, 0.057475, 0.052999, 0.007072, -0.034365, -0.018789, -0.066814, 0.005689, 0.020731, -0.049538, 0.046135, -0.016521, 0.001296, -0.003956, 0.016390, 0.035839, -0.012880, -0.001726, -0.000199, 0.069606, -0.004116, -0.008512, -0.001252, -0.044877, 0.031392, -0.041401, 0.002635, -0.043628, 0.017027, -0.023285, -0.005585, -0.039471, 0.032519, -0.001759, -0.020788, 0.032818, -0.003129, 0.068060, -0.010166, 0.017509, 0.013031, -0.045528, -0.023464, -0.031582, 0.023603, -0.009546, 0.012779, 0.040636, -0.017102, 0.062106, -0.013218, -0.017631, 0.031453, -0.004513, 0.000933, -0.001857, -0.004321, -0.001603, 0.048849, 0.015066, 0.004163, -0.008758, -0.025758, -0.027562, -0.010233, 0.007680, -0.058760, 0.059200, -0.018214, 0.066512, -0.021653, 0.000505, 0.001459, 0.093949, 0.084188, 0.062270, 0.026012, -0.032462, 0.004484, -0.024711, 0.007380, -0.020054, 0.024762, 0.011118, -0.039978, -0.018194, 0.009466, -0.044117, -0.021689, 0.014569, 0.040798, -0.006302, 0.005459, -0.004681, 0.040475, 0.017138, -0.063914, -0.039643, 0.057957, 0.052043, 0.015427, -0.001579, 0.025400, -0.033294, 0.058554, -0.036747, 0.065654, 0.041426, 0.032256, 0.035939, 0.055450, -0.009586, -0.012493, -0.009000, 0.039731, 0.053092, -0.041417, 0.024998, -0.045903, -0.046064, 0.019807, 0.040808, -0.045326, 0.044842, 0.027694, -0.055126, -0.030075, 0.030583, -0.036871, -0.007513, -0.024406, -0.056724, -0.012494, 0.050122, -0.030139, 0.035714, 0.067088, -0.033036, 0.028187, 0.030225, 0.023854, 0.000844, 0.037003, 0.019657, 0.051974, 0.056248, 0.010031, 0.022159, 0.003545, -0.020429, -0.066766, -0.072644, -0.011208, -0.003575, -0.071804, -0.079507, -0.030177, -0.052041, -0.057472, 0.031464, -0.061950, 0.026632, -0.044312, 0.028769, -0.016165, 0.017873, -0.024157, -0.004929, 0.000723, -0.022946, 0.026892, 0.026474, -0.029728, -0.019229, -0.067304, 0.060562, 0.021302, 0.037771, -0.028595, 0.047017, 0.057570, 0.096658, -0.012342, 0.014198, 0.015852, -0.047965, 0.009204, -0.019013, 0.005535, -0.061867, 0.053540, -0.011655, -0.005553, -0.035229, 0.030403, -0.077903, 0.034451, 0.047043, -0.012881, -0.035340, -0.013860, -0.026031, -0.006207, -0.054409, -0.021276, -0.035551, -0.010271, 0.041982, -0.033595, -0.019673, -0.043122, 0.038510, 0.025758, -0.023824, 0.063569, 0.049280, -0.009723, -0.038655, -0.052338, -0.022660, 0.053719, -0.027125, 0.013554, -0.000377, -0.035463, -0.011072, -0.043275, -0.006171, -0.017363, 0.025616, 0.009217, -0.054993, -0.033463, -0.049568, 0.000812, -0.023147, -0.018778, 0.040991, 0.069063, 0.004523, -0.009253, 0.052884, 0.075021, 0.019053, 0.022543, -0.019701, 
    0.083668, 0.044554, 0.035372, -0.044282, -0.030463, 0.007675, -0.033226, -0.059898, -0.006734, -0.056100, -0.023471, 0.029308, 0.008774, 0.072853, 0.059152, 0.016881, 0.013126, 0.065695, 0.020827, 0.054676, 0.058837, 0.041627, 0.061964, 0.002595, 0.009613, 0.107487, 0.047958, 0.038410, 0.000047, 0.057805, 0.035689, -0.026654, -0.031077, 0.007704, 0.015377, -0.049051, -0.063601, 0.050629, -0.032810, 0.034138, -0.044696, 0.020671, -0.045223, -0.003446, 0.051723, -0.000973, -0.003330, -0.092112, -0.071464, 0.013906, -0.001893, 0.005470, 0.028658, 0.033622, 0.032855, -0.055140, 0.026795, 0.009853, 0.027913, 0.006329, 0.043259, 0.070787, 0.089863, 0.024063, 0.061285, -0.035733, 0.006543, -0.001485, 0.010792, 0.037551, -0.027457, 0.048723, 0.008390, -0.077848, -0.033170, -0.033797, -0.028680, -0.051944, -0.016950, 0.011675, -0.035773, -0.059317, -0.041388, -0.008099, -0.004844, -0.038912, -0.033008, -0.048426, -0.017459, -0.003021, -0.008693, -0.033910, -0.004663, 0.014024, -0.039523, 0.037524, 0.014022, 0.039167, -0.021083, 0.009553, 0.044079, 0.008667, -0.007036, -0.015702, 0.040117, 0.044238, 0.073248, 0.083812, -0.001689, 0.048131, -0.026960, -0.030422, -0.023791, 0.026324, -0.015722, 0.033224, 0.008240, -0.021497, 0.007615, 0.024382, 0.027452, 0.003525, -0.010465, 0.045193, 0.081655, -0.000704, 0.074768, 0.031412, 0.031919, -0.032361, 0.038007, 0.058765, 0.012797, -0.068181, -0.015861, 0.002885, 0.011565, -0.065083, 0.039806, 0.015995, -0.064095, 0.010999, -0.034697, -0.015898, -0.072535, 0.060018, -0.029226, -0.041815, -0.004046, -0.038958, 0.002096, -0.051445, 0.005285, -0.071415, -0.032424, 0.003768, 0.030966, -0.055951, -0.037002, 0.030431, 0.046405, -0.033320, -0.042239, 0.031260, -0.049288, 0.009524, -0.032620, -0.028285, 0.034740, -0.018320, -0.053555, 0.040781, 0.027099, 0.083522, -0.023216, 0.051362, 0.030802, 0.005590, 0.019551, 0.035628, -0.019825, -0.067605, 0.000869, -0.012197, 0.014009, 0.019026, -0.038352, 0.013960, -0.019109, -0.013253, 0.041273, -0.001633, 0.030318, 0.007945, -0.047151, -0.032843, 0.054671, 0.059947, 0.009618, 0.000111, 0.020776, 0.039210, 0.000212, 0.016460, 0.069939, -0.021867, 0.082929, 0.065864, 0.003632, 0.053601, 0.055768, 0.040149, -0.034901, 0.010980, 0.030497, 0.044196, 0.085051, -0.067772, -0.054593, -0.079112, -0.019579, -0.041619, 0.005415, -0.001983, 0.049615, -0.057537, 0.018675, 0.031286, 0.005920, 0.032450, -0.033783, 0.055860, 0.066781, 0.010849, -0.022279, -0.019431, -0.056160, 0.031239, 0.012474, 0.059484, -0.001532, -0.014230, 0.034536, -0.022231, 0.019170, -0.013400, 0.041331, 0.052960, 0.030910, 0.038097, 0.048414, 0.011301, 0.040409, 0.030225, 0.024812, 0.034459, 0.032626, 0.003614, 0.046638, 0.038052, -0.037410, -0.037097, 0.017440, -0.073934, 0.000897, -0.049419, -0.013508, -0.071634, -0.032991, 0.010372, 0.044278, 0.035504, 0.041591, -0.020775, 0.049495, -0.022862, 0.045547, -0.026468, -0.038320, 0.035025, 0.008943, 0.043505, 0.012025, 0.046183, 0.002709, 0.027359, 0.070181, -0.009494, 0.005191, -0.015024, 0.002814, -0.077362, 0.017105, -0.036621, -0.006248, -0.004959, -0.008225, 0.045162, -0.027481, -0.026685, -0.006153, -0.031675, -0.012200, 0.007219, 0.027458, 0.004490, -0.080131, -0.061789, -0.068983, -0.032348, -0.051965, -0.000870, -0.024616, -0.029994, -0.005884, -0.002284, -0.018812, -0.070326, -0.009716, -0.023844, -0.032986, 0.037211, 0.042016, 0.056295, 0.060479, -0.042594, 0.008419, 0.004210, 0.049975, -0.028271, -0.039734, 0.005143, -0.043194, -0.028525, 0.042688, 0.011721, 0.049393, 0.013682, -0.011565, -0.028040, 0.045327, -0.043191, 0.014536, -0.034227, -0.029840, -0.017858, -0.004655, 0.000550, 0.011505, 0.038072, 0.015691, -0.026260, -0.004895, -0.000648, 0.028516, 0.015708, -0.030930, 0.026186, 0.010700, 0.005395, 0.039031, -0.081272, -0.051046, 0.003052, 0.025693, -0.064279, -0.079905, -0.076296, -0.001949, -0.089716, -0.041172, -0.077394, 0.022318, -0.067969, -0.010549, -0.035252, -0.007029, -0.024991, 0.005028, -0.016223, 0.078983, -0.029023, 0.003619, -0.010490, -0.057171, 0.038105, -0.014870, 0.051308, -0.024386, -0.027828, -0.043590, -0.003952, -0.032304, -0.022302, 0.093354, 0.055140, 0.090712, 0.012853, -0.011907, -0.019025, 0.023517, 0.002171, -0.024310, 0.041408, -0.019773, -0.026906, 0.057751, 0.007666, 0.080929, 0.023264, -0.009253, 0.049269, 0.064230, 0.016310, 0.056323, 0.054949, -0.016383, -0.035313, 0.047748, 0.018636, -0.034005, -0.011000, 0.003283, 0.000455, -0.029048, -0.026392, 0.013979, -0.027421, -0.024682, 0.010162, -0.004810, -0.014621, -0.083835, 0.034192, -0.031175, -0.022905, -0.014610, -0.017335, -0.016313, 0.007084, -0.025108, -0.074831, 0.039110, 0.040283, 0.032610, -0.015554, -0.006021, 0.025355, 0.073192, 0.003928, 0.044397, 0.034734, -0.014739, 0.004043, 0.009876, 0.038866, 0.038823, 0.028035, -0.019255, -0.050579, 0.050316, 0.039457, -0.024408, 0.079058, -0.011834, 0.030141, 0.026790, -0.004485, 0.014868, -0.036083, -0.000818, -0.015153, -0.024536, -0.009129, 0.008982, -0.018952, -0.004754, -0.063480, -0.005124, -0.028124, 0.031247, -0.000373, -0.027486, 0.038476, -0.002519, 0.073188, -0.002213, 0.041063, -0.011802, 0.019790, -0.000333, 0.039132, 0.017265, -0.011582, 0.068331, 0.013215, 0.048386, -0.030329, 0.058853, -0.004865, 0.057890, -0.023827, 0.011872, -0.013533, 0.092043, -0.018911, -0.042135, -0.088298, 0.011475, -0.072051, -0.070866, 0.010359, 
    0.044254, 0.015785, -0.010767, 0.039486, 0.037880, 0.011563, -0.021912, 0.007583, 0.041785, 0.039427, -0.010928, 0.008935, 0.056192, 0.023783, 0.045253, 0.018557, 0.030978, -0.001750, -0.023429, 0.023352, -0.004031, -0.007181, -0.000794, 0.023909, 0.043868, -0.001269, 0.038743, 0.032322, 0.031013, 0.009331, -0.041779, 0.026322, 0.045751, 0.000726, 0.014192, -0.042085, 0.029768, -0.033794, -0.011044, -0.024841, 0.018581, -0.013180, -0.041601, -0.034201, -0.037243, -0.018201, 0.061059, -0.023896, 0.029981, 0.048685, -0.034953, 0.038200, 0.072323, -0.000765, 0.048932, -0.038351, -0.027963, 0.056463, 0.031718, -0.024952, 0.064769, -0.010226, 0.012433, 0.065081, -0.031867, -0.000826, 0.022671, 0.018712, 0.001112, 0.014546, -0.033988, 0.021740, -0.002826, 0.026057, -0.040843, -0.038913, 0.024024, -0.058429, -0.045136, 0.034322, -0.008145, -0.000317, -0.016244, -0.057944, -0.002579, -0.049187, -0.013967, -0.048342, -0.051581, 0.035593, 0.012090, -0.042684, -0.029830, 0.002945, -0.001002, -0.018198, 0.043104, -0.019247, 0.040939, 0.070920, 0.061741, -0.057810, -0.042359, -0.001280, 0.000664, -0.026395, 0.000852, -0.076620, -0.061039, -0.104079, 0.006727, -0.023814, 0.007543, -0.019587, 0.058444, -0.021616, -0.013705, 0.000124, 0.064685, -0.023053, -0.021416, 0.025427, -0.051382, 0.000929, 0.035490, 0.021791, -0.051924, -0.017824, 0.038680, 0.011215, -0.023024, 0.025852, 0.037326, 0.055421, -0.018076, 0.048149, -0.015435, -0.010831, -0.018132, 0.012456, 0.045650, -0.026578, 0.025905, 0.095138, -0.008067, 0.061525, -0.028170, 0.004021, 0.000573, -0.028443, 0.036837, 0.038182, -0.004448, -0.000167, 0.013727, -0.030912, 0.041956, 0.014794, 0.007759, 0.058624, -0.028166, 0.020321, -0.033037, 0.054766, 0.057135, 0.008852, 0.000252, 0.013227, 0.044539, 0.007663, -0.012895, -0.067922, -0.083245, 0.031154, -0.013956, 0.057492, -0.015777, -0.023647, -0.002268, -0.028249, 0.056446, 0.056551, -0.032655, 0.036307, -0.049497, -0.035818, 0.012408, 0.001452, -0.054444, 0.039920, -0.016002, -0.010441, -0.002249, 0.028836, -0.027278, -0.013087, -0.010992, 0.071298, 0.038451, -0.030564, 0.024937, 0.020375, 0.033406, -0.023574, -0.011899, -0.002074, 0.088559, 0.024684, 0.061093, 0.085590, 0.073927, -0.019880, -0.004281, -0.009479, 0.026695, -0.003167, 0.034681, 0.032122, -0.019271, 0.049982, -0.001505, -0.020524, 0.021743, -0.007287, -0.016600, 0.041944, -0.011724, -0.003238, 0.049342, 0.032973, -0.011108, -0.031550, -0.066060, -0.040472, 0.064909, -0.033769, -0.037477, -0.011705, -0.051284, 0.026523, -0.041483, -0.054977, -0.038785, -0.052644, -0.041445, 0.014159, -0.015257, -0.004736, -0.011304, 0.047066, 0.059275, -0.027188, 0.074602, -0.006114, 0.024639, -0.029991, -0.050656, -0.050150, 0.027814, 0.029942, -0.019449, 0.029082, 0.032030, 0.040249, -0.040605, -0.031796, -0.048009, 0.025976, -0.036135, 0.051562, -0.042394, 0.028146, 0.050928, 0.020230, 0.039639, -0.021330, -0.079459, 0.003168, -0.071699, 0.030007, -0.004941, 0.046817, 0.059753, 0.019071, 0.003380, -0.007020, 0.089308, 0.056023, 0.005423, 0.001336, -0.053636, -0.023260, -0.010849, 0.013233, -0.020111, -0.041185, -0.048995, -0.059536, 0.023439, -0.051182, 0.031620, 0.026704, 0.043987, 0.056690, -0.050069, 0.046798, 0.028590, 0.023615, 0.056589, 0.010614, -0.034283, -0.056469, 0.014021, 0.036618, 0.026238, -0.023967, -0.008761, 0.060760, 0.001758, -0.014266, -0.023790, 0.004902, 0.054879, -0.013058, 0.024869, 0.049637, 0.040693, -0.006391, 0.016148, 0.010735, 0.067003, -0.030929, -0.003957, -0.014486, -0.020171, -0.032103, 0.000169, 0.041363, -0.011906, -0.049060, -0.054006, -0.009296, 0.003396, -0.018878, 0.018978, 0.055394, -0.010560, -0.029248, 0.006663, 0.086353, 0.011798, 0.041391, 0.003719, 0.072570, -0.030617, -0.030571, 0.054845, 0.008397, 0.044605, -0.013956, -0.064744, 0.029199, 0.008903, 0.064920, -0.003810, 0.047249, -0.027242, 0.052694, 0.019606, 0.010908, 0.084535, -0.011091, 0.022466, 0.013044, -0.007747, 0.040955, 0.029039, 0.026043, 0.065003, 0.084336, 0.070083, 0.024875, 0.026189, -0.003072, 0.004189, -0.032608, -0.019977, 0.047776, -0.042119, 0.033965, 0.053469, -0.038427, -0.000062, 0.024422, 0.020464, 0.045249, 0.027732, 0.007398, 0.041435, -0.046407, -0.075932, 0.010538, -0.002679, 0.035613, 0.043959, 0.047931, 0.052314, -0.042348, -0.061580, -0.004803, 0.015865, 0.064213, 0.025163, -0.004708, 0.093778, 0.021778, -0.019013, -0.061529, -0.038733, 0.030995, 0.017988, 0.001828, -0.041944, -0.012773, 0.054778, -0.030410, 0.014166, -0.005484, -0.000363, -0.036783, 0.004817, -0.018071, -0.016808, 0.070632, 0.004260, 0.044773, -0.011309, 0.038612, -0.014196, 0.008537, 0.068538, 0.004190, 0.064447, 0.010060, 0.041717, 0.033998, 0.015436, -0.014678, -0.010313, 0.002622, 0.014729, -0.040016, 0.027129, -0.009143, -0.042864, -0.040793, -0.036171, -0.004206, -0.027931, -0.021982, -0.019489, 0.009254, 0.049721, -0.014763, -0.046812, -0.000894, 0.052994, 0.038160, 0.061941, -0.025146, 0.003380, 0.021712, 0.009359, -0.038498, -0.003592, 0.020089, -0.078620, 0.004579, -0.068389, -0.042318, -0.000596, 0.001571, 0.019742, 0.006321, -0.055577, 0.032018, 0.034623, 0.001311, 0.030523, -0.016693, -0.020090, 0.059393, 0.054864, 0.009904, 0.087255, -0.000544, 0.022942, 0.049945, -0.013461, 0.026168, 0.074481, -0.004143, 0.049111, 0.090639, 0.078150, 0.064934, -0.024433, 0.029742, -0.050388, 0.014160, -0.003479, 0.053033, 
    -0.032008, 0.012055, 0.040382, 0.018646, -0.045941, -0.027193, -0.001872, 0.032393, -0.043582, 0.034322, -0.036278, 0.050242, -0.013078, -0.036947, 0.008363, 0.005535, -0.044599, -0.020793, -0.046984, 0.001142, 0.026316, 0.069111, 0.038592, 0.029288, 0.047544, 0.024173, 0.020707, -0.011611, 0.004565, 0.076347, -0.038244, -0.039284, 0.005904, 0.041117, -0.018036, -0.011485, -0.084299, 0.007789, -0.093501, -0.025456, -0.024771, -0.055184, -0.033676, -0.059270, 0.010062, -0.052403, -0.055427, -0.090085, -0.042565, -0.029528, -0.015720, -0.017995, 0.008382, 0.015868, -0.081486, -0.072484, -0.071107, -0.012400, 0.032132, 0.025139, 0.027924, 0.063250, -0.018850, -0.001967, 0.070633, 0.043985, 0.035298, -0.000948, -0.015451, -0.028768, 0.002402, -0.025699, 0.023037, -0.032365, -0.045946, -0.026891, -0.072291, -0.075539, -0.004305, -0.010442, 0.011268, 0.064505, 0.017635, -0.007675, -0.006247, -0.055739, -0.054607, -0.007756, -0.039108, 0.019812, -0.042523, -0.008964, -0.028185, 0.015521, -0.035098, -0.053337, 0.056287, 0.041750, -0.012114, 0.064058, 0.026605, 0.061390, 0.021476, 0.045491, -0.036704, -0.028251, 0.020692, -0.029549, -0.008566, 0.006116, 0.030956, 0.037750, -0.067748, 0.027320, 0.037871, -0.011741, 0.003038, 0.056521, 0.011597, 0.045003, -0.005084, 0.057363, -0.002548, 0.038973, 0.016449, 0.020472, 0.019732, 0.043474, 0.014932, -0.056349, -0.053883, -0.017264, -0.016774, -0.049038, 0.036999, 0.029722, -0.010397, 0.024090, -0.028964, 0.029700, 0.020455, 0.042490, -0.042960, -0.019706, -0.005923, 0.009140, 0.053368, -0.003062, 0.023538, 0.027766, 0.085180, -0.002683, 0.067674, 0.025497, 0.007873, -0.014725, -0.008648, -0.008368, 0.025840, -0.053871, -0.064666, -0.002402, -0.030584, -0.046638, -0.027541, 0.022509, 0.014528, 0.037770, 0.043244, -0.024790, -0.024784, 0.059094, 0.107519, 0.096457, 0.010106, -0.011038, -0.005022, 0.026649, 0.015854, -0.016136, -0.057956, -0.046978, -0.008885, -0.013341, -0.037312, 0.003403, 0.008183, 0.002301, -0.059750, 0.062271, -0.012060, 0.019906, 0.028220, 0.067531, -0.040141, 0.016716, -0.025432, 0.068690, -0.032919, 0.041793, 0.026257, -0.038241, -0.077783, 0.016461, 0.003469, 0.016846, -0.066587, 0.056326, -0.027563, -0.028098, 0.042466, -0.027075, -0.012067, -0.030233, -0.038403, -0.042061, -0.008952, -0.005738, 0.020427, 0.004179, 0.000245, -0.019600, 0.069228, -0.004594, 0.039016, 0.056232, 0.068496, 0.023860, 0.027248, 0.002196, 0.014511, 0.058768, 0.026424, 0.068453, 0.017927, 0.055854, 0.022034, -0.020243, 0.023750, -0.029549, -0.006704, -0.032971, -0.024648, 0.055071, -0.000569, 0.062666, 0.026306, -0.004962, 0.068508, 0.007097, 0.007494, 0.005024, -0.013414, 0.034916, 0.072889, 0.004582, 0.043701, -0.057227, -0.018544, -0.010861, 0.027703, -0.065057, -0.004163, 0.037000, 0.047107, -0.017448, 0.041716, 0.005372, -0.024797, -0.039225, 0.014366, -0.070200, -0.070705, -0.007452, 0.023921, 0.011938, 0.024478, -0.007924, -0.031228, -0.064864, -0.001104, 0.007511, -0.034973, 0.022087, 0.025046, 0.003761, 0.005287, 0.066848, 0.044861, 0.049398, -0.025568, -0.019423, -0.016946, -0.027276, 0.042989, -0.000862, 0.010015, 0.013132, -0.051652, 0.026492, -0.025619, 0.054756, 0.000344, 0.025778, 0.002703, 0.050855, 0.057517, 0.012260, 0.044894, 0.032959, 0.006642, 0.020277, -0.038919, 0.021381, -0.062672, 0.025717, 0.000656, 0.030802, 0.017965, -0.030615, 0.022836, 0.001393, -0.014579, 0.018127, 0.056099, 0.042354, 0.070210, 0.062724, 0.002224, 0.041956, 0.036142, -0.001414, -0.031723, 0.095782, 0.048305, 0.040669, -0.001357, -0.028560, 0.041828, 0.004679, -0.005388, 0.062484, 0.049805, 0.066071, 0.008611, 0.002143, -0.065140, -0.073827, -0.074397, -0.051637, -0.074303, -0.038419, -0.041440, -0.050858, 0.022999, 0.059726, 0.067092, 0.002588, 0.054454, -0.004822, -0.008263, 0.000908, 0.029499, 0.010127, 0.009959, -0.004642, 0.023561, 0.034257, 0.025702, -0.035550, -0.011242, 0.007126, -0.012980, 0.063497, 0.009876, 0.017450, -0.015383, -0.003934, 0.032835, 0.006937, -0.020698, -0.053016, -0.055660, -0.014248, -0.015315, 0.022096, -0.038104, -0.013585, 0.056761, 0.056645, 0.008858, 0.035939, 0.036592, -0.012329, -0.013145, -0.031795, 0.044259, 0.056605, 0.033055, 0.030504, 0.004753, -0.024279, -0.036168, -0.022649, 0.052897, -0.039359, -0.023808, -0.051679, -0.036330, -0.036428, -0.028919, 0.024752, 0.050282, -0.001224, 0.022567, -0.014867, 0.042746, -0.062198, -0.050034, -0.035862, -0.036248, -0.010662, 0.015473, 0.057454, 0.074440, -0.029915, -0.033892, 0.034477, 0.016886, 0.017026, -0.020692, 0.037152, -0.081490, -0.012573, -0.026590, -0.013240, 0.007916, -0.076560, 0.000197, -0.003909, -0.067336, 0.022084, -0.000718, -0.022042, 0.003500, 0.009502, 0.017390, -0.026860, 0.033148, -0.052672, 0.067654, 0.074356, 0.004552, -0.003131, 0.024549, -0.021428, 0.017870, -0.031365, -0.015004, 0.043237, -0.033189, -0.002987, -0.010972, 0.004064, 0.005168, -0.015699, 0.079679, 0.048337, 0.052394, -0.024792, 0.012409, -0.004779, 0.010707, 0.046101, -0.042423, 0.029417, 0.020537, 0.004100, 0.001338, -0.003833, 0.009489, 0.071347, 0.061649, 0.015361, -0.003151, 0.059589, 0.040933, -0.032168, 0.071409, 0.018645, 0.011051, -0.040807, -0.006609, -0.022682, -0.050099, 0.042841, 0.006234, 0.012860, -0.045075, -0.040436, -0.014289, -0.045314, -0.048299, -0.024742, 0.042203, 0.021694, -0.057571, 0.021648, -0.002782, -0.019375, 0.046319, -0.003406, 
    0.032351, 0.031760, 0.064077, -0.012060, 0.044815, 0.012387, 0.044704, 0.055077, 0.013546, -0.019275, 0.079955, 0.014348, 0.016158, -0.002068, 0.017352, -0.035916, -0.016237, 0.012219, -0.039364, 0.023373, 0.031131, 0.016659, 0.008943, 0.043740, 0.081659, -0.011160, 0.082982, 0.067099, 0.056877, 0.015926, 0.057137, 0.000549, -0.049253, -0.040318, -0.064376, -0.028882, -0.030392, -0.018198, -0.036304, -0.004865, -0.023697, 0.005848, -0.045889, 0.000252, -0.062409, -0.050551, -0.017642, -0.066922, -0.012755, -0.058674, -0.045529, -0.013880, 0.017384, -0.095021, -0.033235, -0.053352, -0.039193, -0.024438, 0.030080, -0.028968, -0.008566, 0.003979, 0.007263, -0.011366, -0.019270, 0.035587, -0.017285, 0.005824, -0.031381, 0.046784, -0.031502, 0.054584, -0.039596, 0.024194, -0.011497, -0.022714, -0.017753, -0.011658, 0.020308, -0.015204, 0.035653, -0.005602, 0.050637, 0.013841, -0.011460, -0.017242, -0.045556, -0.065576, 0.012270, -0.044043, -0.015581, 0.002457, -0.094922, 0.002687, 0.050157, 0.048288, 0.049024, 0.070640, -0.007974, -0.026120, -0.000955, -0.004476, -0.000371, 0.054625, 0.058952, 0.043101, -0.020350, 0.016827, 0.044755, 0.007838, 0.073239, 0.004597, 0.067229, 0.016324, -0.007014, 0.066702, 0.035855, -0.026139, 0.048357, 0.091311, 0.088925, -0.041099, -0.099541, -0.009847, -0.050039, -0.101661, -0.077843, -0.024843, -0.004995, -0.067499, -0.027636, -0.017338, 0.005195, 0.050743, -0.021259, -0.007414, -0.030827, 0.055721, 0.006625, -0.007823, 0.058205, -0.014986, 0.041073, 0.066527, -0.005437, -0.007947, -0.049851, -0.054226, 0.059439, 0.059810, 0.048911, 0.078703, 0.007293, 0.040675, 0.063962, -0.015665, 0.005564, -0.001114, -0.004702, 0.013659, 0.000405, -0.042213, 0.055959, -0.040902, 0.037677, 0.009780, -0.014410, 0.043081, -0.058706, -0.029264, -0.021647, 0.020974, -0.011814, -0.019001, 0.050704, 0.002872, 0.084952, 0.052866, 0.007138, -0.014897, 0.044179, 0.001895, 0.014073, -0.013294, -0.065557, 0.048884, 0.029499, -0.032972, 0.036625, -0.014814, -0.052670, -0.055102, 0.009822, -0.068078, -0.024356, 0.007015, 0.016418, -0.012228, 0.004020, 0.053993, -0.015250, -0.021392, 0.024339, 0.014373, -0.014706, 0.000897, 0.049643, -0.007091, -0.049119, -0.001338, 0.019801, -0.030375, -0.073519, -0.069479, 0.017431, 0.028404, -0.034518, -0.049612, 0.033474, -0.062872, 0.021682, -0.031010, -0.028189, -0.017637, -0.031598, 0.016969, 0.020044, 0.058420, 0.028530, -0.032298, 0.000380, -0.035050, 0.049210, 0.035991, 0.030697, 0.010007, -0.039491, 0.020219, 0.069370, -0.036110, -0.022094, 0.052449, 0.058283, 0.074889, -0.017438, 0.045684, -0.000308, 0.036733, -0.018943, 0.052220, -0.035405, -0.037793, -0.013302, 0.004730, 0.023693, -0.037406, -0.007172, 0.026490, -0.004065, 0.061584, -0.003476, 0.054859, -0.013761, -0.023648, -0.018173, -0.007540, -0.044302, -0.008938, 0.014522, -0.013526, -0.022292, -0.020147, -0.031644, -0.025849, 0.008723, 0.049205, 0.034642, 0.038374, 0.051713, -0.021044, -0.071402, -0.064417, -0.009089, -0.013614, -0.016136, 0.031201, -0.014248, 0.017589, 0.019601, -0.028318, 0.067798, -0.043561, -0.011500, 0.052935, 0.006092, -0.010558, 0.000637, 0.029023, 0.042883, 0.049215, 0.097561, 0.050736, 0.039115, -0.032068, -0.006306, -0.060221, -0.042495, 0.069317, -0.052098, 0.047645, 0.016931, 0.049930, -0.016940, -0.016172, 0.034754, 0.039237, -0.013091, 0.042070, 0.087240, -0.030384, -0.010576, -0.058996, 0.026533, -0.057351, -0.017154, -0.029753, -0.027385, 0.019578, 0.017758, 0.010947, 0.011655, -0.023658, -0.045051, -0.012533, 0.017006, -0.070361, -0.071081, -0.049533, 0.027852, -0.027015, -0.014356, -0.073439, -0.078488, -0.013431, -0.047936, -0.054809, 0.028776, -0.017734, -0.027244, 0.034374, 0.035264, -0.017622, 0.006765, 0.077030, 0.069749, 0.053694, 0.026298, -0.042443, -0.021594, 0.038710, -0.023423, -0.015411, -0.038249, 0.010300, 0.028273, 0.008663, 0.035026, 0.013208, 0.041335, 0.038657, 0.091108, 0.062208, 0.020877, -0.011875, 0.018887, 0.004049, -0.038037, -0.052371, -0.068274, 0.011741, -0.023622, 0.038589, 0.009441, 0.023259, 0.044111, 0.010464, -0.021664, -0.030292, 0.018097, -0.017441, 0.010160, -0.029869, -0.041808, -0.029728, 0.035309, 0.062097, 0.051272, 0.076754, 0.027012, 0.009335, 0.025742, -0.027398, -0.062106, 0.007353, 0.066192, 0.016215, 0.016317, 0.025800, 0.055980, 0.020643, -0.033766, -0.023883, -0.079156, -0.006329, -0.103051, 0.025794, 0.031358, -0.025614, -0.040007, 0.030727, -0.031206, -0.018706, -0.015720, 0.048925, 0.040561, -0.004466, 0.050236, -0.004348, 0.033694, 0.034948, 0.058370, 0.033162, 0.020445, 0.012232, 0.045984, 0.058585, -0.039469, 0.016249, 0.013059, 0.051520, -0.038011, 0.050919, 0.016749, 0.029380, -0.009555, -0.030749, -0.044072, 0.033227, 0.012562, -0.054182, -0.001547, -0.035716, -0.024773, -0.026409, -0.018806, -0.025244, -0.000686, -0.045598, -0.067694, -0.040653, 0.002169, 0.068348, 0.025526, -0.029303, 0.045475, 0.002965, -0.003030, 0.010471, 0.072383, 0.083033, 0.019409, -0.017654, 0.044334, -0.036584, -0.050300, -0.045408, 0.035276, 0.010203, 0.001972, -0.016740, 0.041228, -0.022882, -0.043295, 0.004744, -0.032226, -0.033448, -0.004239, -0.019615, -0.008532, 0.010697, 0.037303, -0.041322, -0.029466, -0.003591, -0.022992, -0.056847, -0.031501, -0.038778, 0.029741, -0.029076, -0.071311, 0.018622, -0.076779, -0.060062, -0.009637, 0.027024, -0.039203, 0.035278, 0.055587, 0.034668, -0.068011, 0.018562, 
    0.041625, 0.005485, 0.008881, 0.064467, 0.062149, -0.040283, 0.055675, 0.048114, -0.026517, -0.007122, -0.026169, -0.100345, -0.007530, -0.041276, -0.005164, -0.029967, 0.008276, 0.019025, -0.021676, 0.000164, -0.014646, -0.020041, 0.015827, -0.029887, -0.033775, -0.044156, 0.051819, 0.022017, -0.058183, -0.016736, -0.070623, -0.007863, 0.046633, 0.031727, 0.043195, 0.069242, 0.014398, 0.043597, 0.084835, -0.026427, 0.000509, -0.075856, -0.066021, -0.070780, 0.031851, -0.077760, -0.004201, -0.066433, 0.032581, 0.017914, 0.041636, -0.040413, -0.037924, -0.050807, 0.040547, -0.059848, 0.008557, -0.021497, -0.045277, 0.035311, 0.005143, -0.040025, 0.033974, -0.044487, -0.029879, 0.029999, 0.065276, -0.039740, -0.040711, 0.043239, -0.011026, 0.020799, 0.031276, 0.052441, 0.050539, 0.067130, 0.014274, -0.030282, 0.026546, -0.015195, 0.003222, -0.034260, -0.024197, 0.037277, -0.078591, -0.007066, 0.032550, 0.051101, -0.019985, 0.003357, 0.034003, 0.016083, 0.085633, 0.074509, 0.027051, 0.022839, -0.066719, 0.003394, -0.061410, -0.025694, -0.042711, -0.067166, -0.073429, 0.008847, -0.046235, 0.003241, -0.006200, -0.067710, -0.043408, -0.020641, -0.050327, -0.080662, -0.049938, -0.005603, -0.019402, -0.037774, 0.014735, -0.004925, -0.005269, -0.010942, 0.014461, -0.023139, -0.029724, 0.017671, 0.011193, 0.029179, 0.034768, -0.022473, -0.027511, -0.018831, 0.021571, -0.038096, -0.002082, 0.002942, -0.043384, 0.018462, -0.010904, -0.001065, -0.061369, -0.055268, 0.034867, 0.024042, 0.065889, 0.037417, 0.032439, 0.017792, 0.089688, 0.035216, -0.002129, 0.012060, -0.032910, -0.036046, -0.002047, -0.026084, 0.006232, 0.003746, 0.011062, -0.036201, -0.021378, 0.033446, 0.006605, -0.024622, 0.007644, 0.028881, 0.083710, 0.018416, 0.077161, 0.062603, 0.048085, 0.052814, 0.025627, 0.039790, 0.058228, 0.038124, 0.078307, 0.059734, -0.000085, -0.012141, -0.021906, 0.035213, 0.006657, 0.018374, 0.014113, 0.071291, 0.062323, -0.000058, -0.082678, -0.068996, -0.075830, 0.000461, -0.094605, 0.035955, -0.013969, -0.083228, 0.015562, 0.032910, 0.049867, 0.049382, -0.033669, 0.037816, 0.005148, -0.038350, 0.062373, -0.025201, 0.056055, 0.039578, 0.059769, 0.058344, -0.011452, 0.042121, 0.026436, 0.044028, -0.001760, 0.077316, 0.037176, -0.028975, -0.033421, -0.005281, -0.015701, 0.020125, -0.031053, -0.031054, 0.037016, -0.045075, -0.019815, -0.015430, -0.015445, -0.053063, 0.021106, 0.032482, 0.014565, -0.016210, 0.018058, 0.018921, -0.007933, -0.026870, 0.019948, 0.019361, -0.035372, 0.016163, 0.028347, -0.029710, 0.012628, 0.026819, 0.083610, -0.019630, 0.042525, -0.016337, -0.015260, -0.024269, 0.003211, 0.023643, 0.033827, -0.050069, -0.028125, 0.049013, 0.015573, 0.033084, 0.006332, -0.076776, 0.001801, -0.024644, -0.037071, 0.066628, 0.030687, 0.029361, -0.022078, -0.025515, 0.048558, 0.017941, 0.007652, 0.035310, -0.017332, 0.008988, -0.019018, 0.013000, -0.050811, -0.002044, -0.033434, -0.004698, -0.087331, 0.023071, -0.030659, -0.068141, 0.049943, -0.046944, 0.042809, 0.008511, -0.026029, 0.015365, -0.014847, 0.028005, -0.017562, -0.063284, 0.028948, -0.007024, -0.000518, 0.043052, -0.021768, -0.038434, 0.005229, -0.112362, -0.017544, 0.006400, 0.046070, 0.037992, 0.068645, 0.041708, 0.027559, -0.004058, -0.012145, 0.039552, 0.022077, -0.021301, 0.027809, -0.059472, 0.016873, -0.014050, 0.022849, 0.005098, 0.052258, 0.025511, -0.014288, 0.014124, -0.027715, -0.015622, 0.043831, 0.007409, 0.060194, -0.034301, -0.021565, 0.004914, -0.037199, 0.055564, -0.007826, 0.016318, 0.019300, 0.017225, 0.024332, 0.034491, -0.030182, 0.036254, -0.034748, 0.001572, 0.093661, -0.008585, -0.007926, 0.032905, 0.037805, -0.003408, -0.061301, -0.017937, -0.047133, 0.042862, 0.042057, -0.014902, 0.006233, -0.045524, 0.010005, -0.042600, 0.002473, 0.025155, -0.057477, -0.070616, -0.018668, 0.009288, -0.013775, -0.037141, 0.017326, 0.002230, 0.008684, -0.042082, -0.065192, -0.006117, -0.028308, 0.032674, -0.058023, -0.031157, -0.001092, 0.020880, -0.054061, 0.004545, -0.032722, 0.006598, 0.009656, 0.009375, 0.025590, -0.047892, -0.032879, 0.028728, -0.056306, 0.045318, -0.019847, 0.044928, -0.002706, 0.033978, 0.054436, 0.055007, 0.080035, 0.084301, 0.043018, 0.028324, 0.022424, 0.011979, 0.073860, 0.079269, -0.005403, 0.065169, -0.008340, 0.082802, 0.071813, 0.065149, -0.020963, -0.007323, 0.017171, -0.028285, 0.047605, -0.053759, 0.052495, 0.018050, -0.023311, -0.057054, 0.050803, -0.014551, 0.041061, 0.028437, -0.005929, 0.036794, -0.044780, -0.039341, -0.081917, -0.041689, 0.010437, -0.021507, 0.030759, -0.017169, -0.027495, -0.037094, 0.039215, 0.014084, -0.030909, -0.041827, 0.052543, -0.029767, 0.054166, 0.012315, 0.033845, 0.016623, -0.044636, -0.039898, -0.002437, 0.010377, -0.014698, -0.031691, 0.027702, 0.031729, -0.045569, -0.014092, 0.006764, 0.023792, 0.021124, 0.010044, -0.041783, -0.012080, 0.003150, -0.034399, -0.041761, -0.020856, -0.082425, -0.063038, -0.023777, 0.006004, -0.008433, -0.017436, 0.035545, 0.003749, -0.002798, 0.042931, 0.023757, 0.001148, 0.081231, 0.047977, -0.021994, -0.023936, 0.015312, -0.030591, -0.023971, -0.003148, 0.015118, 0.036204, -0.037016, 0.004970, 0.007604, -0.017110, -0.034845, -0.036822, 0.041380, -0.010930, 0.028656, 0.049787, -0.061244, -0.027465, -0.011019, 0.030066, -0.057788, -0.017030, 0.050712, -0.033441, -0.023065, 0.009256, 0.056084, 0.045118, 
    -0.009247, -0.047327, -0.052140, 0.044116, -0.046180, -0.034697, 0.023397, 0.032963, 0.052117, -0.017857, -0.040876, 0.029804, -0.056807, -0.038760, 0.000259, 0.001379, -0.055827, -0.054650, -0.046875, 0.025069, 0.007855, 0.050020, 0.059883, 0.003338, 0.039287, 0.010129, -0.022868, 0.005160, 0.064883, 0.032236, 0.004571, -0.057532, -0.046772, 0.039687, -0.014265, -0.010534, 0.003824, 0.015091, -0.041094, 0.012735, 0.004982, -0.075069, 0.015362, -0.009222, 0.002138, 0.006063, 0.061495, -0.023328, 0.059257, 0.089494, 0.100674, -0.040750, -0.040546, -0.018682, 0.033631, 0.062674, 0.042843, 0.034948, -0.036593, 0.061767, -0.022588, -0.012761, 0.025004, -0.056920, 0.010881, 0.014160, -0.013279, -0.024307, 0.037976, -0.018389, -0.021794, 0.050622, 0.041010, 0.001584, -0.003873, 0.075990, 0.006155, 0.086494, -0.014111, -0.064445, -0.086780, -0.021330, -0.014665, 0.011646, 0.030622, 0.029763, 0.002732, 0.005063, -0.023345, 0.044553, 0.052506, -0.053094, -0.028532, 0.072217, 0.041098, -0.018041, 0.015242, -0.006832, 0.049307, -0.047075, 0.008193, -0.017176, -0.060723, -0.047897, 0.062063, -0.071219, -0.065446, 0.016899, -0.043697, 0.025717, 0.033258, -0.047896, -0.037866, -0.002551, -0.059632, -0.046120, 0.023621, -0.018803, 0.019737, -0.010921, -0.038857, 0.002898, -0.034686, 0.079126, -0.014058, 0.018744, -0.001220, 0.000604, -0.042704, 0.060493, -0.010081, -0.006649, -0.042526, 0.032881, -0.017416, 0.045286, -0.024495, -0.005466, -0.010909, 0.012907, 0.012945, 0.030598, -0.001478, 0.037860, 0.059657, 0.044069, 0.037841, 0.021339, -0.024691, -0.054152, 0.071124, 0.047688, 0.041794, 0.058688, -0.014702, 0.014974, 0.074054, 0.010369, 0.069305, -0.032276, -0.034761, -0.004539, -0.062958, -0.022121, -0.031436, -0.025247, 0.026231, 0.031836, 0.024567, -0.014480, -0.015440, -0.063012, 0.005736, 0.016858, -0.067101, 0.004482, -0.029329, -0.027929, -0.076072, -0.001293, -0.003869, -0.045472, -0.087041, 0.021588, -0.013237, -0.028689, 0.040973, 0.011784, -0.006457, -0.056092, 0.036148, -0.030624, -0.004271, -0.021440, -0.000363, -0.012714, -0.027212, 0.006205, 0.011827, 0.036680, -0.018188, -0.057518, -0.020719, -0.040337, 0.026762, 0.072159, 0.057313, 0.004942, 0.030069, 0.057955, 0.061353, -0.037270, 0.065190, 0.032911, 0.034024, 0.000552, 0.024036, -0.018857, -0.008053, -0.026568, -0.013882, -0.080363, -0.033385, 0.007141, 0.003571, 0.024424, 0.031801, -0.037860, 0.025976, 0.057091, 0.038198, 0.013372, -0.032566, -0.014105, 0.079383, 0.008630, 0.064175, 0.059951, -0.008074, -0.017607, 0.074940, -0.000826, 0.014855, 0.036972, -0.027348, 0.006741, 0.078694, 0.005781, 0.032479, -0.013983, -0.075881, -0.075170, -0.010278, -0.067916, -0.041048, -0.031776, -0.072148, -0.063184, 0.019196, 0.064642, -0.028892, 0.057514, -0.026483, 0.009791, -0.014685, -0.008843, 0.014832, 0.034372, 0.039060, -0.017909, -0.042686, -0.036668, 0.001481, -0.035167, -0.060204, 0.011089, -0.007512, 0.069297, 0.031128, -0.014453, 0.060912, 0.053397, 0.013974, -0.014241, -0.009657, 0.003969, -0.045703, 0.021031, -0.018120, -0.032870, 0.046216, -0.040669, -0.022024, 0.017169, 0.045966, -0.010725, -0.005235, 0.023498, -0.016597, -0.001803, -0.039449, 0.022452, 0.000211, 0.000693, -0.023076, 0.028549, -0.033759, 0.033817, 0.051186, 0.028279, -0.013953, -0.028471, 0.018755, -0.050226, -0.016907, 0.038865, -0.012295, -0.011091, -0.052749, 0.018333, 0.034639, -0.018097, 0.025139, 0.054725, -0.035428, -0.048547, -0.045015, 0.012178, 0.023326, -0.011361, -0.035851, -0.052389, -0.017524, 0.028199, -0.040381, 0.016265, -0.028277, -0.033384, -0.009030, -0.038702, -0.051326, -0.062994, -0.073914, -0.015729, -0.047252, 0.025190, -0.010506, -0.012428, -0.047388, -0.002138, -0.019632, 0.019952, -0.032767, 0.058506, 0.008960, 0.006966, 0.058178, 0.021173, -0.017178, 0.020588, 0.028307, 0.024398, -0.011320, -0.108733, -0.011950, -0.043461, -0.031787, 0.053956, -0.020001, -0.042321, 0.049504, 0.027592, 0.039823, 0.019594, 0.038421, 0.036618, -0.039013, -0.018847, -0.038587, 0.051138, -0.034571, 0.008358, -0.052668, 0.035627, -0.012098, -0.047463, -0.064966, 0.016176, -0.013034, 0.012267, 0.060593, -0.029493, -0.012505, -0.054756, -0.047222, -0.059759, 0.036532, -0.037367, 0.030840, -0.007482, -0.000699, 0.081388, -0.025764, -0.038080, 0.026262, -0.020065, 0.015031, -0.008616, 0.070243, 0.074952, 0.039284, -0.060070, -0.066210, -0.019340, -0.030919, -0.042472, 0.008523, 0.007397, 0.032946, 0.020522, 0.044369, -0.055322, 0.017198, 0.040916, 0.017862, -0.004963, 0.011703, -0.074208, -0.024542, -0.019404, -0.010013, -0.059260, 0.041962, -0.039540, 0.054756, 0.061838, 0.028140, 0.044243, -0.056746, 0.024391, -0.039148, 0.019365, -0.044739, -0.003958, -0.030800, -0.047382, -0.093179, 0.010013, 0.035212, -0.023882, 0.045829, 0.012002, 0.012478, 0.012458, 0.074892, -0.016072, 0.040949, -0.016539, 0.074334, -0.028509, 0.035034, -0.001130, 0.020021, 0.005291, 0.048266, 0.010598, -0.010285, 0.051759, 0.100247, 0.080124, 0.020584, 0.039217, 0.065282, 0.072200, -0.032066, 0.039940, 0.052738, -0.019309, 0.026239, -0.000542, -0.060160, -0.016416, -0.068220, 0.063625, -0.013537, -0.028435, -0.054175, 0.006128, 0.026216, 0.055463, 0.039043, 0.039765, 0.012563, -0.000413, -0.053992, -0.044841, 0.002153, -0.010573, 0.003659, 0.017227, -0.054416, -0.005762, -0.002623, -0.016364, -0.030576, 0.046022, 0.038482, -0.017257, 0.027191, 0.022110, 0.028442, 0.036224, 
    0.012659, 0.028996, 0.044655, -0.063420, -0.063897, -0.010124, 0.002468, -0.023847, 0.021270, -0.011882, 0.023844, -0.029797, -0.019225, -0.026593, 0.017268, 0.007825, -0.006114, -0.054037, -0.045854, 0.039379, -0.016285, 0.028619, -0.010716, -0.057160, 0.015363, 0.092436, 0.067428, 0.034474, 0.098126, 0.005529, 0.073222, -0.027093, -0.005230, -0.018525, 0.006878, 0.034553, -0.001787, 0.019067, -0.038479, -0.031083, -0.016111, 0.017911, -0.078717, -0.034800, 0.026732, 0.016769, -0.048604, 0.045031, 0.029620, 0.056624, 0.007223, 0.020670, -0.051155, -0.058813, 0.020082, 0.012658, -0.063874, 0.022942, -0.002559, 0.014975, 0.058944, -0.050688, -0.034566, -0.034080, -0.022928, 0.026818, 0.019477, -0.005778, 0.032563, -0.015599, 0.043447, -0.027512, -0.006881, -0.000098, -0.042933, 0.033308, -0.010860, -0.040825, 0.010347, 0.047465, -0.001180, 0.013411, -0.005635, 0.047695, -0.035400, 0.013380, 0.011665, -0.026668, 0.071920, -0.003686, 0.022106, 0.013644, 0.066643, 0.033954, -0.006154, -0.011228, -0.009406, -0.007644, 0.035341, 0.018760, 0.044307, 0.033726, -0.001889, 0.045726, -0.029950, 0.044365, -0.027374, 0.056808, 0.065990, 0.041438, -0.000518, -0.006651, 0.038726, -0.015880, 0.028080, -0.018947, 0.046617, 0.059046, -0.003054, 0.086573, 0.003556, 0.030413, 0.033220, -0.004620, -0.014296, -0.003799, -0.030589, -0.046246, 0.045615, 0.058523, -0.072331, -0.031558, 0.021920, -0.003663, 0.008712, -0.001488, 0.064778, -0.037738, 0.020296, 0.074081, 0.097013, 0.028726, -0.021556, 0.008172, -0.036642, -0.031397, -0.049909, -0.058994, -0.036073, 0.022204, 0.004437, 0.004956, 0.031130, -0.050974, -0.025256, -0.001224, -0.056525, 0.044455, 0.047725, 0.068411, 0.002243, 0.034867, 0.033067, 0.032023, -0.059496, -0.024040, 0.017582, -0.000059, -0.022458, -0.021978, 0.022782, -0.006448, -0.008077, -0.031122, 0.009083, 0.000994, 0.048481, 0.069864, -0.008790, 0.045825, 0.028189, -0.047333, 0.025043, -0.001338, 0.018320, 0.004210, 0.022869, -0.008662, -0.054243, 0.017300, 0.040906, 0.023152, -0.016433, 0.025930, -0.003316, 0.016719, 0.049958, -0.019800, -0.018957, 0.057623, -0.049061, -0.058057, 0.008062, -0.053721, -0.005416, 0.010556, -0.049373, 0.043093, -0.010581, -0.018316, 0.050023, 0.009861, 0.002880, 0.002034, 0.015880, 0.013714, -0.056344, -0.002449, -0.054814, -0.055997, -0.003891, -0.055065, -0.007380, 0.030840, -0.060484, 0.010143, 0.021230, 0.002994, 0.053630, -0.005750, -0.038794, 0.021929, -0.029876, 0.026221, -0.009627, 0.043136, 0.019882, 0.065333, 0.079810, 0.082221, 0.096440, 0.027702, -0.004327, 0.009677, 0.003363, 0.005415, 0.079615, 0.027466, 0.019676, 0.014423, 0.010596, 0.000931, 0.025836, -0.011381, -0.015118, -0.015197, -0.020719, -0.053387, 0.016425, -0.041955, -0.002719, -0.029964, 0.039257, -0.036379, -0.056841, 0.062211, 0.011470, 0.045996, -0.054328, -0.044828, -0.009602, 0.041994, -0.052569, 0.032062, 0.020349, -0.015524, -0.050538, 0.057919, 0.039295, 0.027053, 0.028311, 0.007204, -0.021465, 0.029604, -0.003238, -0.008678, -0.002966, 0.040151, -0.038040, -0.039091, -0.074662, -0.048407, -0.031304, -0.038441, -0.020604, -0.001250, -0.012255, -0.062745, 0.021065, 0.027276, -0.069216, -0.043722, -0.004828, -0.000741, -0.039172, 0.005178, -0.003215, -0.004817, -0.020912, -0.018846, 0.023362, -0.013047, 0.012176, 0.045374, 0.067255, 0.005346, 0.021478, 0.055595, 0.024739, 0.119777, 0.050494, 0.029472, 0.005436, -0.038123, -0.016559, -0.048899, 0.048929, 0.035934, 0.014411, 0.005759, -0.024948, -0.035041, -0.071987, -0.033006, -0.001516, 0.044278, 0.028093, -0.015565, -0.024990, -0.022299, 0.000617, 0.033593, 0.014603, 0.018727, -0.017206, -0.041403, -0.017016, -0.045766, 0.014666, -0.005351, 0.038219, -0.036282, 0.030074, 0.056708, -0.049851, 0.022767, 0.032976, 0.047895, 0.031390, -0.010757, -0.047340, 0.014924, 0.038079, -0.037318, -0.030379, -0.050351, -0.045174, -0.038325, 0.015020, 0.046711, 0.006609, -0.013741, 0.033826, 0.013153, 0.006039, -0.004777, 0.031204, 0.007151, 0.071168, -0.017741, 0.021445, 0.011671, -0.040399, 0.051989, 0.030865, 0.025438, -0.038144, 0.041458, 0.039901, 0.020545, 0.023122, -0.012682, -0.065599, -0.083031, -0.032524, 0.031880, 0.008850, 0.007067, 0.064945, -0.000911, 0.073717, 0.054212, 0.092806, 0.050104, -0.039817, -0.001667, 0.092427, 0.012898, 0.062357, 0.034835, 0.038979, 0.017100, -0.042003, -0.015052, -0.060219, -0.057468, 0.021836, -0.044857, 0.048527, -0.009773, 0.013169, 0.049845, -0.004877, -0.028924, 0.062012, 0.011199, 0.005360, 0.007710, 0.109331, 0.050467, -0.035656, 0.022306, -0.066461, -0.049145, -0.000854, 0.039630, -0.016644, -0.047546, 0.039492, -0.050194, 0.046977, 0.050956, 0.039623, -0.024904, -0.039708, 0.018553, 0.001879, 0.077279, -0.057015, -0.048710, 0.002423, -0.044699, -0.048048, 0.047123, 0.003913, 0.010298, 0.010721, -0.007162, -0.061018, -0.021035, 0.020104, 0.051216, 0.047987, 0.050942, 0.012075, 0.008071, 0.040838, -0.030516, -0.025775, 0.017452, 0.022317, -0.038406, 0.002947, 0.013192, -0.004679, -0.024726, -0.008388, -0.001621, -0.066786, -0.059947, -0.068335, -0.022099, -0.050593, 0.024281, 0.010796, -0.046058, -0.046748, -0.023645, -0.048309, 0.038645, -0.024673, -0.056451, 0.004526, -0.029398, 0.029581, 0.019337, -0.061492, -0.013396, 0.018757, 0.077790, 0.033959, 0.065630, 0.029003, -0.036018, -0.035647, -0.044294, -0.050428, 0.011114, 0.012157, -0.058962, -0.096535, 0.015512, 
