#ifndef __XIN_H__
#define __XIN_H__

const float layer1_Conv2d_weight_xin[144] = {
    0.175335, 0.050115, -0.139772, -0.303415, -0.238101, 0.314516, 0.338410, -0.039692, 0.307429, 0.180513, -0.275098, -0.283271, -0.212665, 0.068205, 0.137958, 0.036963, -0.117055, 0.155009, 0.218184, -0.238337, -0.283943, 0.011534, -0.024258, -0.150186, 0.134887, 0.150051, -0.184798, -0.161738, 0.004610, -0.300910, -0.312203, 0.095048, -0.094084, -0.354465, -0.004312, -0.282603, -0.031850, 0.060785, -0.219753, -0.096913, 0.021971, 0.058319, 0.160707, -0.343701, -0.227373, -0.220885, 0.195772, -0.263883, 0.110766, 0.112513, -0.243852, -0.164689, -0.065496, -0.138950, -0.195411, -0.127620, -0.109739, 0.169838, -0.332813, -0.070765, -0.035657, -0.253496, 0.103189, 0.266663, -0.000509, 0.020151, 0.298401, 0.104209, 0.078294, -0.213868, 0.033737, -0.198682, -0.333483, 0.115504, 0.274973, 0.160974, -0.190175, -0.286558, 0.163831, -0.113302, -0.242740, -0.031580, -0.273032, -0.222142, 0.102992, -0.024221, -0.148710, -0.133829, -0.240799, 0.275647, -0.132684, 0.087345, 0.193217, 0.129606, -0.013213, -0.221755, 0.158537, -0.175991, -0.156626, -0.095082, -0.329712, 0.292712, 0.191062, -0.218354, -0.031962, 0.299308, -0.095009, -0.062145, -0.242983, 0.246042, -0.115256, 0.168913, 0.203066, 0.032573, 0.284664, 0.050078, 0.089324, 0.070604, 0.173912, 0.291262, -0.292201, -0.129835, -0.121269, -0.212132, -0.307475, -0.119232, 0.223778, 0.045108, 0.045299, -0.005825, -0.287936, -0.137274, 0.076034, 0.181861, -0.102796, 0.168324, 0.020434, 0.210615, 0.086967, -0.291784, -0.324246, -0.032709, -0.063518, 0.108599
};

const float layer1_Conv2d_bias_xin[16] = {
    0.311659, -0.360998, 0.107347, -0.059809, 0.028366, -0.159787, -0.332553, 0.232899, -0.292409, 0.126395, 0.330306, 0.161486, 0.172568, 0.291961, -0.151362, -0.003736
};

const float layer2_Conv2d_weight_xin[4608] = {
    0.016784, 0.021750, -0.034345, 0.083161, 0.066329, -0.032139, -0.051709, -0.066049, -0.068953, 0.056943, 0.007546, -0.072022, 0.023102, -0.043698, 0.071226, 0.068554, -0.013917, -0.070389, 0.074956, 0.016326, 0.016204, -0.001955, 0.056826, -0.052213, 0.059275, 0.013089, 0.044609, 0.068427, 0.024836, -0.065034, -0.060477, 0.035223, 0.055329, 0.048235, -0.100400, -0.004120, -0.072857, -0.041864, 0.036381, 0.006992, -0.048037, 0.086222, -0.090399, -0.087897, -0.026180, -0.084212, 0.007548, -0.040754, -0.036944, 0.062005, 0.007831, -0.093314, -0.099072, 0.006507, -0.082989, -0.008607, -0.055235, 0.068143, 0.045142, 0.036817, 0.016418, 0.045818, 0.042156, 0.018175, 0.040549, 0.044301, -0.049134, -0.004654, -0.079612, 0.011003, -0.025105, 0.056558, 0.006918, -0.058945, -0.039838, 0.037925, 0.007983, -0.057576, 0.062137, 0.061235, -0.060293, 0.042179, -0.065807, 0.060906, -0.038927, -0.069870, 0.088947, 0.027739, -0.085265, -0.086673, -0.017947, 0.069957, 0.057074, -0.075676, -0.034977, 0.049210, 0.030962, -0.061345, 0.036423, -0.035951, -0.050011, 0.073476, 0.063982, -0.012065, -0.050929, 0.053435, -0.017594, -0.039899, -0.021274, -0.060388, 0.030956, 0.039528, -0.054014, 0.081306, -0.062539, 0.070444, 0.043697, -0.071916, 0.008951, -0.064664, 0.070059, 0.047029, 0.004809, -0.007758, -0.038070, -0.079445, -0.073635, -0.074221, 0.049839, 0.038698, -0.007134, -0.012335, 0.068307, -0.013835, -0.038859, 0.019159, -0.106969, 0.037320, 0.083345, 0.038715, -0.046374, 0.040425, -0.039386, -0.056548, 0.049595, 0.055444, -0.090996, -0.053152, -0.069536, -0.057043, 0.049760, -0.034242, -0.046937, -0.005700, 0.026816, 0.008519, -0.064151, 0.071340, 0.086679, 0.063102, 0.027207, -0.002055, 0.000968, -0.077860, -0.005920, 0.075345, -0.043294, 0.052286, 0.014227, -0.001565, 0.042755, 0.049862, 0.045277, 0.049699, -0.023373, -0.007796, -0.018265, 0.042519, -0.072373, 0.061900, -0.067752, -0.076820, 0.037314, -0.053495, -0.016219, 0.013570, 0.072209, 0.059680, -0.014555, 0.019119, -0.019230, 0.034553, 0.038093, 0.028932, -0.004155, 0.082390, 0.074084, -0.071682, 0.075111, -0.017939, 0.052788, 0.047553, 0.072362, -0.059241, 0.080499, 0.075934, 0.022790, 0.076817, -0.037314, 0.034141, 0.025156, -0.007549, 0.053107, -0.076877, -0.047155, -0.082864, 0.058747, -0.063828, -0.055166, 0.010541, -0.046455, 0.007131, 0.043486, -0.041746, -0.071333, -0.080651, 0.011862, 0.061729, 0.002482, -0.061200, 0.080746, 0.016945, 0.047831, -0.010927, 0.030840, 0.012999, -0.055958, -0.054355, 0.052188, 0.049263, -0.064161, -0.003219, -0.057929, 0.015978, -0.051174, -0.024204, 0.003820, -0.041671, 0.003027, 0.001152, -0.032624, -0.030642, 0.006289, -0.036302, -0.075472, -0.079210, -0.057909, -0.078459, -0.048128, -0.062455, 0.082910, 0.069238, -0.049891, 0.052976, 0.076005, 0.089278, 0.025944, 0.068346, -0.011592, -0.000111, -0.013535, -0.031347, 0.027499, -0.069572, 0.074388, -0.031820, -0.017520, 0.010130, -0.014716, -0.061749, -0.067221, 0.028438, -0.014312, 0.040244, -0.043638, -0.076956, -0.025894, -0.015817, 0.081212, 0.049006, -0.081743, 0.059993, -0.049843, 0.056798, 0.080109, 0.081272, 0.051514, 0.019065, 0.048842, 0.003851, -0.001793, 0.039971, 0.006513, -0.062362, 0.034167, 0.085136, 0.082220, -0.025070, 0.065563, -0.022166, 0.054003, 0.037022, -0.064656, -0.040336, 0.063786, -0.023228, 0.027190, 0.007908, 0.002198, -0.018316, 0.021661, 0.060852, 0.013487, -0.025927, 0.063788, -0.010301, -0.052299, 0.071121, 0.024491, -0.000982, 0.038603, -0.052845, 0.064722, -0.046307, 0.046465, -0.067699, -0.005434, 0.059811, -0.021407, 0.062327, 0.000078, 0.020138, 0.037714, -0.045140, 0.059907, 0.010099, 0.044745, 0.043582, 0.029875, 0.081283, 0.052486, -0.039478, -0.091504, -0.032258, 0.053708, -0.013897, -0.042372, -0.007672, 0.051277, 0.004536, 0.016491, 0.048036, -0.012447, 0.057353, 0.019419, -0.066772, 0.047112, -0.070688, -0.053167, 0.030686, -0.022656, -0.039676, -0.040833, -0.056767, -0.048750, 0.095060, 0.045565, 0.056379, -0.004632, 0.022656, -0.076202, 0.030924, -0.026885, 0.039442, 0.073652, 0.031803, -0.054057, 0.057330, 0.087786, -0.040161, 0.042533, -0.065591, 0.052771, -0.023202, 0.010286, 0.045133, 0.047617, 0.022200, -0.005086, -0.096411, -0.035005, -0.097863, 0.053045, 0.065892, -0.040962, 0.072216, 0.034489, 0.042511, 0.042441, 0.004870, 0.027713, 0.022259, -0.053595, 0.030729, -0.057465, 0.014079, 0.006826, -0.028752, 0.012515, 0.004397, -0.035646, 0.058453, -0.076037, -0.008694, -0.060021, -0.053596, 0.026324, -0.025412, -0.083075, 0.066797, -0.065487, 0.020451, 0.044209, 0.089396, 0.011726, -0.016257, 0.042251, 0.048434, -0.038522, 0.006343, 0.039381, 0.049415, 0.009285, 0.040931, -0.032445, -0.045814, 0.027038, -0.025357, -0.047079, -0.031122, 0.037981, -0.042446, 0.049785, -0.077818, 0.017916, -0.067754, 0.074484, 0.013270, 0.079736, -0.079014, -0.063821, -0.020557, 0.046846, 0.017074, -0.039713, 0.048289, -0.110789, -0.101255, 0.001458, -0.049842, -0.035117, -0.021502, -0.006152, 0.050845, -0.084814, 0.026383, -0.008834, -0.012114, -0.041824, -0.058502, 0.019988, -0.053128, 0.055368, 0.045526, 0.051306, -0.086460, 0.045231, 0.080069, 0.040692, -0.005427, 0.029579, -0.062417, -0.013599, -0.081480, -0.066206, 0.045507, -0.058784, 0.100970, 0.023892, -0.014497, 0.088782, 0.038517, -0.059537, -0.052317, -0.011824, -0.037139, -0.078335, -0.068365, 0.026195, -0.064702, 0.099999, -0.027571, 
    0.013958, -0.058257, -0.038858, -0.059283, -0.002391, -0.036479, 0.015900, 0.078236, -0.033434, -0.074782, 0.071305, -0.008480, 0.032248, 0.038564, -0.009688, -0.017359, 0.089726, 0.097437, -0.008875, 0.033438, -0.037118, -0.057048, -0.065707, -0.052393, 0.007787, -0.053206, -0.011688, 0.009337, 0.028805, 0.084873, 0.080671, -0.048327, 0.021541, -0.072587, -0.043517, 0.104901, -0.060631, -0.027711, -0.012156, -0.085697, 0.081906, -0.012229, -0.038659, 0.006474, 0.093703, 0.092900, 0.014443, -0.007719, -0.056026, 0.041083, -0.023653, -0.020611, 0.001984, 0.012559, 0.046960, 0.041693, 0.076026, -0.012204, -0.053456, -0.023486, 0.031460, -0.026148, -0.019298, 0.034685, 0.000184, 0.040547, 0.007095, -0.058176, -0.060556, -0.038233, 0.006525, -0.076481, -0.105623, -0.077857, 0.024457, -0.056317, -0.004795, -0.056996, -0.017908, -0.036751, 0.064088, 0.086245, 0.054459, -0.053117, 0.013961, -0.020670, -0.019805, -0.003838, -0.006340, 0.009427, 0.084919, 0.000956, 0.010708, -0.004638, 0.053572, 0.078918, -0.065780, -0.030052, 0.075768, 0.078149, 0.046142, 0.053643, -0.016649, 0.030389, 0.082761, 0.021591, 0.000089, -0.028745, 0.096575, -0.059578, -0.014866, -0.018511, 0.066189, -0.004313, 0.028557, 0.048727, 0.030212, 0.027699, -0.045454, 0.053561, -0.057968, -0.023652, 0.007297, 0.069445, 0.017903, 0.003012, 0.021776, -0.077270, 0.017083, -0.039574, 0.075056, -0.080857, 0.009941, -0.039424, 0.081737, 0.087974, -0.018822, -0.059292, -0.080812, 0.073315, -0.019748, 0.063593, -0.006621, -0.005883, 0.042665, -0.094605, 0.032357, 0.046428, -0.042232, 0.018645, 0.068763, -0.009812, 0.094226, 0.025609, -0.060747, -0.058553, -0.012935, 0.013586, 0.080704, -0.058573, 0.096763, 0.070362, -0.003355, 0.080763, 0.018169, -0.002092, -0.050071, -0.061192, -0.001869, -0.008838, 0.024153, 0.019031, -0.073434, -0.121863, -0.124649, -0.036844, 0.011626, -0.059744, -0.003908, -0.030835, 0.032018, -0.076778, 0.068396, -0.050249, -0.053636, -0.054156, 0.013928, 0.034137, 0.089656, -0.003072, 0.049332, -0.088176, -0.038997, -0.026349, -0.059264, -0.065170, -0.020624, -0.059721, -0.065948, 0.057257, -0.062561, -0.073572, 0.033719, -0.072469, -0.058024, 0.058009, -0.057136, -0.080595, -0.086920, -0.056832, -0.048086, -0.022965, -0.056057, -0.008570, 0.022254, 0.068253, -0.055781, -0.052028, -0.046656, 0.078237, -0.033588, -0.069224, -0.000401, 0.021665, -0.052455, 0.100701, 0.014816, 0.043292, 0.069831, -0.055451, 0.043604, -0.020169, 0.050972, 0.031173, 0.051755, -0.011685, -0.020728, 0.002201, -0.054075, -0.007080, -0.032172, 0.080929, 0.062673, -0.018450, -0.047024, -0.080756, -0.001078, -0.068792, -0.083485, 0.006311, -0.035956, 0.039211, -0.015944, 0.021697, 0.039039, -0.029401, -0.068975, -0.030541, -0.007423, 0.045033, -0.053690, 0.056404, -0.033335, 0.077222, 0.007507, -0.028912, 0.024056, -0.059868, 0.043356, -0.058016, -0.028143, -0.081448, 0.058757, 0.034409, -0.047676, 0.002678, 0.009854, 0.030511, -0.063881, -0.013780, 0.034326, -0.028803, 0.029048, 0.106225, 0.030591, 0.031509, -0.035302, 0.041214, 0.057024, 0.058009, 0.046031, 0.069699, 0.018898, -0.063518, 0.076912, 0.057436, -0.021558, -0.024217, -0.043237, 0.001293, -0.031869, 0.000050, -0.009688, 0.053112, -0.037010, -0.073500, 0.007577, -0.040853, 0.064705, 0.010036, 0.093293, -0.021959, 0.017927, 0.056516, 0.048626, 0.067033, 0.035306, -0.064179, 0.067315, 0.056218, 0.051503, -0.034761, 0.083526, 0.063802, 0.055298, 0.074401, -0.064624, -0.046083, 0.070906, -0.062697, -0.032219, 0.004212, 0.036438, -0.094470, -0.041818, 0.066774, -0.049027, 0.062752, 0.013309, -0.047693, -0.032390, 0.058685, 0.075226, -0.080407, 0.061105, 0.055883, -0.063348, 0.061647, 0.031152, 0.027166, 0.002840, -0.081298, 0.037230, 0.034877, 0.072787, -0.054379, -0.047041, -0.003588, -0.008031, -0.073352, -0.056508, 0.068862, 0.015322, 0.072697, 0.016524, -0.046514, 0.038452, -0.072710, 0.021325, -0.009841, 0.047472, -0.056353, -0.081598, -0.082874, -0.064320, -0.046183, 0.021382, 0.014806, 0.029656, -0.007129, -0.069672, 0.020027, -0.064123, -0.080331, 0.023306, 0.045296, 0.010673, -0.056160, 0.004758, -0.078071, 0.070181, -0.095459, 0.039192, 0.041024, -0.002734, -0.101951, 0.017142, -0.042434, -0.031594, -0.056288, 0.060263, 0.003831, 0.027087, -0.104144, -0.083296, -0.070585, 0.037104, -0.000009, 0.000924, -0.042196, 0.064042, -0.055795, 0.027288, 0.029187, -0.048054, -0.005890, -0.047101, -0.108598, -0.024025, -0.122993, -0.005884, 0.013131, -0.021919, -0.044768, 0.040184, -0.075882, -0.009791, -0.036587, -0.024426, -0.092729, -0.058486, -0.056300, -0.075636, 0.065487, 0.009763, -0.001535, -0.049814, -0.029967, 0.062013, -0.000795, 0.018800, -0.016632, 0.046067, -0.022527, -0.101403, 0.044267, 0.041667, -0.040577, -0.028073, 0.020572, -0.078554, 0.045348, 0.033368, -0.044007, 0.046872, -0.057712, -0.053892, 0.059928, -0.099871, 0.044616, 0.055986, 0.028681, -0.034311, 0.059039, -0.066512, 0.078848, -0.087045, -0.078523, -0.098551, 0.055657, 0.069677, -0.028548, 0.010892, 0.001566, 0.023174, -0.060473, -0.038693, -0.078107, -0.019072, 0.036989, -0.009019, -0.023233, 0.074148, 0.059966, 0.030715, -0.044738, -0.098417, -0.012574, 0.002843, 0.052167, 0.023409, -0.013316, -0.021181, 0.049832, -0.076759, 0.007912, -0.030870, 0.019055, -0.030293, 0.026541, 0.055652, -0.023262, -0.007334, -0.066905, -0.050950, -0.048908, -0.066594, -0.065222, -0.056132, 0.081962, -0.071621, -0.033035, 
    -0.012640, 0.021618, -0.006265, 0.048263, 0.020070, 0.020711, -0.071982, -0.077025, 0.056382, -0.013280, 0.045134, 0.040127, -0.007887, 0.022065, -0.045939, 0.043899, 0.056236, -0.049853, -0.036393, -0.057236, 0.045156, 0.036693, -0.030473, -0.060522, 0.041153, 0.012507, -0.069647, 0.083127, -0.070949, 0.028942, 0.076647, 0.000983, -0.087697, 0.004028, 0.073309, -0.031815, -0.030893, 0.078014, 0.028587, 0.032161, -0.055491, 0.038909, -0.055592, 0.018206, -0.038029, 0.066241, 0.022881, 0.080319, -0.038977, 0.043308, -0.081619, -0.069710, -0.041062, 0.004916, -0.063545, 0.033635, 0.057790, 0.005785, -0.002648, -0.009858, 0.041837, 0.074467, 0.031524, -0.080225, -0.057899, -0.075439, -0.026687, 0.028728, -0.075119, 0.063268, -0.017196, -0.008734, -0.002830, 0.007315, 0.050374, 0.005809, -0.010849, 0.059018, 0.031735, 0.008427, -0.036042, 0.044472, -0.030611, 0.031596, 0.035696, -0.023060, -0.051862, 0.037053, 0.073934, 0.037535, -0.055835, 0.044213, 0.044247, -0.051171, -0.101671, 0.074180, 0.063257, -0.026748, -0.067918, 0.051165, 0.071216, 0.074403, 0.060086, 0.041247, -0.044279, -0.069553, 0.057006, -0.037162, -0.025970, -0.019835, -0.066621, 0.037713, -0.047787, -0.068191, 0.079726, -0.076712, 0.065932, 0.051542, 0.064395, 0.005580, -0.016693, 0.022973, -0.061332, 0.053468, -0.039283, 0.057908, 0.016349, -0.006606, -0.031517, 0.076518, -0.033890, -0.013613, -0.026383, 0.005758, -0.051199, 0.046925, -0.017765, 0.015834, -0.014230, -0.014854, -0.072826, 0.056921, 0.074140, -0.023152, -0.016859, 0.061034, -0.011940, 0.017876, -0.005342, 0.034309, -0.028711, -0.012650, 0.019122, -0.011825, 0.017310, 0.029438, -0.013429, 0.081423, -0.039607, -0.089986, -0.015678, 0.046644, -0.076716, 0.080848, -0.080505, -0.031338, -0.033724, 0.003012, -0.067805, 0.008012, 0.012952, 0.035035, 0.057877, 0.057706, -0.003915, -0.056570, -0.054566, 0.071142, 0.059925, -0.016418, 0.022109, -0.018361, 0.060827, 0.037805, 0.026646, -0.009889, -0.031396, -0.017198, 0.069555, 0.014950, 0.045276, -0.090943, -0.019287, -0.013459, 0.037647, 0.093223, 0.035654, -0.002883, -0.054474, -0.034149, 0.086939, -0.015437, -0.014039, 0.038709, 0.058507, 0.030482, -0.021384, 0.067429, -0.018137, 0.056907, 0.014765, 0.038031, -0.015690, 0.050702, 0.063272, 0.029548, 0.038798, 0.027796, -0.001772, 0.047264, -0.056459, -0.001130, 0.069585, -0.080823, -0.036147, -0.080389, -0.080863, 0.048282, 0.011376, -0.027762, -0.072426, -0.089284, -0.057125, -0.044739, 0.013122, 0.022861, -0.070801, -0.031794, 0.030712, 0.047907, 0.041272, -0.012075, 0.042822, -0.004035, -0.065635, -0.052007, 0.000153, -0.065937, 0.067479, -0.004435, 0.003188, -0.090069, -0.000855, -0.067633, -0.056793, 0.065405, 0.011591, -0.018769, -0.022106, 0.011967, 0.061491, 0.017931, -0.037326, 0.078049, 0.001409, 0.047848, -0.009142, 0.039074, -0.064134, -0.065756, -0.005323, -0.092592, 0.029704, 0.004968, 0.051558, 0.047711, 0.022112, -0.002780, 0.080342, -0.063374, -0.039499, 0.018085, -0.045811, -0.049924, -0.087790, 0.027562, -0.030420, 0.075955, -0.043737, -0.036893, -0.064707, -0.071338, -0.055703, 0.015533, 0.057770, 0.015445, 0.012276, 0.007935, -0.082067, -0.020112, -0.081977, 0.059590, 0.070593, -0.085729, 0.060533, -0.059184, -0.072972, 0.046788, 0.019235, 0.063854, 0.049245, 0.006645, -0.081846, -0.037327, -0.000050, -0.062986, 0.084742, -0.055225, -0.041316, -0.025268, 0.011361, -0.027312, 0.016843, 0.045375, -0.009976, 0.062425, -0.041164, -0.034639, -0.090756, 0.069507, -0.012110, -0.070035, -0.013077, -0.013681, 0.046849, -0.027760, 0.066160, 0.098348, -0.054984, -0.000739, 0.089047, -0.053143, 0.076511, -0.051583, 0.039152, -0.077473, -0.021363, 0.031177, -0.049134, -0.064760, -0.047646, 0.044579, 0.092117, 0.010219, -0.023396, -0.037392, 0.066646, -0.028547, -0.091553, -0.072737, -0.033114, -0.080180, -0.051888, -0.080723, -0.058657, -0.006009, 0.050841, 0.038421, 0.081079, 0.060789, 0.048102, 0.041945, 0.051085, 0.101049, -0.063451, -0.082980, 0.032042, 0.012479, 0.060885, -0.064300, 0.086060, 0.106150, 0.056817, 0.026254, -0.031996, -0.045526, 0.042404, -0.030968, 0.053514, -0.077037, 0.020340, -0.082880, -0.046369, -0.035045, 0.041426, -0.073776, -0.075232, -0.045308, -0.001369, 0.046748, -0.014299, 0.034543, -0.082327, -0.022337, 0.024615, 0.069560, -0.067248, 0.026299, -0.049360, 0.007118, 0.069198, -0.022189, 0.060452, -0.020917, 0.063519, -0.021587, 0.000650, -0.038307, 0.019648, 0.021178, -0.055576, -0.045895, 0.019724, -0.046931, -0.101263, 0.002000, -0.054369, 0.047263, -0.076064, 0.066152, 0.035117, 0.013378, 0.008736, 0.020891, -0.031769, -0.016093, 0.022142, 0.029311, 0.010648, 0.074017, 0.072649, -0.045557, -0.071925, 0.080640, -0.017016, 0.068481, 0.081827, 0.000368, -0.023609, 0.057967, 0.082338, -0.038824, 0.044860, -0.023320, -0.059888, 0.024095, -0.068795, 0.045780, 0.061972, 0.052619, -0.074219, -0.022676, -0.082820, 0.079346, 0.018988, 0.037924, -0.073974, -0.053697, -0.032391, 0.009619, 0.014459, 0.054815, -0.051715, 0.021775, -0.032093, 0.062261, 0.065412, 0.085012, 0.013507, -0.018790, -0.024681, -0.049934, 0.056087, -0.017828, 0.080719, -0.061765, 0.005982, -0.048983, 0.032195, -0.031585, 0.061584, 0.017837, -0.054225, 0.089120, 0.005432, 0.018887, 0.053369, -0.062875, -0.020158, 0.019227, -0.066788, 0.027672, -0.035923, 0.044144, 0.017850, -0.038890, 0.066767, 0.028167, -0.015529, -0.028740, 0.048150, -0.064706, 
    -0.048544, 0.004585, -0.044353, -0.072542, -0.054784, -0.023033, 0.030044, 0.068187, -0.025733, 0.013254, -0.062071, 0.043432, -0.008314, -0.024270, 0.022565, -0.099150, -0.062835, -0.113897, -0.047922, 0.020520, 0.073894, -0.004619, -0.016304, -0.004270, -0.054225, 0.049193, 0.004347, 0.033787, -0.090812, 0.015267, 0.062446, -0.015945, 0.009717, 0.052493, -0.071749, -0.022300, 0.022015, -0.097874, 0.024883, -0.022701, 0.063132, 0.028965, 0.052243, -0.078882, -0.026368, -0.050949, 0.019211, -0.081506, -0.017029, 0.062260, -0.067296, -0.018971, 0.056413, 0.054843, -0.011274, -0.015422, 0.085436, 0.009769, 0.058496, -0.003058, 0.003382, -0.024970, -0.049981, -0.053283, 0.031192, 0.056985, 0.036338, -0.020707, -0.021164, -0.071149, -0.061511, -0.018552, 0.023173, 0.010633, 0.001082, 0.068182, 0.032402, 0.003493, -0.012866, -0.038391, -0.047069, -0.012268, 0.014907, -0.042112, 0.003247, 0.054928, 0.003572, 0.010534, 0.060290, 0.070440, -0.057835, -0.059826, 0.019218, -0.082482, -0.056726, 0.082397, -0.093011, 0.000236, 0.053748, 0.048871, 0.067485, -0.046073, -0.000537, 0.062940, 0.042960, -0.006128, -0.015817, 0.053478, 0.032249, 0.062433, 0.044372, 0.006180, -0.059914, -0.028350, -0.048904, -0.062326, -0.072885, 0.039466, 0.018013, -0.007832, 0.072942, 0.081369, -0.031677, -0.070475, 0.067253, -0.027691, 0.036963, -0.067019, 0.045753, 0.010930, 0.083201, 0.047581, -0.078657, -0.026360, 0.055579, -0.056704, 0.091626, -0.010357, 0.060549, -0.034175, -0.063607, -0.016496, 0.064594, -0.015409, -0.027347, -0.051973, 0.008083, -0.027977, 0.070805, -0.012453, 0.008982, 0.033198, -0.059542, 0.083893, -0.052768, 0.014720, 0.058823, -0.042248, 0.019933, -0.026044, 0.049665, 0.039188, 0.030764, 0.033102, -0.034545, -0.077411, -0.033516, 0.011830, -0.043298, -0.034766, 0.061547, 0.007221, 0.021739, -0.110131, -0.062332, -0.034679, 0.040136, -0.075908, -0.034834, -0.052741, -0.041007, 0.003531, 0.031425, 0.008809, 0.054073, 0.017544, -0.000484, 0.034301, 0.021217, -0.027068, -0.049411, -0.034031, -0.084447, -0.073728, 0.036352, -0.025702, 0.012511, 0.051538, 0.036018, -0.029848, -0.032733, -0.082656, 0.053975, -0.044395, 0.024088, 0.004841, -0.040792, 0.019376, -0.022977, -0.023401, -0.085071, -0.021266, -0.018881, 0.048120, -0.015713, 0.023314, -0.037719, 0.041230, 0.016051, 0.061546, 0.078950, 0.034485, -0.022941, 0.015906, 0.039121, 0.000913, -0.031646, 0.034381, 0.008778, -0.023299, 0.080188, -0.084558, 0.016459, -0.002367, 0.028152, -0.046226, 0.078305, 0.067737, -0.025403, -0.074413, -0.062833, 0.053546, 0.040046, -0.025959, -0.000405, 0.010070, 0.001446, -0.014571, -0.030486, -0.022254, 0.046775, -0.010238, 0.014783, -0.003175, 0.048422, 0.078969, -0.003381, -0.040269, 0.050605, -0.058503, -0.057735, 0.000409, -0.088617, 0.065647, 0.076081, -0.047693, 0.082652, -0.043329, 0.074568, 0.088073, -0.004610, -0.055094, 0.067699, -0.024376, 0.032205, -0.017019, 0.048174, 0.027091, 0.029308, 0.024569, -0.070132, 0.059647, 0.078275, -0.034528, -0.042553, 0.043230, 0.043711, 0.008978, -0.084869, -0.051276, 0.061401, 0.017639, 0.071160, -0.076759, -0.081745, 0.088419, -0.010596, -0.067116, 0.030087, 0.086812, 0.017710, -0.005717, -0.014334, -0.088257, -0.036696, -0.016247, -0.061610, -0.078786, -0.020457, 0.049560, -0.001412, -0.031499, 0.071969, -0.054280, 0.034819, 0.020615, -0.083304, -0.059136, 0.031864, -0.063199, 0.008724, -0.063011, 0.041603, 0.051415, 0.046154, 0.051557, -0.012769, 0.041288, 0.035354, 0.077728, -0.034670, -0.008858, -0.037715, 0.019430, -0.100587, -0.066770, -0.049071, -0.069990, -0.057643, 0.007223, -0.041163, -0.060317, 0.073175, -0.025983, 0.038766, -0.069856, -0.066202, -0.046252, 0.056631, -0.046112, 0.005410, 0.060344, -0.053236, -0.065903, 0.013355, 0.033381, -0.060013, -0.045094, -0.022450, 0.067553, -0.090928, -0.089400, -0.072201, 0.026423, 0.086181, 0.097688, 0.079870, 0.023972, -0.077262, -0.051164, -0.080920, -0.025700, 0.042933, -0.014042, 0.042838, -0.048125, 0.076069, 0.041987, 0.021716, -0.018467, -0.088427, -0.037977, -0.026527, -0.030583, -0.005646, 0.055981, -0.032937, -0.074204, 0.024474, 0.060633, 0.008765, 0.088832, -0.012871, 0.040178, -0.050187, 0.076862, -0.077995, -0.054823, 0.013321, -0.048257, 0.007758, 0.075923, -0.005593, -0.029883, 0.009991, 0.022399, -0.038807, 0.036249, 0.052271, -0.056487, 0.069062, -0.001233, 0.011199, 0.013962, -0.089682, 0.018110, -0.025902, -0.076980, 0.039186, 0.041995, -0.052617, -0.061770, -0.012722, -0.027008, -0.065627, 0.007944, 0.060089, -0.012782, -0.038034, -0.034212, 0.069065, -0.030122, 0.005193, 0.036319, -0.008408, -0.075059, -0.081343, 0.066711, -0.072382, 0.049177, -0.050974, -0.008946, 0.021514, -0.080478, 0.004087, -0.094203, -0.058478, -0.006148, 0.017413, -0.073840, -0.037682, 0.053896, -0.036351, -0.011769, -0.030689, -0.040573, -0.057206, -0.011668, 0.026341, -0.017711, -0.075550, -0.019165, -0.051687, -0.038020, -0.013262, 0.074514, 0.060463, 0.059384, 0.070402, -0.053593, -0.068581, 0.027805, 0.010079, -0.081219, 0.069749, 0.018819, -0.006532, -0.062619, 0.047787, -0.011770, -0.082042, -0.018033, -0.000778, 0.025294, -0.000501, -0.115750, -0.046361, -0.112033, -0.064262, -0.101292, -0.100506, -0.068366, 0.030083, 0.032805, 0.051726, 0.068539, -0.073192, -0.055220, -0.025342, -0.053772, -0.065025, -0.046391, 0.046583, -0.017148, -0.036751, 0.081806, 0.063260, 0.064483, 0.051868, -0.038655, 0.075300, -0.008925, 
    0.061677, -0.010491, 0.018274, 0.062095, 0.029131, -0.045483, 0.030528, 0.064886, -0.037919, 0.073485, 0.098200, 0.086934, 0.010835, 0.066658, -0.050194, 0.043809, 0.083683, 0.031767, -0.019435, -0.047246, 0.006903, 0.096430, 0.016274, -0.063085, -0.055707, 0.003946, 0.051322, -0.081591, 0.101838, 0.064258, 0.087993, 0.023631, -0.069114, -0.097786, -0.014804, 0.033666, -0.067284, 0.042931, -0.055173, 0.034994, -0.077303, -0.034346, -0.072305, 0.082947, 0.042285, -0.049564, 0.088270, -0.059870, -0.039423, 0.051420, -0.017138, -0.021832, -0.063995, 0.057752, -0.059638, 0.046026, -0.054914, 0.101607, 0.063306, -0.063227, 0.073573, 0.045810, 0.010400, 0.080268, -0.010646, -0.045952, -0.042440, 0.050531, -0.080896, 0.004728, -0.023212, 0.000588, -0.085799, 0.054564, 0.083489, 0.065191, 0.006639, 0.030062, -0.075449, -0.060125, 0.036254, 0.018369, -0.081143, -0.025078, -0.042295, -0.080392, -0.076677, 0.018561, -0.065735, 0.029553, 0.041039, 0.096243, 0.109926, -0.024800, -0.042952, -0.011618, -0.020940, -0.082562, -0.021171, -0.037652, -0.031978, -0.035825, -0.080193, 0.048424, 0.055542, 0.001677, -0.068742, -0.071505, -0.078621, 0.001910, 0.058816, -0.052721, 0.068748, 0.071064, -0.059544, -0.008681, -0.045440, -0.033773, 0.008101, 0.018245, -0.038500, -0.065352, 0.065782, -0.075351, 0.084759, 0.000081, -0.039356, -0.064009, -0.066090, -0.074036, 0.017592, 0.036522, 0.025842, 0.015189, -0.005525, -0.069721, -0.048536, -0.049291, 0.018509, 0.048546, 0.027501, 0.042392, 0.060766, -0.080380, 0.056925, -0.075756, 0.033097, -0.035662, 0.008585, -0.023164, 0.076185, -0.005738, -0.074347, 0.009117, -0.013794, -0.107983, -0.051902, 0.028014, -0.006243, 0.002065, 0.016996, 0.013452, -0.082232, -0.101279, 0.013487, -0.113426, -0.022539, -0.005865, 0.017663, -0.004465, 0.025608, -0.029421, 0.010516, -0.122769, -0.032471, -0.059763, -0.084504, -0.032533, 0.010733, -0.094971, -0.043200, 0.028025, -0.080498, 0.041973, -0.015179, 0.071471, -0.020755, -0.017587, 0.039225, 0.057933, -0.090254, -0.051023, 0.010366, 0.078947, 0.039380, 0.032917, 0.061225, -0.076343, 0.070689, -0.011757, -0.017217, -0.086670, -0.083195, -0.042886, 0.021831, -0.041319, -0.066786, 0.065322, -0.065986, -0.070338, 0.056359, 0.062912, 0.038626, -0.025802, -0.052305, -0.069057, -0.007417, -0.007384, -0.000891, 0.044738, -0.059150, -0.028233, -0.009043, -0.070463, -0.076500, 0.043724, -0.079497, -0.114635, 0.014925, -0.081199, 0.078780, -0.024252, 0.063112, -0.062073, 0.040226, 0.032534, -0.064121, 0.005032, -0.034955, 0.043549, -0.074585, -0.072113, 0.012503, -0.069120, -0.048003, -0.088602, -0.089102, -0.037606, 0.038683, 0.052333, 0.051528, 0.024227, 0.018941, -0.075381, -0.008796, -0.073681, 0.023660, 0.078640, -0.025004, 0.021759, -0.023329, -0.081975, 0.081777, -0.010156, -0.039209, 0.043359, -0.037248, 0.017929, 0.029876, 0.033073, 0.011685, -0.034262, -0.050175, -0.081441, 0.018822, 0.030219, 0.029318, 0.064243, -0.004292, 0.036060, 0.035635, -0.099739, 0.042905, -0.034396, -0.014091, -0.074504, 0.053730, 0.015177, 0.000011, 0.013547, -0.108324, 0.013084, -0.074290, -0.068909, -0.084851, 0.049734, -0.022611, -0.076282, -0.104991, -0.061349, -0.102496, 0.013737, -0.059938, -0.022522, 0.040177, -0.004017, -0.051037, -0.099885, -0.053103, -0.091550, -0.082378, -0.093358, 0.015002, 0.063465, 0.016790, -0.069190, -0.046026, -0.016166, -0.075448, 0.000603, -0.068797, -0.065862, -0.089156, -0.001311, -0.001993, 0.041020, -0.014917, -0.006262, 0.064079, 0.037005, 0.035409, 0.024445, -0.061790, -0.015055, 0.015184, 0.028293, 0.053555, -0.060318, -0.034316, -0.016745, 0.070054, 0.016868, 0.006806, 0.008683, -0.023641, 0.051597, 0.001785, 0.068647, -0.045296, 0.059716, 0.066969, -0.006605, 0.003038, -0.024259, -0.055110, 0.049140, -0.000346, -0.075148, -0.067519, -0.005144, 0.057134, -0.084442, 0.037589, -0.021954, -0.055679, -0.019980, 0.002402, -0.041198, 0.071714, 0.061473, 0.077727, 0.091730, -0.033498, 0.053181, -0.017921, 0.041525, 0.029361, 0.029175, 0.002744, 0.019398, 0.013772, 0.033906, -0.069229, 0.051940, 0.021830, -0.062029, -0.085018, 0.060975, 0.068241, 0.053615, 0.031501, 0.057620, -0.048825, 0.052162, 0.022677, -0.036186, -0.037714, -0.017820, 0.027189, 0.023559, -0.085255, -0.092746, 0.057164, 0.049832, -0.043956, -0.044642, 0.001771, 0.040143, -0.008006, 0.026488, 0.002941, -0.030505, 0.004457, -0.043771, 0.084260, 0.072552, -0.022463, 0.004226, 0.048344, 0.029904, 0.019555, 0.006903, 0.066377, -0.039779, 0.015849, -0.002906, 0.014666, -0.063008, 0.066650, -0.077605, 0.062893, 0.008164, -0.050066, 0.031603, -0.008410, 0.027517, 0.036965, 0.048838, 0.016274, -0.041719, 0.051717, 0.040618, -0.056217, -0.039426, -0.057191, -0.050192, 0.012324, 0.071140, 0.038035, 0.068606, -0.054033, 0.059007, 0.032729, -0.063105, 0.015268, -0.025755, 0.044841, 0.045153, -0.063434, -0.018154, 0.054528, 0.053901, 0.018728, -0.032274, 0.049089, 0.075395, -0.031805, -0.043310, -0.034772, -0.007031, -0.068028, -0.061505, 0.036533, 0.022400, 0.051712, -0.033308, -0.050968, -0.011658, -0.050556, 0.064511, 0.087589, -0.031769, 0.058199, -0.084838, -0.063648, -0.010549, 0.058228, 0.077716, 0.022745, 0.074578, 0.078505, -0.050150, 0.048726, -0.059741, -0.081306, -0.005649, 0.045743, -0.055940, 0.081924, 0.039492, 0.068253, 0.070547, -0.045408, 0.032698, 0.085631, 0.044218, -0.075642, -0.078280, -0.080882, 0.039778, 0.060798, -0.061196, 
    -0.099279, 0.052959, -0.020242, 0.076295, -0.015162, 0.041160, 0.040746, -0.019441, 0.052204, 0.059276, 0.016374, -0.000495, 0.031622, -0.010001, 0.079850, -0.055677, -0.068321, 0.012652, -0.071827, 0.006630, -0.039873, -0.075867, -0.037620, 0.016700, 0.002937, 0.020865, 0.053822, 0.005243, -0.016753, -0.084239, -0.015989, -0.048589, -0.067728, 0.024333, 0.005042, 0.062809, 0.056728, -0.068006, 0.055015, -0.044956, -0.067514, 0.050446, 0.080776, -0.086407, 0.083871, -0.044031, -0.040762, -0.055180, -0.028145, 0.027831, 0.076558, 0.048619, -0.069754, 0.009670, 0.000714, -0.021633, 0.009792, -0.085634, -0.015179, -0.021050, -0.022669, 0.030555, -0.002408, 0.063225, 0.023621, 0.041854, 0.010318, 0.008028, -0.070007, -0.074041, 0.053331, -0.085990, 0.001191, 0.033903, -0.069300, -0.007476, 0.044588, -0.000481, -0.077815, 0.030640, 0.076100, -0.027601, 0.012619, -0.065021, 0.018269, 0.072343, -0.069439, -0.076884, -0.080780, -0.004061, 0.075609, -0.044719, 0.013589, -0.065960, -0.056295, -0.040372, -0.084019, -0.046308, 0.025301, -0.089705, -0.036702, -0.096560, 0.036462, -0.004107, -0.042156, -0.086125, -0.014027, 0.065286, 0.037566, -0.068439, -0.033419, -0.044757, 0.045294, 0.052829, -0.068791, -0.030368, -0.043259, 0.071729, -0.039823, -0.070732, 0.065577, -0.060015, -0.035153, -0.086440, 0.038459, -0.024657, 0.064038, -0.011068, -0.061469, -0.046626, -0.010361, 0.033589, -0.054238, 0.075366, -0.021492, -0.009945, -0.057868, -0.017149, 0.007534, -0.070561, -0.020719, -0.087766, -0.007902, -0.003587, -0.002586, -0.023075, 0.025501, -0.076996, -0.000432, 0.061180, -0.001557, 0.047008, -0.059251, -0.063925, 0.074788, 0.004528, -0.056108, -0.009928, -0.061612, 0.017699, 0.024832, 0.068108, 0.057493, 0.043700, -0.062318, -0.012626, 0.076647, 0.000442, 0.011752, 0.037802, -0.008281, 0.065602, 0.033104, 0.012448, -0.042724, -0.064707, -0.085334, -0.040500, -0.013915, 0.011945, -0.045827, 0.057769, -0.000507, -0.028083, 0.026831, -0.048907, -0.027414, -0.041622, -0.055509, 0.014930, 0.065080, -0.019617, -0.097891, -0.012341, 0.073181, 0.055866, 0.034866, 0.056290, 0.039723, 0.073546, -0.079288, 0.048526, 0.066529, -0.050938, 0.028712, -0.069674, 0.085582, 0.007028, 0.018826, 0.089097, -0.073751, -0.032683, -0.098349, -0.021999, 0.045429, -0.015995, -0.057404, -0.015978, -0.095098, 0.007119, -0.071227, 0.017531, -0.079319, -0.036543, -0.008847, -0.014022, -0.062522, -0.061432, -0.041867, -0.093899, 0.020025, -0.021893, -0.062341, -0.044524, -0.067851, 0.028277, 0.059097, -0.019320, 0.026593, -0.006387, -0.009778, 0.039364, 0.017565, 0.072015, 0.087069, 0.038397, -0.045428, -0.000485, -0.049961, 0.064129, -0.079016, 0.015229, -0.045135, 0.065274, 0.014309, 0.025179, 0.042987, -0.052000, 0.061711, -0.014558, 0.060351, -0.038138, 0.016016, -0.053062, -0.036770, 0.043691, -0.087350, -0.034030, 0.051903, 0.013509, 0.005153, -0.026042, 0.057575, 0.017291, 0.057116, -0.015296, -0.067057, -0.071313, -0.016450, -0.004238, 0.012149, 0.007628, 0.028183, 0.050669, -0.001682, 0.064011, 0.054667, -0.047760, 0.033999, 0.055867, -0.069944, -0.067587, 0.026486, -0.032347, 0.034024, -0.073334, 0.076189, -0.010445, 0.003136, -0.032534, 0.007427, 0.037672, 0.014481, 0.057567, 0.031425, -0.037938, -0.001525, -0.079327, -0.107115, 0.007767, -0.016547, -0.076063, -0.014156, 0.010278, 0.049474, -0.036055, 0.024427, -0.082751, -0.074226, -0.099045, 0.033032, 0.083540, 0.082726, -0.028421, -0.051547, -0.066322, -0.077738, -0.000030, -0.045100, 0.079304, -0.055295, 0.055834, -0.002054, 0.006558, -0.083071, -0.042274, 0.092053, 0.052887, -0.061140, -0.012104, -0.055133, 0.032455, 0.056739, -0.023022, -0.019337, -0.065880, -0.004974, -0.003684, -0.021485, 0.045694, -0.071428, 0.065294, 0.042746, -0.060478, -0.054216, 0.073721, 0.064728, -0.028162, -0.017118, -0.003238, 0.023590, -0.087525, -0.023523, 0.077085, 0.048577, 0.051112, 0.061690, 0.030641, 0.053818, 0.042959, -0.067819, 0.089879, 0.016737, -0.056965, -0.064558, 0.021712, -0.037712, 0.034591, -0.051537, 0.048729, 0.038020, -0.008622, 0.001123, 0.083666, -0.016790, -0.036230, -0.032832, -0.002631, -0.021471, 0.038960, 0.071450, -0.050215, 0.004026, -0.018821, 0.078322, 0.013627, -0.051541, -0.012667, 0.087940, 0.049410, 0.022666, -0.052130, -0.047141, 0.069334, 0.049340, -0.072543, -0.027343, -0.055201, -0.043560, -0.063330, -0.078324, 0.031620, -0.016550, -0.060258, -0.051840, -0.071858, 0.076063, -0.052111, 0.094243, 0.050632, -0.054062, 0.020190, -0.083564, -0.076635, -0.076260, 0.065166, 0.057910, 0.047566, 0.057493, 0.073812, -0.059956, 0.018723, -0.032119, -0.088526, -0.044026, -0.042599, -0.095574, -0.063831, 0.006597, -0.101003, -0.025281, 0.041690, 0.075122, -0.008196, 0.023331, -0.039474, 0.003509, 0.054209, 0.003306, 0.069124, 0.036185, -0.005753, -0.032968, 0.074904, -0.062862, -0.034558, -0.074538, -0.070585, 0.054445, 0.071273, -0.012426, 0.041164, 0.050599, -0.004087, -0.016777, 0.083215, 0.059386, 0.071821, -0.070755, -0.031309, 0.014666, -0.064292, -0.063166, -0.053357, -0.063503, 0.057410, -0.024550, 0.003504, 0.014471, 0.006319, -0.006235, 0.028605, -0.005253, -0.050802, 0.028619, 0.013062, -0.032894, 0.056338, 0.049535, 0.067238, 0.009746, 0.031165, -0.011129, -0.035197, -0.012936, -0.015630, -0.073685, -0.012802, -0.042586, 0.002784, 0.031245, 0.006231, 0.024479, 0.035141, 0.050406, -0.046746, -0.085978, -0.031068, 0.014317, -0.043012, 0.037704, -0.031052, 
    0.078235, 0.017791, -0.085904, -0.010334, -0.064523, 0.055533, -0.047700, 0.062755, -0.005935, 0.076901, 0.057196, 0.068803, 0.002788, -0.056915, 0.070466, 0.062595, 0.045552, 0.009861, 0.004735, 0.052002, 0.041982, -0.028870, -0.031146, -0.065000, 0.012618, 0.018263, -0.021402, -0.054154, 0.049040, 0.076938, -0.035834, 0.082450, 0.004529, 0.084074, -0.014171, -0.015172, 0.000623, 0.060083, -0.006248, 0.064252, -0.008330, -0.065115, 0.033131, -0.018096, 0.024439, -0.032453, 0.008970, -0.023752, -0.042051, -0.009513, -0.020287, 0.039620, 0.076577, 0.071988, 0.017231, 0.076174, -0.073889, -0.034800, -0.065831, 0.081043, 0.012509, -0.080799, -0.025244, 0.059308, 0.024812, -0.066290, 0.079253, 0.084906, -0.051404, -0.039510, -0.008530, 0.051949, -0.068732, -0.089966, -0.032974, 0.015141, 0.037798, 0.021670, 0.076730, 0.082540, -0.065003, 0.024110, -0.018352, -0.081219, -0.008372, -0.040870, 0.071332, -0.059939, -0.001018, -0.075850, -0.053593, 0.070551, -0.089304, -0.031776, 0.029382, -0.066934, 0.078195, -0.045899, -0.014600, 0.047075, -0.077056, -0.040671, -0.044538, 0.050898, -0.031203, -0.011519, 0.020053, 0.074160, 0.062146, 0.056085, 0.010975, 0.073491, 0.062744, 0.049040, -0.038019, 0.074620, -0.024760, -0.018055, -0.061904, -0.031367, 0.021537, -0.075211, -0.013171, 0.093046, 0.063609, 0.035418, 0.013767, -0.006970, -0.003890, -0.071426, -0.058754, 0.056602, 0.030234, -0.071340, -0.008590, 0.062768, -0.089004, 0.037575, -0.015582, 0.003947, -0.056068, 0.026859, -0.078270, -0.040314, -0.028791, -0.030411, -0.092380, 0.049144, 0.045644, 0.044640, 0.022876, -0.059967, -0.045082, 0.052307, 0.037601, -0.091314, -0.000252, 0.002308, 0.088294, -0.034858, -0.016246, 0.037381, 0.022681, -0.006921, -0.050529, -0.058914, 0.060062, -0.031608, 0.059969, -0.040102, -0.080252, 0.022561, -0.027415, -0.058884, -0.078204, 0.031694, 0.017508, 0.066877, -0.050295, -0.078602, 0.059107, -0.023799, 0.035561, 0.048378, 0.056837, -0.010340, -0.026392, 0.065157, -0.027695, -0.067106, -0.071609, -0.090805, 0.061696, -0.085968, 0.032905, -0.027850, 0.053449, -0.057093, -0.050806, -0.058855, 0.056275, -0.066184, 0.085791, 0.007551, 0.049471, -0.033856, 0.075134, -0.002478, 0.019792, 0.060589, 0.009318, -0.014805, -0.031156, 0.044438, -0.070028, -0.022800, 0.069644, 0.051492, -0.068792, 0.049230, 0.044479, 0.075281, -0.058528, -0.007099, 0.045344, -0.032278, -0.061612, -0.033784, 0.075112, -0.082580, -0.045809, 0.039612, -0.048861, 0.029142, 0.071455, 0.064529, 0.016823, 0.008660, 0.001204, -0.039263, -0.020322, -0.007124, -0.020494, -0.027096, 0.018519, -0.041251, 0.082109, -0.020469, 0.076533, -0.018471, 0.037456, 0.004477, -0.015485, -0.031337, -0.065679, 0.001727, -0.037951, -0.055063, 0.044508, -0.048887, 0.051015, 0.049225, -0.080558, -0.003626, 0.053785, 0.051547, 0.057766, -0.043240, -0.075680, -0.009432, -0.067716, -0.110888, -0.096474, -0.053412, 0.082989, -0.031940, 0.072514, 0.066831, -0.066994, 0.017196, 0.020777, -0.002185, 0.016132, 0.020201, 0.078795, 0.031379, 0.032453, 0.061897, 0.012995, -0.002618, -0.085964, -0.022872, -0.052136, -0.059281, -0.020005, -0.032782, 0.021629, -0.058866, 0.002294, -0.032496, -0.061487, 0.014427, -0.005155, 0.004924, -0.018069, 0.049409, -0.082843, -0.106823, -0.085495, -0.052625, -0.056079, 0.043439, 0.072338, 0.011923, -0.073237, 0.007737, 0.025442, -0.024653, -0.011054, -0.051200, 0.049817, -0.012453, 0.065501, -0.028579, 0.025616, 0.072611, -0.093595, -0.039454, 0.061860, -0.085775, -0.026867, -0.070499, -0.022519, 0.050249, -0.055524, -0.007721, 0.053643, -0.055193, 0.007608, -0.007165, 0.052572, -0.076871, -0.016519, 0.072800, 0.074015, 0.026550, -0.037369, -0.110390, 0.029055, -0.039711, 0.074523, 0.071478, -0.017348, 0.065499, 0.077351, -0.032038, 0.081690, -0.062345, -0.026371, -0.067107, 0.030466, -0.068608, -0.030077, -0.014615, -0.028872, 0.011559, 0.025826, 0.084948, 0.024144, -0.029313, -0.036343, -0.006289, -0.075973, 0.067738, 0.064611, 0.079597, 0.073973, -0.002167, -0.029409, 0.049625, 0.064459, -0.026804, -0.045069, 0.043209, -0.074019, -0.055372, 0.062844, 0.072596, -0.073648, -0.061498, 0.002250, -0.013153, -0.055903, -0.033571, -0.035558, -0.032715, 0.038991, 0.059103, -0.083883, 0.065561, -0.051445, 0.093599, 0.037225, 0.042531, 0.090006, -0.065942, 0.029627, -0.011392, 0.049988, -0.029079, -0.047814, 0.032928, -0.049595, -0.050300, 0.005179, -0.090084, 0.027436, 0.063864, 0.000136, 0.086229, 0.078171, 0.048305, 0.029066, -0.014729, -0.024416, 0.070527, 0.040244, -0.002998, 0.092320, 0.072437, 0.039816, -0.044008, 0.057050, 0.059605, 0.016998, 0.043998, 0.082410, 0.078124, 0.011724, 0.018838, 0.045250, -0.022865, 0.041329, -0.060157, 0.062726, -0.008440, 0.048523, 0.005910, 0.049413, -0.027176, -0.026155, 0.027301, 0.057633, 0.047283, 0.045243, -0.033977, 0.074380, 0.028089, -0.010173, -0.018715, 0.068135, -0.078414, -0.008255, 0.019218, 0.071638, -0.065171, -0.031976, 0.029129, -0.037771, 0.045004, 0.066832, 0.052679, 0.014694, -0.006005, -0.002517, 0.000451, 0.037857, -0.071874, 0.043135, 0.085384, -0.009970, 0.053927, -0.010541, 0.033530, -0.036363, 0.009849, -0.053006, 0.005387, 0.029529, 0.058979, -0.050694, 0.008330, -0.036705, -0.012696, 0.065039, 0.007498, -0.031725, 0.023087, 0.004898, 0.031520, -0.060219, -0.016686, -0.002920, 0.054050, -0.047344, -0.094316, -0.044872, 0.033993, -0.016702, -0.052857, 0.075409, -0.038342, 
    0.044526, 0.058594, 0.063180, 0.032804, 0.076857, 0.038257, 0.005348, 0.021456, -0.080949, -0.052150, -0.077176, 0.002915, 0.056771, -0.018307, 0.008698, 0.023360, -0.081669, -0.080731, 0.040067, -0.077555, 0.037076, -0.016997, 0.058725, -0.080782, -0.088380, 0.004659, -0.030156, -0.061718, 0.021588, -0.038258, 0.057615, -0.076765, -0.073949, 0.057558, 0.063393, -0.081203, -0.009423, -0.011537, -0.025674, 0.049663, 0.008515, -0.022007, -0.065645, 0.007776, -0.095211, 0.024798, -0.040604, -0.020913, 0.027356, 0.059547, 0.006340, 0.003366, -0.079341, -0.002335, -0.040451, -0.040908, 0.056287, -0.007342, 0.047696, 0.000074, -0.025989, 0.041688, 0.014565, -0.001839, -0.002137, 0.013853, 0.039498, 0.016047, -0.011883, -0.068622, 0.051602, 0.039784, 0.066636, 0.059152, -0.020163, -0.006481, 0.055017, 0.003184, 0.054405, 0.066287, -0.034663, 0.045156, -0.034888, -0.001103, -0.055138, -0.058581, -0.096290, -0.050395, 0.056843, 0.059269, -0.041908, -0.075689, -0.017016, 0.038340, 0.016648, -0.027959, 0.014981, -0.057313, -0.000411, 0.000094, 0.062429, 0.034293, -0.067413, -0.002150, -0.042356, -0.084331, -0.071868, 0.030502, 0.090646, 0.048950, 0.061578, -0.007450, -0.013280, 0.062909, 0.055957, -0.051019, -0.032863, 0.009509, -0.032066, -0.072375, -0.061248, -0.007781, 0.033916, -0.057337, 0.002287, -0.041031, -0.045883, -0.009300, 0.065618, 0.029133, 0.072810, 0.038185, 0.048820, 0.030789, -0.028427, 0.022417, 0.079701, -0.067695, 0.026875, 0.020756, -0.028883, -0.018474, -0.086524, -0.011273, -0.081915, 0.045325, 0.078387, 0.071604, -0.039705, 0.015745, 0.040835, 0.062048, -0.073133, -0.003405, 0.006378, -0.070401, 0.058219, -0.084378, -0.053844, 0.021908, -0.014412, 0.041878, 0.005745, -0.024540, -0.043589, -0.059745, -0.050055, 0.058417, -0.038403, -0.013726, 0.036332, -0.070473, 0.087364, 0.053232, 0.022572, -0.012500, -0.041987, -0.041595, -0.067691, -0.014071, 0.020342, -0.018601, 0.047866, 0.064487, 0.069583, 0.020817, 0.015839, 0.075630, -0.068763, 0.069333, -0.031147, -0.058569, -0.021398, -0.104095, 0.035313, 0.042234, 0.003270, 0.004627, 0.020262, 0.027290, 0.085409, -0.060203, 0.052509, -0.078139, -0.040362, 0.066648, -0.027744, 0.025425, -0.032122, -0.004005, -0.029188, 0.019761, 0.049419, 0.004672, -0.052539, -0.083037, 0.040676, -0.014791, 0.062619, -0.045282, 0.003291, 0.040354, -0.061635, -0.042635, -0.083247, 0.052822, 0.041754, 0.001529, -0.092796, 0.016338, -0.069346, 0.019996, -0.075606, 0.022746, -0.035610, 0.041090, 0.079061, 0.037626, -0.038220, -0.028231, -0.088214, -0.030626, -0.083453, -0.079537, 0.045998, -0.073216, 0.056506, -0.050976, -0.014656, 0.036572, -0.018946, 0.065505, -0.007856, 0.058325, -0.046751, 0.049108, 0.013812, -0.017928, -0.034626, -0.080350, 0.060312, -0.070438, 0.058593, 0.009189, -0.075380, -0.013949, 0.006939, -0.030824, 0.059541, 0.002013, 0.011012, 0.080826, 0.038854, 0.068728, 0.005126, -0.061365, 0.003927, -0.048392, 0.054169, 0.024160, -0.029829, 0.015806, 0.056252, 0.045746, -0.008565, 0.004336, -0.035054, -0.074910, -0.073785, 0.039225, 0.038645, -0.053513, 0.016043, -0.050417, -0.009742, -0.053052, -0.008496, -0.082678, -0.031712, 0.040466, -0.045751, -0.045506, 0.033148, -0.071798, -0.063288, -0.070213, 0.005848, 0.054286, -0.031064, -0.088206, -0.082497, -0.040707, -0.055149, -0.031936, 0.067818, 0.062416, 0.060842, -0.020970, 0.067180, -0.029625, 0.084086, 0.016598, 0.001912, 0.005670, 0.008867, -0.079461, 0.056053, 0.038315, -0.042977, 0.014693, -0.006089, 0.070664, 0.041776, -0.052927, 0.032853, -0.017536, -0.000858, -0.031416, 0.024475, -0.062995, -0.060689, -0.037233, 0.090369, 0.020103, 0.037950, 0.016878, -0.023638, -0.032525, 0.071346, -0.008310, -0.064146, -0.077525, 0.013984, 0.048056, 0.036914, -0.030261, 0.046927, -0.056265, 0.066931, -0.053230, 0.068426, -0.029938, -0.003615, 0.064238, 0.055891, -0.007822, -0.047248, -0.042118, 0.024307, 0.074047, 0.019277, 0.010556, -0.022137, 0.005156, -0.086557, 0.069247, -0.023209, -0.030977, 0.096960, -0.032597, -0.086784, -0.019892, -0.033669, 0.002002, -0.006025, 0.074432, -0.077352, 0.078188, -0.041375, -0.017096, -0.044855, 0.018074, -0.052839, 0.061514, -0.028753, -0.000075, 0.051724, -0.080480, 0.072217, -0.030515, -0.031596, 0.059794, 0.084160, 0.022355, -0.020493, 0.032770, -0.047030, -0.006317, -0.060190, 0.073333, -0.037628, -0.001103, -0.034239, -0.071157, -0.107633, -0.027124, -0.048711, -0.050173, 0.047124, -0.050786, 0.001582, 0.055675, 0.090325, 0.048659, -0.070359, -0.018316, -0.024759, -0.079425, 0.073223, -0.025070, 0.017720, 0.019909, -0.053659, 0.045611, -0.012659, 0.045222, -0.048288, 0.045749, -0.075855, -0.019559, 0.057298, -0.031342, 0.057130, 0.025563, -0.041239, 0.073168, 0.035820, 0.077473, 0.066014, -0.011533, -0.014577, 0.008834, -0.008057, -0.009798, 0.021275, 0.016012, -0.023909, 0.074936, -0.033188, 0.075306, 0.080257, -0.021911, -0.037415, -0.053924, -0.028881, 0.044196, 0.091966, 0.028854, 0.004558, 0.027779, -0.038292, 0.025360, 0.057275, 0.050620, -0.075661, -0.015839, -0.049620, -0.065242, 0.017429, 0.042250, 0.050323, 0.009997, 0.019700, 0.075406, -0.075855, -0.076082, 0.071952, -0.040421, -0.015991, 0.024466, -0.028598, -0.085864, 0.022826, 0.072759, 0.066196, 0.052140, -0.037936, 0.025910, -0.083067, -0.076968, 0.044597, -0.021242, -0.009773, 0.073865, -0.048609, 0.023237, -0.016585, 0.068444, -0.021655, -0.052999, 0.078316, -0.056482, 
    -0.044628, -0.000298, 0.066608, -0.032805, 0.047423, -0.078542, -0.023542, 0.035236, 0.038264, -0.029218, -0.038504, 0.021203, -0.000285, -0.065381, -0.014356, 0.010374, -0.074085, -0.045877, -0.041544, -0.002930, -0.065841, 0.041580, 0.078977, -0.061461, 0.051006, 0.076011, 0.022112, -0.075858, -0.016468, 0.044089, -0.039365, 0.030046, 0.049438, -0.044601, 0.017732, 0.094740, -0.032112, 0.048312, 0.003188, -0.004893, -0.008778, 0.047176, -0.024534, 0.001391, -0.043604, 0.045751, -0.005882, 0.076519, -0.014157, -0.010311, -0.028258, -0.005314, 0.024457, -0.021084, 0.021511, 0.023034, -0.044666, -0.020416, -0.086829, -0.029262, -0.000471, 0.037348, 0.010907, -0.096661, -0.012149, -0.048160, -0.018062, -0.031504, -0.005321, -0.052013, -0.031954, -0.059539, 0.035027, 0.014272, -0.091042, 0.062445, 0.039697, -0.077301, 0.023966, -0.033425, 0.024795, 0.027343, -0.028163, -0.050810, -0.078740, 0.004611, 0.016249, -0.058685, -0.051106, 0.048602, -0.079741, -0.073712, -0.027160, -0.030859, -0.000433, 0.060238, -0.066516, 0.091670, 0.000109, 0.033181, 0.015759, -0.082576, 0.041973, -0.026167, -0.041474, -0.001051, 0.004337, 0.034820, -0.017782, -0.055030, -0.089083, 0.067400, -0.029102, -0.042995, -0.014764, 0.012729, -0.024990, -0.011607, 0.057457, 0.024179, 0.036545, -0.086001, -0.028861, 0.039692, 0.036727, -0.047382, 0.068903, -0.017257, -0.092002, 0.021514, 0.052864, -0.004480, 0.000904, 0.070702, 0.035732, -0.070468, -0.000610, -0.038025, 0.010101, 0.036776, -0.052510, 0.040335, 0.068188, 0.003315, -0.021456, 0.015014, 0.011691, 0.007402, 0.073096, -0.012130, 0.000960, -0.029700, -0.063861, 0.058781, -0.056557, -0.028619, -0.073206, -0.036787, -0.038140, 0.071107, 0.010652, -0.020293, -0.068369, 0.054017, 0.044007, 0.052359, -0.003472, 0.028850, -0.038381, 0.081015, -0.077577, 0.008749, 0.025272, -0.080092, 0.018885, -0.005299, -0.066497, 0.068414, -0.064111, -0.008272, -0.029310, 0.012977, -0.048168, -0.057327, -0.083571, -0.025610, 0.023564, -0.017620, -0.045154, 0.076127, 0.070055, 0.046274, -0.035608, -0.112280, 0.009989, -0.027688, -0.014710, -0.028726, 0.007555, -0.050967, -0.067215, -0.054774, 0.046414, -0.018457, -0.078257, -0.055741, -0.032848, 0.031493, 0.010274, -0.053822, 0.059050, 0.026124, 0.000933, 0.016418, 0.014522, 0.078135, -0.073554, 0.015881, -0.002013, -0.071371, 0.061116, -0.051731, -0.089856, -0.044652, -0.020995, 0.003235, 0.042899, 0.015325, 0.081138, 0.038703, -0.053536, -0.081064, -0.053165, -0.021766, 0.062219, -0.073395, 0.053712, -0.039677, 0.041423, -0.039391, 0.000159, -0.076644, -0.013486, -0.015857, 0.001669, 0.046871, -0.025971, 0.063150, -0.061188, -0.049850, 0.048984, -0.059023, 0.002518, 0.062615, 0.074069, -0.066065, 0.053050, 0.026120, -0.103862, -0.068224, -0.045931, 0.026336, -0.058766, -0.021040, -0.001408, -0.044737, 0.035542, -0.011756, -0.076265, -0.028924, -0.063137, -0.017916, -0.016872, 0.044861, 0.008029, 0.000701, 0.033858, -0.036293, 0.077109, -0.029310, 0.074589, 0.065284, 0.001668, -0.057470, 0.014422, -0.085219, -0.004960, -0.000699, -0.021462, 0.035980, 0.012959, -0.074362, -0.109518, 0.001321, -0.021229, -0.078379, -0.017929, -0.022598, 0.059748, 0.053859, 0.073623, -0.050626, -0.059356, 0.029786, -0.051219, -0.072718, -0.058342, -0.010556, 0.084328, 0.048418, -0.035614, -0.016520, 0.049558, 0.016708, 0.034718, 0.080784, -0.055476, 0.012763, 0.008451, -0.037624, 0.044717, -0.029193, 0.049332, 0.069447, 0.064097, 0.047198, -0.034101, -0.008165, 0.004469, 0.065125, -0.086851, 0.006249, -0.015645, -0.009273, -0.078943, -0.043430, -0.033363, 0.072146, 0.073592, -0.052067, 0.078900, -0.073098, 0.023443, -0.072340, -0.028452, 0.083416, 0.073176, 0.016262, 0.047269, 0.061873, -0.027023, -0.060959, -0.087698, -0.052516, -0.044730, 0.062319, -0.066627, -0.035978, -0.027096, -0.091416, -0.029774, -0.103243, -0.049944, -0.019568, -0.020748, -0.055273, -0.060694, -0.010690, 0.050993, -0.030323, 0.022722, 0.034112, 0.075705, 0.017972, -0.051062, -0.020479, 0.069798, 0.003417, -0.003043, 0.013993, 0.011303, -0.065681, 0.013238, 0.063596, 0.011872, -0.036661, -0.028658, 0.015410, -0.064637, 0.018084, -0.001169, -0.009402, 0.006272, -0.033347, 0.065446, 0.024005, -0.076455, 0.025802, 0.043593, 0.057272, 0.053777, -0.063853, -0.081887, -0.063778, -0.062735, 0.023143, 0.044782, -0.058015, -0.060976, 0.044801, -0.007975, -0.100541, -0.013921, -0.006946, -0.007016, 0.020784, 0.049422, 0.062019, -0.006175, -0.002006, 0.006527, -0.014071, -0.029574, 0.050443, 0.002597, 0.081672, -0.073191, 0.029715, -0.022742, -0.019108, -0.045936, 0.046503, -0.022943, -0.071534, -0.076873, -0.012519, -0.032327, -0.033270, -0.094698, -0.068667, 0.057598, 0.020039, 0.033818, 0.084882, -0.005855, 0.075735, -0.020877, -0.066545, -0.059764, -0.084314, 0.043640, 0.036712, 0.053748, 0.009149, 0.047725, -0.047190, 0.047684, -0.023011, -0.063978, 0.056497, -0.063480, 0.059728, -0.015924, 0.066214, 0.015535, -0.014887, 0.000466, 0.068211, -0.066954, 0.033999, -0.062133, -0.033566, -0.056509, -0.042835, 0.003011, 0.053465, 0.043533, 0.025878, -0.051161, -0.035850, -0.087559, -0.017475, -0.034723, 0.014759, -0.037514, -0.048843, 0.069511, -0.075823, 0.030807, -0.053318, 0.006273, -0.055620, 0.038443, -0.031998, -0.003065, -0.096262, 0.015176, 0.034793, 0.024300, -0.074698, 0.017903, 0.037835, -0.004167, -0.098125, -0.082377, -0.118043, -0.063741, -0.009690, 0.012367, -0.056375, -0.045992, -0.025181
    
};

const float layer2_Conv2d_bias_xin[32] = {
    -0.063524, -0.027914, -0.100559, -0.031938, 0.101843, -0.093028, -0.023867, -0.016701, 0.029736, -0.085969, -0.089925, -0.085197, -0.061576, 0.074438, 0.074398, 0.007987, -0.001746, -0.008405, 0.006895, -0.059147, -0.035521, 0.025275, -0.016909, -0.019438, -0.051422, 0.022323, 0.002969, -0.072341, 0.018503, -0.045437, -0.055380, 0.074748
};

const float layer3_Conv2d_weight_xin[18432] = {
    -0.020560, -0.056805, 0.021706, -0.032422, -0.031347, -0.023992, -0.022258, -0.052388, -0.007315, -0.052661, -0.026045, 0.033023, 0.024862, -0.049057, -0.026783, -0.017698, -0.032799, -0.043100, 0.009904, -0.011557, -0.043633, 0.048177, -0.035626, -0.011241, -0.038541, -0.006014, -0.021140, -0.010214, 0.004128, -0.036545, 0.015681, -0.033386, 0.014804, 0.039612, 0.012106, -0.040474, 0.006350, -0.025754, -0.030034, 0.001313, 0.053472, -0.038793, -0.017062, 0.043143, -0.013073, 0.035572, 0.033795, -0.036066, -0.014667, 0.021052, -0.026046, 0.033295, 0.012439, 0.025569, -0.001808, 0.030604, -0.021410, 0.018452, -0.007060, 0.045601, -0.046605, -0.065956, -0.040500, -0.006456, 0.041501, 0.027324, -0.066431, -0.009951, -0.053992, -0.063084, -0.007472, -0.015836, -0.029273, 0.028592, -0.003998, -0.010123, -0.021940, -0.048760, -0.063626, 0.044473, -0.008292, -0.038017, 0.002319, -0.015219, -0.031655, -0.009500, -0.035931, 0.020146, 0.011355, 0.000750, 0.022449, -0.047225, 0.020675, 0.020243, -0.030409, -0.054213, 0.013650, 0.015813, 0.009528, -0.032572, -0.005349, 0.006024, -0.052295, -0.016740, 0.041899, -0.056137, -0.043680, 0.004627, 0.032225, -0.050543, -0.019247, 0.040352, 0.008604, 0.048189, -0.007556, 0.018478, -0.016009, -0.040634, 0.049063, -0.020397, -0.067379, -0.028208, -0.035833, -0.033727, -0.048237, 0.000339, 0.062094, -0.038313, 0.016119, -0.016206, 0.053502, 0.049258, 0.008864, 0.053087, -0.036965, 0.023931, 0.009012, -0.044325, 0.012640, -0.022285, 0.026319, -0.013716, -0.010528, -0.004790, 0.010395, 0.036418, 0.014638, -0.040551, 0.004083, -0.000346, -0.014374, 0.000805, 0.026584, -0.063110, 0.040319, 0.020783, -0.032437, -0.054079, -0.058693, 0.011713, -0.029490, -0.028928, 0.008894, 0.003136, 0.026151, -0.042230, -0.001142, -0.032964, 0.002581, -0.050455, -0.046781, -0.025652, -0.024948, 0.011855, 0.038662, 0.008572, -0.029093, -0.015581, -0.034446, 0.015116, 0.030843, 0.043916, 0.019314, -0.048088, -0.046554, -0.021634, -0.047328, -0.057218, 0.024470, 0.024557, 0.039147, -0.024216, -0.041183, 0.037578, 0.034470, 0.012730, 0.038663, -0.028877, -0.031514, 0.028153, -0.053314, -0.038134, 0.000360, -0.064780, -0.009256, 0.043740, -0.058162, -0.004548, -0.021724, -0.057319, -0.004167, -0.014987, -0.061485, 0.038436, -0.022109, 0.044379, 0.014095, -0.020562, 0.035211, 0.006932, 0.002599, 0.030022, -0.035057, -0.064377, -0.036103, -0.003853, -0.017589, -0.054316, -0.012538, -0.044417, 0.027945, 0.025180, -0.000092, 0.037701, 0.038067, -0.020675, 0.027222, 0.038368, 0.038446, -0.044296, 0.004166, -0.029000, -0.035977, -0.007167, -0.020436, 0.010825, 0.007663, -0.043774, -0.046322, 0.029254, -0.053730, 0.008205, -0.049780, -0.035202, -0.010226, -0.052786, 0.005349, 0.007658, 0.011602, 0.012379, 0.002761, 0.006641, 0.014685, 0.020978, -0.034776, -0.017376, -0.061653, -0.023176, 0.023063, -0.049292, -0.054760, -0.033794, -0.017736, 0.049672, -0.022377, -0.037303, -0.046536, -0.053832, 0.025923, -0.054918, 0.002141, 0.011398, -0.017191, 0.003930, -0.048446, -0.065903, 0.026191, -0.024540, 0.028341, -0.062956, -0.032255, 0.049654, -0.001136, 0.003257, 0.031543, 0.013977, 0.059800, -0.036063, 0.005350, -0.014403, -0.009705, -0.023894, 0.019696, -0.033673, -0.041044, 0.004839, 0.021239, 0.021736, 0.033957, 0.033792, 0.021164, -0.045512, 0.038241, -0.041573, -0.002762, -0.002499, 0.026007, -0.012123, 0.003836, 0.013300, 0.011246, -0.011507, -0.024965, 0.031550, -0.037106, -0.055747, 0.043133, 0.047503, -0.017769, -0.054243, -0.038440, 0.036681, -0.032115, 0.038172, 0.026707, -0.023397, 0.035132, -0.017687, -0.037355, -0.068762, -0.067818, -0.005038, -0.001473, -0.034247, 0.036620, 0.008181, 0.013339, -0.012125, 0.025109, -0.002030, 0.015069, 0.037328, -0.007748, -0.031331, 0.041199, 0.052221, 0.052461, -0.055645, 0.017417, -0.025472, 0.011678, -0.020979, -0.028670, -0.039321, -0.007847, 0.036892, -0.051528, -0.045635, 0.005004, 0.049883, -0.034646, 0.019575, 0.029111, 0.075083, 0.024117, 0.058060, -0.020551, 0.063080, -0.001491, -0.056078, 0.037385, -0.029730, 0.005739, 0.004893, 0.026142, -0.031962, -0.016932, 0.035449, -0.007015, -0.032167, -0.010177, 0.022792, -0.056582, 0.037491, 0.041248, -0.025367, -0.008688, 0.014214, 0.008051, -0.054415, -0.025719, 0.040092, -0.042395, -0.006591, -0.020377, 0.001687, 0.003737, -0.011162, 0.053670, 0.020287, -0.000689, -0.003922, -0.010388, -0.034802, -0.077346, -0.061301, 0.011474, 0.026905, 0.043614, -0.064651, -0.077058, 0.036369, -0.075236, 0.019221, -0.052808, -0.024808, 0.040687, -0.042333, -0.044831, 0.024579, -0.035068, -0.047411, -0.061184, 0.042546, -0.061973, 0.031679, 0.032278, 0.036485, -0.033116, 0.054696, 0.038543, 0.007896, -0.050522, -0.052066, 0.030089, -0.061468, -0.043957, -0.001701, 0.033349, 0.022253, -0.026286, -0.010378, -0.001575, -0.005835, -0.006018, 0.051515, -0.068184, -0.025005, 0.012499, -0.055802, 0.010766, -0.024084, 0.023588, -0.064428, -0.017265, 0.036674, 0.043376, 0.058777, -0.051273, -0.011498, 0.048936, -0.029567, -0.028985, -0.052085, 0.003754, -0.043250, -0.012690, -0.001788, -0.019837, -0.000295, 0.021038, -0.012989, -0.032029, -0.028512, -0.075752, -0.025104, 0.026863, 0.032957, -0.026195, 0.020136, 0.009589, -0.059941, 0.013753, -0.009138, 0.013907, -0.011583, -0.039944, -0.013018, 0.049920, -0.037367, -0.010260, 0.013906, 0.019564, 0.070756, -0.049714, 0.040242, 0.011874, -0.030575, -0.061727, -0.054294, 0.038912, -0.030231, 
    0.016374, 0.014378, 0.005227, -0.052101, 0.010535, -0.027312, -0.020332, 0.024830, -0.017749, 0.019823, -0.004516, -0.009198, -0.048957, 0.051552, 0.047749, 0.001100, 0.006444, -0.063651, 0.040888, -0.010344, -0.060092, 0.027652, -0.033126, -0.022768, -0.044873, -0.032860, -0.040806, -0.071646, 0.017360, -0.024188, 0.012969, -0.028669, -0.046114, 0.007812, -0.021557, -0.075627, 0.031608, -0.022038, -0.010915, 0.024612, -0.020120, 0.009597, 0.043818, -0.049763, 0.025338, -0.028471, -0.040248, -0.010063, -0.015154, -0.055801, 0.029490, -0.048261, -0.027366, -0.023751, -0.047344, -0.015876, -0.045801, -0.017167, 0.044521, 0.033126, 0.005335, 0.034993, -0.051983, -0.068748, 0.024294, -0.011333, 0.047875, -0.058619, 0.046560, -0.055210, 0.016459, -0.036713, 0.027187, 0.037464, 0.023167, -0.070641, -0.021319, -0.053349, -0.047834, 0.009874, 0.054886, 0.037837, -0.007976, -0.031334, -0.072838, 0.053463, -0.053013, -0.033735, 0.038741, 0.009312, -0.023341, -0.015499, 0.013045, -0.026732, -0.022025, 0.065273, -0.037816, 0.033293, -0.034080, -0.000518, 0.080862, 0.036896, -0.027175, -0.048512, -0.055463, -0.039756, 0.055007, -0.006772, -0.013306, 0.040862, 0.044249, 0.052637, 0.040359, -0.018010, 0.007920, -0.016289, 0.061715, 0.047715, -0.029064, -0.005248, -0.007844, -0.043675, 0.044279, 0.054878, 0.039435, -0.030091, 0.070825, 0.006625, -0.044148, -0.034007, 0.043153, 0.026450, 0.000471, 0.039902, 0.066946, 0.049560, 0.025296, -0.072056, 0.044223, 0.021822, -0.049940, 0.015194, 0.042342, -0.009455, 0.074147, 0.017870, -0.030851, -0.004434, 0.075107, -0.003888, 0.073000, -0.011137, 0.028821, 0.045292, -0.012304, -0.083293, -0.011634, 0.037578, 0.027239, -0.009108, 0.046945, 0.039979, -0.007353, -0.057548, -0.049507, -0.009263, 0.014500, -0.009550, -0.019505, 0.047949, 0.043820, -0.017627, -0.051604, -0.061058, 0.043704, 0.026443, -0.008796, -0.024312, -0.001342, 0.035460, 0.009917, -0.079025, -0.046097, -0.021796, -0.038696, -0.022884, 0.052567, -0.014169, -0.013689, 0.006508, 0.104411, -0.067821, 0.053453, 0.014407, -0.029460, -0.045462, -0.025931, 0.004904, -0.034338, 0.035985, 0.073579, 0.046254, 0.000152, -0.029754, 0.041205, 0.002470, -0.010538, 0.026175, 0.041650, 0.010069, 0.001553, 0.012632, -0.034056, 0.059997, 0.057644, -0.014765, 0.007473, 0.013975, 0.007297, -0.028857, -0.003803, -0.016365, -0.017637, 0.053774, -0.016512, -0.000679, -0.005639, -0.064888, 0.006754, -0.024287, 0.034589, 0.033194, 0.062240, 0.026268, 0.061218, -0.055905, 0.003912, 0.067960, 0.011300, 0.003503, 0.089850, 0.005658, 0.014578, -0.015023, 0.080431, -0.069455, -0.011439, 0.012985, 0.063599, -0.027413, 0.079338, -0.012526, 0.076657, -0.001553, 0.003706, -0.010692, 0.030454, 0.004144, -0.045633, 0.018069, 0.078932, 0.029694, -0.014415, -0.050954, -0.066487, 0.014944, 0.003207, -0.043741, 0.010833, 0.028560, -0.000727, -0.003002, -0.027783, -0.007662, -0.004128, 0.042073, 0.053388, 0.021104, 0.017457, 0.017706, -0.072471, -0.072319, -0.044520, -0.032480, 0.065960, 0.065450, 0.001901, 0.008365, -0.028619, -0.015436, 0.034816, -0.029609, 0.000891, -0.021507, 0.057778, 0.064525, -0.001818, 0.025068, 0.043721, -0.036385, 0.000715, -0.019986, -0.025309, 0.001284, 0.046405, -0.029900, 0.004025, 0.004365, 0.023148, 0.043595, -0.038327, -0.060259, -0.054674, -0.024531, -0.020995, 0.008668, -0.017719, -0.016997, 0.045302, 0.036993, -0.005704, 0.019136, 0.074601, -0.023263, 0.070163, -0.025511, -0.055751, -0.019653, -0.030788, -0.023484, 0.010490, 0.057115, 0.041083, 0.035871, -0.030175, -0.044500, -0.036458, 0.012672, -0.040993, 0.004787, -0.033414, -0.011020, -0.027194, -0.015420, -0.036746, 0.029380, -0.055790, 0.002104, -0.053490, 0.050812, 0.044515, 0.015169, 0.046177, -0.008365, -0.056730, 0.010284, -0.049020, -0.017871, -0.039009, -0.049318, -0.033643, 0.054562, 0.051796, -0.003358, 0.050331, -0.045041, -0.038570, -0.041107, 0.003117, -0.026803, -0.009268, 0.032010, -0.010448, 0.023105, 0.046074, -0.017391, -0.051752, 0.002512, 0.029475, -0.049455, -0.038685, -0.073277, -0.052718, 0.055356, 0.001145, 0.023239, 0.041973, 0.008595, -0.003702, -0.036405, -0.011623, -0.021861, -0.067159, -0.020113, -0.100633, -0.010758, -0.006568, 0.011623, -0.020973, 0.047606, -0.044086, 0.003059, 0.020200, 0.007560, -0.054082, 0.008740, -0.000532, -0.056178, -0.037556, -0.042054, 0.030097, 0.061375, -0.031445, 0.063133, -0.011116, 0.028205, -0.018778, 0.068137, 0.033604, 0.042052, 0.046489, -0.037113, 0.058553, -0.012371, -0.037309, -0.048302, -0.021258, 0.048824, 0.027623, -0.051898, 0.011184, 0.050412, -0.022578, 0.008523, 0.032889, 0.000415, 0.009311, 0.059501, -0.021984, 0.049228, -0.056009, -0.049227, -0.002925, 0.010322, 0.000288, 0.007035, -0.011991, -0.011148, -0.000062, -0.029476, 0.051241, 0.066994, 0.037879, -0.020020, -0.052110, -0.008114, -0.006990, -0.018817, -0.006772, 0.028007, 0.000703, 0.038602, 0.054492, -0.048486, -0.028247, -0.035452, -0.053694, 0.031553, 0.031797, 0.005404, -0.020348, -0.027907, -0.043993, -0.015522, -0.003199, -0.002594, 0.021416, 0.000616, 0.010692, 0.038682, 0.007429, -0.083436, -0.025209, 0.008191, -0.064508, -0.068704, -0.055992, -0.019989, -0.019314, -0.014289, -0.021488, -0.029473, 0.002886, -0.047496, -0.015850, 0.020482, -0.033526, -0.038232, -0.000908, 0.014245, -0.043695, -0.005835, -0.044122, 0.021223, 0.058851, -0.002752, 0.017503, 0.007494, 0.023324, 0.037664, 0.002498, -0.046808, 
    0.048839, 0.025451, 0.015139, -0.029385, -0.032610, 0.025142, 0.002022, -0.039785, 0.056264, 0.064613, -0.033778, -0.031338, -0.018430, -0.035121, 0.069348, -0.004950, 0.010758, -0.021516, 0.022511, 0.050724, -0.018708, -0.018166, 0.075481, -0.007469, 0.034256, 0.047831, 0.013033, -0.082551, -0.035427, 0.026207, 0.055438, 0.017144, -0.050216, -0.014466, 0.008589, 0.007488, -0.004936, 0.007034, -0.058484, -0.028289, -0.024489, -0.037509, -0.047048, 0.056159, -0.003131, 0.017885, -0.038822, -0.009542, -0.016067, -0.025870, 0.029652, 0.046675, -0.035072, -0.014271, 0.002965, -0.012105, -0.007141, 0.027660, 0.006808, 0.023284, -0.019153, -0.021381, -0.033183, -0.032170, 0.031885, 0.003377, 0.005632, 0.018267, -0.013760, 0.004558, 0.023995, -0.019904, 0.017885, -0.001663, -0.039808, 0.042616, 0.005359, 0.031595, 0.030683, -0.002172, 0.007846, -0.056252, -0.026511, 0.057963, -0.031962, 0.015794, -0.042283, 0.057493, 0.042954, 0.037950, 0.042084, 0.027732, 0.052601, 0.036450, 0.015388, 0.038301, 0.023880, 0.001913, -0.000448, 0.014917, -0.056365, 0.012288, 0.053719, -0.066174, 0.048518, 0.007915, -0.007768, -0.042317, 0.063883, 0.052274, 0.005700, -0.043547, -0.010519, -0.065132, -0.033127, -0.029074, -0.010182, -0.023033, -0.066271, -0.043033, 0.020957, 0.002163, -0.005532, -0.037144, -0.044999, -0.056812, 0.015120, -0.006531, -0.051057, 0.002698, -0.059195, -0.036882, 0.024292, 0.043056, -0.002947, -0.055899, -0.035769, 0.053847, 0.005410, 0.005753, 0.061795, 0.024591, -0.029169, -0.048393, -0.095818, 0.001802, -0.061651, 0.016581, -0.041357, -0.044381, 0.041555, 0.045002, -0.004530, 0.008019, -0.030350, 0.002171, -0.050079, 0.018778, 0.018170, 0.094376, -0.071788, -0.007889, 0.015103, 0.004784, 0.035375, 0.033138, 0.058925, 0.062844, 0.072461, 0.071157, -0.037726, -0.110649, -0.122475, -0.032243, -0.043189, 0.031769, -0.021990, 0.016261, 0.025744, -0.087865, 0.000308, -0.063408, -0.062303, -0.018287, -0.030603, -0.054928, 0.069581, -0.004670, -0.035467, -0.050038, -0.016877, -0.000105, -0.064240, -0.036370, -0.017732, 0.072309, 0.009196, -0.052046, -0.064125, -0.027166, -0.024313, -0.036639, 0.025993, 0.000777, -0.039391, -0.038417, -0.002939, -0.050309, 0.002814, -0.006194, 0.028753, 0.028357, -0.032137, 0.033718, 0.045797, -0.001577, -0.030309, 0.018261, -0.030177, -0.021975, 0.051215, -0.020514, 0.063209, -0.019815, -0.038606, -0.101924, -0.048143, -0.060456, -0.044051, -0.042357, -0.048068, -0.018726, -0.035310, -0.027383, -0.090292, -0.084565, -0.053647, -0.065852, -0.043551, -0.011840, 0.072074, -0.039123, -0.087102, -0.085619, -0.052102, 0.015246, -0.033450, -0.064637, 0.032040, -0.012119, 0.041850, -0.061844, -0.104045, -0.044694, 0.098928, 0.064606, 0.092474, 0.136782, 0.095279, 0.098866, 0.008252, 0.026736, -0.009820, -0.026074, -0.006811, 0.007981, 0.059686, 0.083385, 0.043158, 0.001242, -0.028236, -0.100605, -0.006644, -0.010555, -0.028307, -0.052529, -0.025720, -0.047872, -0.044361, 0.041439, -0.025715, 0.013440, 0.005313, 0.036250, 0.054414, -0.016770, 0.058353, -0.058402, -0.019474, -0.045535, -0.052238, 0.049691, 0.052626, -0.078303, -0.008997, -0.057739, 0.048747, 0.048256, 0.036508, 0.006823, -0.065488, -0.000081, -0.092373, 0.027937, 0.046171, -0.025484, 0.006621, -0.005688, -0.047936, 0.015993, -0.035964, 0.025587, 0.050153, -0.081029, 0.029240, -0.040529, -0.036752, -0.072516, 0.024844, 0.005945, 0.013959, 0.020306, 0.015032, -0.071739, -0.064142, -0.057756, 0.048055, 0.038746, -0.046700, 0.016201, 0.001499, 0.033404, -0.007746, -0.011128, -0.012155, 0.024506, -0.062425, 0.047941, -0.054461, -0.002773, -0.046889, -0.062045, -0.037749, -0.030128, 0.057861, 0.023149, -0.005938, 0.001522, 0.064063, 0.024088, -0.013502, -0.039623, -0.065560, -0.039592, -0.020781, -0.031475, -0.042254, 0.027103, 0.055703, -0.006602, -0.042999, -0.064150, 0.034304, 0.005874, -0.011107, 0.024889, -0.015143, -0.069977, 0.014061, -0.015169, 0.000678, -0.023602, -0.057196, 0.037230, -0.047718, -0.032975, -0.038924, -0.029879, -0.039973, -0.107145, 0.041401, -0.031943, 0.030642, -0.016858, 0.073578, 0.052706, -0.045000, -0.057563, 0.001643, 0.049844, -0.003664, 0.037429, -0.028749, -0.004479, -0.006574, -0.031111, -0.109157, -0.078822, -0.048514, 0.003298, -0.040024, -0.056824, 0.044629, -0.028071, 0.033718, -0.018560, -0.052260, 0.025323, -0.040196, 0.025221, -0.023510, 0.023224, 0.035768, 0.050461, -0.002796, 0.007261, -0.003005, 0.043792, -0.031223, 0.041902, 0.014603, -0.016751, -0.026909, 0.033345, 0.055686, -0.017252, -0.053575, 0.053113, 0.039045, 0.055654, -0.044281, -0.035641, 0.034774, 0.004603, 0.021119, -0.029807, -0.027151, 0.060877, 0.056494, -0.013785, 0.001825, -0.031208, 0.028376, 0.002073, -0.052004, -0.019011, 0.016708, -0.037366, 0.057523, 0.000482, 0.026377, 0.028731, -0.040709, -0.014296, 0.000512, 0.019013, -0.024692, -0.008079, -0.063724, -0.006730, -0.037396, -0.012751, -0.055572, 0.031348, 0.018018, 0.053192, -0.038679, -0.039043, 0.043463, -0.042539, 0.010255, -0.013246, 0.032083, -0.058770, 0.005901, -0.025437, -0.021526, -0.035429, 0.005760, 0.053225, 0.026646, 0.012942, -0.042330, 0.000793, -0.046419, 0.025015, 0.023400, 0.048816, 0.018830, 0.052459, -0.007593, 0.027747, -0.019586, 0.035418, -0.005479, 0.004881, -0.001684, 0.003002, 0.016734, 0.091768, 0.014997, 0.010876, 0.060170, 0.059118, 0.050419, 0.015502, 0.047533, 0.003067, 0.000717, 0.011066, 0.000663, 0.002992, 
    0.054014, -0.027818, 0.011351, -0.001606, 0.034087, -0.007612, -0.012227, -0.005906, -0.012884, 0.066061, -0.005762, -0.037227, -0.037746, -0.009361, 0.004016, -0.028411, 0.006229, -0.034883, 0.035996, 0.043287, 0.040613, 0.029382, -0.050834, -0.064344, -0.040801, 0.029207, -0.056248, -0.048667, -0.051874, -0.072692, 0.025285, 0.046829, -0.062876, -0.006553, 0.011398, -0.008129, -0.082148, -0.102399, -0.002441, -0.030357, -0.065207, 0.001174, -0.068375, -0.028840, 0.033767, -0.051596, -0.048080, 0.012920, -0.052016, -0.061826, 0.050213, 0.046910, -0.063779, -0.002177, 0.054877, 0.049240, -0.014725, 0.033135, -0.049632, -0.005629, 0.046998, 0.001038, -0.013932, 0.000251, 0.025915, 0.062794, -0.009911, -0.026602, -0.033899, -0.019375, -0.034358, 0.050335, 0.045851, 0.019251, 0.024637, -0.054403, 0.051698, 0.002356, -0.030489, 0.004020, -0.014919, 0.014341, -0.001855, 0.017063, 0.029654, 0.016439, -0.013689, -0.026371, -0.016248, -0.044666, 0.030933, 0.060442, 0.003040, 0.007610, 0.009563, -0.003063, 0.011966, 0.057179, 0.061274, 0.021748, -0.016254, -0.023083, 0.039329, -0.003935, 0.011512, -0.060733, 0.038333, -0.023034, 0.050530, 0.034817, -0.017441, -0.014781, -0.009875, 0.021416, 0.017124, 0.043350, -0.024215, -0.021736, -0.028376, 0.052025, -0.019868, 0.041404, -0.024862, 0.031121, 0.054824, 0.036154, 0.013203, -0.031220, -0.031835, 0.002228, -0.010874, -0.031007, -0.030767, 0.051141, 0.034509, -0.024719, 0.005198, -0.023073, -0.067752, -0.050714, -0.068285, 0.002694, -0.038521, 0.015870, -0.001987, 0.028119, 0.036890, 0.021781, -0.045938, 0.013160, 0.029625, -0.039063, 0.001013, -0.009662, 0.042646, 0.012935, -0.001187, -0.030095, -0.001161, 0.042898, -0.008728, 0.004140, 0.013430, 0.006340, -0.039538, 0.021884, 0.025398, -0.048854, 0.030848, -0.031336, 0.004884, 0.024578, 0.054594, -0.060805, -0.043584, -0.011545, -0.041157, -0.055904, 0.001816, -0.041136, -0.031753, -0.010278, -0.038750, 0.007432, 0.038125, -0.041844, -0.030070, -0.046647, 0.017114, -0.046870, -0.058238, -0.011590, 0.029672, -0.023865, 0.024523, 0.063968, -0.043200, -0.023517, 0.001655, -0.012792, 0.006739, -0.014453, 0.034681, 0.036691, -0.014244, -0.016244, 0.013703, -0.056258, -0.002301, -0.046145, -0.037782, -0.009308, 0.011439, -0.036257, -0.012957, 0.005065, -0.038610, -0.029279, -0.046902, -0.028187, -0.034501, -0.055486, 0.014824, 0.012381, 0.039800, 0.015002, -0.000980, 0.071590, -0.040686, -0.043709, -0.049482, -0.087726, -0.071826, -0.074863, 0.023303, 0.030213, 0.009595, -0.012538, 0.029958, -0.045348, 0.026202, 0.006015, -0.012823, -0.065652, 0.029664, -0.011460, -0.017963, 0.043519, -0.006232, 0.020090, 0.024794, 0.034734, 0.037114, -0.045681, 0.015347, 0.037979, -0.050527, 0.019344, -0.002302, -0.058616, -0.049287, -0.006278, -0.072389, -0.005459, 0.028289, -0.011826, -0.042870, -0.040939, 0.010314, 0.025499, 0.015098, -0.069829, 0.019668, 0.002121, -0.005588, -0.025301, -0.007386, 0.004618, -0.019515, 0.006947, -0.033105, -0.076018, -0.011372, -0.028189, -0.046359, -0.018907, -0.058740, 0.042653, -0.020798, -0.012090, -0.041747, -0.005154, -0.020100, -0.019346, 0.040155, 0.061213, 0.042477, -0.035554, 0.032828, 0.003935, -0.000966, -0.033224, -0.012065, 0.015257, 0.055328, 0.053617, 0.038414, -0.059729, 0.009653, 0.049586, 0.043073, -0.024952, 0.033099, -0.000650, -0.021817, -0.059772, -0.080551, -0.004415, -0.021210, -0.056740, 0.020117, -0.026487, -0.061522, -0.021015, -0.011925, -0.064205, 0.028459, 0.044950, 0.034668, 0.034652, -0.009191, 0.007208, -0.024461, -0.033819, -0.081530, -0.039689, 0.048003, 0.025850, -0.002791, 0.044750, 0.002831, 0.025566, 0.046220, 0.019638, 0.004936, 0.016717, -0.036841, -0.049480, -0.021420, -0.005753, 0.023118, -0.062547, -0.059972, -0.066955, -0.011394, 0.038760, 0.025145, 0.019763, 0.036938, 0.047338, 0.013067, -0.020792, -0.078614, -0.015816, 0.037432, -0.092560, -0.058836, 0.036338, -0.072011, -0.077451, 0.003643, -0.066874, 0.019314, -0.062749, -0.041720, 0.024758, -0.029912, 0.041086, -0.088092, -0.019013, 0.017366, -0.052270, -0.066710, 0.037188, 0.035335, -0.026129, 0.041111, 0.032980, -0.063520, -0.047368, 0.048241, 0.040632, -0.002191, 0.009700, 0.005002, -0.025045, -0.064708, -0.044421, -0.003386, -0.046298, 0.015071, 0.030562, 0.035923, -0.048293, 0.049622, -0.050329, 0.041755, 0.001038, -0.035635, -0.030209, -0.051912, -0.006840, 0.010710, 0.028758, -0.035578, -0.011402, -0.021292, -0.041193, 0.014134, 0.028001, 0.047949, 0.008332, -0.043385, 0.021918, -0.022202, -0.020627, 0.023850, -0.054696, 0.023725, 0.057933, 0.001761, -0.053133, -0.013563, 0.001803, 0.041677, 0.053206, -0.033306, 0.046857, -0.006240, -0.030928, -0.017526, -0.049351, -0.012955, -0.019408, -0.007655, 0.036658, 0.064611, -0.033441, 0.065531, -0.049690, -0.006559, 0.005869, -0.075984, -0.011406, 0.024418, 0.027789, -0.009821, 0.035090, 0.016804, -0.051117, 0.021299, -0.065197, -0.048946, -0.014427, 0.025014, 0.024605, -0.034826, 0.055547, 0.003388, -0.003028, -0.030976, -0.005400, -0.010016, 0.001431, -0.032627, 0.027812, 0.021427, 0.005685, -0.072193, -0.031496, -0.004626, -0.027216, 0.031610, 0.000517, -0.040919, -0.030464, 0.014940, 0.046018, 0.058213, 0.009815, 0.007114, -0.036745, -0.003099, -0.021428, -0.001577, -0.011897, 0.037842, 0.028004, -0.052270, -0.073852, -0.029653, 0.028704, -0.030285, 0.029855, 0.041341, 0.028147, -0.056497, 0.086761, 0.074746, -0.030170, 0.026763, 0.018354, 
    0.018793, 0.018294, -0.020096, 0.025795, 0.018730, -0.022390, -0.024016, -0.009228, -0.004130, -0.004738, 0.012401, 0.011499, -0.078640, -0.078436, -0.012043, -0.011056, 0.042058, -0.018028, 0.062111, 0.021985, 0.029011, 0.058703, -0.010749, -0.044341, -0.009487, -0.044911, -0.018471, 0.031992, 0.072306, 0.026661, 0.027603, -0.020076, -0.081239, -0.038481, -0.004430, 0.044529, 0.063829, -0.026897, -0.014999, -0.007009, -0.031894, -0.077601, -0.066037, 0.040745, 0.004264, 0.033162, -0.016571, 0.060773, 0.056068, 0.047803, 0.043017, 0.005441, -0.037999, -0.016024, -0.032079, -0.001757, 0.003592, 0.023613, 0.028785, -0.037704, -0.027261, 0.049347, -0.008379, 0.058251, 0.044661, 0.029124, -0.056230, -0.054975, -0.003606, -0.015450, -0.028936, -0.040394, 0.012189, -0.001371, 0.047330, 0.042787, 0.028007, -0.019691, -0.024267, 0.041532, 0.011486, -0.001137, 0.071584, 0.069994, -0.014269, 0.003076, -0.054328, 0.023827, 0.014914, 0.003727, -0.005208, -0.005754, -0.013681, -0.012683, 0.013964, 0.001137, -0.028831, -0.013069, -0.040648, 0.037573, -0.085070, 0.004068, -0.060169, -0.033187, -0.001861, -0.016528, -0.059377, -0.029495, -0.052059, -0.064856, -0.063642, -0.014415, -0.008520, 0.022290, -0.054508, 0.016467, -0.039563, -0.013965, -0.040741, 0.014492, 0.038910, -0.037119, -0.076096, -0.014580, -0.047058, 0.035296, 0.026215, 0.038866, 0.045030, -0.012390, 0.036143, -0.017555, 0.016810, -0.031583, 0.046681, -0.041307, -0.034297, 0.031605, -0.042570, -0.052586, -0.033131, -0.053212, 0.026759, -0.016025, 0.001335, 0.035386, 0.077442, 0.056536, 0.096285, 0.046763, -0.018321, -0.003743, 0.008307, 0.015899, 0.086757, 0.050055, 0.085544, -0.036371, 0.024061, 0.015782, 0.037688, 0.026819, 0.070146, 0.013379, -0.034739, 0.065330, 0.053574, -0.030107, -0.067204, -0.000231, -0.022510, 0.012761, 0.039207, -0.027099, -0.044202, -0.003958, 0.030471, 0.055385, -0.044068, 0.012860, -0.000027, 0.015337, 0.063561, 0.053544, -0.038450, 0.017968, -0.036721, 0.037745, -0.014640, -0.030645, -0.019147, 0.060577, -0.037404, -0.059654, 0.030504, -0.057200, -0.013216, 0.047850, 0.015594, -0.042553, 0.028361, 0.042946, -0.076403, -0.014512, 0.040430, -0.031936, 0.059335, 0.045101, -0.023995, 0.023177, 0.015642, 0.006009, 0.014944, -0.051353, 0.019007, -0.050085, 0.030944, -0.016033, 0.029621, 0.018583, -0.046613, 0.010849, 0.009149, 0.043142, -0.042180, -0.040816, 0.025734, 0.025027, 0.030832, 0.017764, 0.098785, -0.009597, -0.001117, -0.019071, 0.015929, 0.068514, 0.053386, 0.007480, 0.002061, -0.085767, -0.033466, 0.014178, -0.005948, -0.017032, -0.076272, -0.081203, -0.008827, -0.047264, -0.008314, -0.014875, 0.005574, -0.024374, 0.060128, 0.037480, 0.036104, 0.005315, 0.022965, -0.010046, -0.023617, -0.024819, -0.056781, 0.002860, -0.058648, 0.004777, -0.069951, -0.061701, -0.029565, -0.041652, -0.006782, -0.054863, 0.010562, 0.047968, 0.020197, -0.001298, 0.027543, 0.054653, 0.047071, -0.043217, 0.032581, -0.052902, 0.047046, -0.059401, -0.018803, 0.009541, 0.071328, 0.049716, -0.005663, 0.025319, 0.048450, -0.007771, 0.035376, 0.061154, 0.008709, -0.044025, -0.043055, -0.035510, -0.052375, -0.035990, -0.028721, 0.054564, -0.004865, 0.002951, 0.051727, -0.020923, 0.021407, -0.021087, 0.015178, 0.047111, 0.021745, -0.045605, -0.010063, 0.037047, -0.042302, -0.017703, -0.040402, -0.055689, 0.025268, -0.058701, -0.018887, -0.044811, -0.053655, 0.008668, 0.002343, -0.056035, 0.030178, 0.014346, 0.015772, -0.010164, 0.015740, -0.062507, -0.002879, -0.059829, 0.042491, -0.068792, 0.045476, 0.032254, 0.006189, 0.030855, 0.037106, 0.067680, -0.016911, 0.063047, 0.014406, 0.057897, 0.079292, 0.000364, 0.013521, -0.025090, 0.052157, -0.066939, -0.034313, 0.041571, -0.056323, -0.064722, 0.011155, -0.011629, -0.053232, -0.053100, 0.004413, -0.044936, 0.005801, -0.065621, -0.019870, -0.008259, -0.063494, -0.054809, -0.036096, -0.049024, 0.010904, -0.042705, 0.037948, -0.050445, -0.029255, 0.029766, -0.005862, 0.017275, -0.039501, -0.055487, -0.038657, 0.047849, 0.020513, -0.019968, 0.028345, -0.049027, -0.069150, 0.028291, -0.008726, 0.027662, 0.055604, -0.037369, -0.054032, -0.001959, -0.005120, 0.011747, -0.012009, -0.064032, -0.051443, -0.019456, 0.016786, -0.004770, 0.044791, 0.054644, 0.024283, -0.035382, 0.014538, -0.040918, -0.001648, 0.034010, -0.018816, -0.060164, 0.009408, -0.007341, 0.026816, -0.037094, -0.024704, 0.025950, 0.037783, -0.042553, -0.038121, 0.020598, 0.043815, 0.014504, 0.004524, 0.026555, -0.001184, -0.024014, -0.046193, -0.054954, 0.016125, 0.020930, 0.009651, 0.038521, -0.020887, -0.004601, -0.029750, -0.019525, 0.021073, 0.032662, 0.047176, 0.011604, -0.002185, 0.011721, 0.020034, -0.007252, 0.088308, -0.051355, 0.009149, 0.016854, -0.025748, 0.036983, 0.014836, -0.008287, 0.034537, -0.031845, -0.035256, 0.021185, 0.016578, 0.022613, 0.038782, -0.003142, 0.010074, 0.038596, 0.052571, 0.006994, -0.012723, -0.062539, -0.011349, -0.030029, 0.004669, 0.037855, 0.033795, 0.030020, -0.055482, 0.040770, -0.002823, 0.012829, 0.003075, 0.030305, 0.028096, 0.006772, 0.020353, -0.018546, 0.012109, 0.026787, -0.069594, -0.021454, -0.026801, 0.010574, 0.009857, -0.007225, -0.017516, -0.058156, 0.018699, 0.000120, 0.036848, -0.010681, -0.045392, -0.047326, -0.052698, -0.041335, 0.034065, -0.043463, -0.036884, 0.025381, -0.069544, 0.011532, -0.021797, 0.039248, 0.035590, -0.006783, 0.030253, -0.010543, 
    0.035452, -0.005677, -0.071370, -0.018774, 0.027182, -0.000454, -0.059408, 0.041095, -0.021493, -0.001761, 0.044108, -0.013761, -0.009797, -0.027928, -0.034230, 0.044360, 0.039482, 0.032397, -0.050292, -0.045369, -0.024968, -0.040689, -0.034167, 0.031443, -0.002537, -0.030540, -0.053586, -0.065822, -0.011177, 0.030495, -0.007160, -0.052681, 0.017791, 0.017123, -0.009690, -0.012517, 0.022093, 0.015212, 0.021463, -0.022619, -0.013131, -0.010722, -0.001785, -0.055204, -0.056390, 0.021411, -0.009133, -0.006584, 0.024628, -0.035472, 0.014538, 0.034413, -0.039804, 0.022582, -0.053136, 0.021810, 0.015133, -0.029203, -0.014955, -0.059292, -0.021238, 0.008460, 0.015395, -0.038240, -0.068099, -0.052245, 0.006665, -0.009249, 0.023084, 0.035572, -0.037849, -0.037738, -0.057931, -0.056052, -0.007883, -0.023308, 0.028506, 0.011434, -0.046391, -0.009477, 0.004106, -0.039997, 0.021029, -0.006087, -0.028136, 0.030237, -0.001423, 0.028174, -0.051759, 0.040266, -0.041979, -0.006283, 0.027925, -0.023126, -0.070297, 0.021256, -0.064606, 0.037006, 0.028067, 0.035836, 0.020322, -0.065828, 0.033221, -0.053202, 0.017946, -0.071380, -0.018474, -0.022477, 0.032383, -0.049177, -0.068388, -0.048717, -0.010963, -0.028917, 0.030803, 0.009371, -0.039692, 0.020592, 0.048104, -0.016047, -0.024510, 0.027554, 0.017017, -0.009322, -0.054794, -0.019992, 0.019434, 0.045525, 0.019445, 0.021915, 0.036462, -0.059751, 0.019006, -0.036247, -0.066665, -0.006907, -0.022022, 0.035842, -0.000319, 0.019965, 0.011174, -0.056403, -0.015571, -0.012519, 0.005638, -0.052729, -0.044151, 0.002919, -0.066027, -0.013027, -0.014613, 0.043444, -0.021824, 0.007898, 0.033164, -0.046055, -0.006492, -0.037148, -0.015011, 0.017599, 0.005496, -0.049630, -0.031263, 0.004662, -0.008919, -0.047158, 0.035576, -0.047897, 0.030393, -0.057847, -0.012943, -0.047623, 0.046993, 0.019721, 0.038526, 0.044749, -0.029819, -0.018318, -0.015763, -0.051264, 0.006172, 0.006755, -0.023633, -0.026941, 0.031461, -0.068528, 0.031787, -0.020559, -0.042994, -0.015915, 0.002064, 0.023885, 0.018801, -0.017959, -0.018674, -0.010510, -0.023715, 0.019410, -0.007950, -0.042491, 0.041613, 0.040393, -0.063132, -0.037642, -0.054884, -0.008829, -0.053606, 0.024980, 0.034549, 0.041132, 0.029979, 0.021714, -0.061187, -0.040887, -0.051078, 0.012267, -0.030041, -0.019842, -0.051918, 0.022542, -0.014282, -0.002862, 0.009388, 0.038211, 0.040643, -0.025796, -0.047901, -0.014007, -0.069906, -0.071093, -0.057139, 0.009277, -0.010411, 0.026848, -0.038801, 0.010626, 0.033922, -0.066367, 0.011233, 0.032763, -0.000139, 0.040642, -0.000816, 0.028558, 0.005878, 0.044768, -0.020584, -0.032258, -0.021154, 0.032659, -0.040756, -0.048486, -0.022415, -0.012000, 0.011492, -0.047183, -0.056113, -0.029234, -0.070478, -0.042411, 0.039599, -0.008687, 0.023836, 0.013634, -0.048348, -0.041961, -0.034202, -0.037587, 0.039976, 0.022484, -0.064562, -0.040821, -0.034611, -0.069484, -0.050056, 0.008820, 0.037039, -0.055781, -0.028642, -0.066375, -0.014302, -0.031230, -0.024091, -0.013575, -0.000747, 0.016073, -0.009076, 0.029982, -0.019194, 0.026465, -0.062994, -0.043599, 0.012399, -0.065817, 0.021802, -0.033656, 0.022224, -0.029695, -0.003968, 0.012019, -0.013104, -0.001365, -0.037280, -0.058239, 0.012357, -0.014566, 0.028228, 0.044360, -0.035982, -0.045577, -0.016945, -0.041118, -0.006566, -0.059985, 0.045232, 0.003002, -0.049910, 0.007496, -0.057350, -0.044573, -0.064327, -0.007257, -0.032832, 0.058594, -0.018548, 0.036142, -0.017964, -0.047527, -0.038187, -0.046449, -0.054553, 0.038019, 0.029534, 0.039059, -0.034396, -0.020147, 0.028273, -0.079257, -0.057225, 0.029927, -0.003872, 0.024790, -0.050613, -0.032832, -0.053496, -0.031580, 0.004445, -0.039080, -0.053891, -0.061511, -0.069477, -0.046724, -0.003101, -0.014335, -0.032013, 0.041578, 0.013978, 0.068509, 0.047456, 0.088510, 0.009658, 0.091541, -0.047292, -0.088574, 0.005789, -0.003551, 0.013697, -0.033148, -0.032198, 0.054169, 0.027273, -0.075611, -0.054578, 0.014248, -0.022493, -0.005668, -0.037552, 0.044004, -0.032478, 0.042348, -0.050388, 0.038509, 0.001321, 0.009829, -0.003608, -0.054782, 0.051086, -0.023704, -0.031537, -0.022956, -0.027646, 0.000091, -0.051857, -0.034160, 0.012481, 0.021772, 0.055042, -0.043165, 0.001679, -0.060948, -0.057992, -0.012810, 0.002099, -0.038550, -0.028176, 0.020886, 0.021719, -0.046465, -0.074940, -0.069973, 0.020254, -0.017603, -0.001626, 0.029836, 0.060259, -0.022395, -0.073683, -0.064272, -0.008037, 0.011274, -0.017255, -0.021904, -0.047099, 0.061077, -0.008293, -0.057240, 0.008751, -0.076938, 0.006543, -0.022842, 0.051898, 0.046802, 0.059455, 0.020058, 0.004375, -0.010883, -0.014280, -0.003014, -0.027369, -0.006987, 0.028401, 0.024110, 0.014181, 0.000091, 0.014164, -0.045291, 0.087479, 0.083322, 0.086720, 0.108965, 0.000911, 0.016526, 0.038145, -0.057261, -0.053698, -0.045812, -0.044353, -0.032248, -0.006752, 0.016840, -0.020557, -0.075548, 0.000132, -0.056092, 0.013626, -0.068470, -0.025127, 0.050173, 0.045411, -0.032944, -0.015393, 0.030267, -0.008641, -0.018047, 0.017611, -0.025156, -0.015247, 0.016085, -0.007093, -0.082365, -0.057357, 0.019959, -0.010710, 0.013145, -0.020249, -0.038348, -0.012350, 0.031226, -0.068252, 0.014093, -0.074868, -0.006245, -0.017022, -0.052088, -0.023930, 0.024082, -0.034914, -0.020015, 0.006646, -0.061665, 0.019188, 0.046699, -0.038136, -0.003096, -0.047761, -0.073588, -0.080109, -0.089266, -0.052202, -0.056163, 0.027386, 0.020160, 
    -0.045625, 0.042690, 0.025168, -0.009649, 0.015706, -0.073612, 0.051414, -0.054024, 0.008692, 0.034134, -0.048948, -0.020902, -0.052085, -0.029067, -0.070199, -0.009966, 0.045381, 0.017956, 0.028031, -0.033643, -0.012049, 0.039669, -0.011432, -0.055546, 0.027101, -0.015546, 0.040036, -0.011538, 0.030038, 0.033935, -0.063747, 0.012061, 0.031323, 0.035272, 0.047252, -0.034336, -0.035519, -0.003770, 0.034536, 0.023541, -0.069287, 0.016644, 0.001937, -0.094070, 0.010610, 0.057743, -0.022416, 0.040826, 0.021416, 0.037525, 0.000832, -0.045975, -0.035906, 0.010628, -0.009695, 0.026724, -0.003490, -0.058651, -0.027834, -0.031068, -0.053080, -0.031120, 0.031976, -0.004815, -0.005373, 0.012435, 0.029932, -0.056278, 0.012688, -0.000658, 0.024731, 0.047244, -0.011287, 0.043429, -0.042160, 0.031902, 0.011380, -0.028937, -0.072691, -0.068293, -0.021051, -0.044577, 0.004174, -0.026972, -0.070307, -0.011776, 0.002726, 0.024553, 0.025078, -0.060191, 0.048067, -0.037524, -0.035388, -0.027165, 0.028386, -0.048240, -0.008693, 0.049547, 0.023869, 0.044968, -0.046145, 0.008910, -0.055324, -0.052265, -0.053129, -0.040369, 0.043439, -0.027273, -0.021392, 0.038821, -0.020942, -0.046296, -0.035040, 0.012752, -0.060645, -0.000424, 0.015292, -0.022682, -0.024017, -0.031043, -0.034834, 0.021787, 0.018919, -0.068629, 0.009748, -0.080912, 0.004780, -0.001382, -0.038542, -0.022638, -0.020844, -0.027926, 0.025439, -0.005368, -0.008023, 0.001271, 0.012139, -0.043748, -0.014673, -0.010503, -0.002952, 0.042066, -0.027130, -0.014612, 0.007435, -0.018581, 0.049851, -0.068980, -0.064660, -0.018049, 0.022313, 0.002257, 0.003386, -0.022549, 0.034159, -0.030074, -0.042129, -0.067354, -0.032712, 0.016065, -0.036146, 0.008693, -0.001798, -0.051791, -0.029468, 0.003067, -0.009311, 0.016231, -0.030112, 0.036064, -0.061972, -0.039173, -0.062916, -0.029242, -0.025502, 0.009791, -0.026538, 0.045523, 0.037974, -0.026214, 0.019543, -0.055243, 0.012923, 0.003201, -0.087504, 0.015149, -0.018027, -0.009113, -0.069426, -0.000353, -0.067213, -0.041731, 0.003491, 0.016936, -0.040996, 0.044019, 0.016751, -0.015011, 0.024451, 0.002349, -0.019897, -0.053076, -0.068134, 0.019780, 0.038327, -0.022446, 0.038687, 0.005376, -0.066074, -0.065349, -0.080465, -0.031787, -0.069318, -0.059347, -0.057081, 0.027018, 0.052802, -0.007220, 0.062064, -0.027449, 0.000435, -0.018595, -0.012650, -0.003865, 0.030379, 0.022251, -0.054190, -0.037803, 0.013176, -0.079548, -0.085318, 0.063862, 0.049180, -0.014220, -0.028208, -0.001322, 0.044141, 0.005781, 0.015106, 0.023693, -0.006907, 0.034717, -0.062373, 0.013125, -0.062715, 0.054112, -0.070488, -0.032556, -0.067322, -0.044248, -0.011246, 0.008273, 0.019859, 0.008951, -0.051279, 0.022988, 0.007611, -0.004773, -0.064836, -0.012443, 0.022726, 0.000459, -0.049271, 0.015645, -0.053955, -0.013012, 0.028817, -0.012850, -0.048557, -0.026919, -0.030655, -0.055042, 0.011700, 0.016257, -0.012968, 0.009448, -0.055112, -0.057600, 0.002954, -0.024909, -0.074939, -0.073633, -0.001980, -0.010024, -0.065622, 0.023742, -0.069373, -0.084012, 0.027059, 0.023800, -0.067234, -0.033460, 0.015160, -0.032217, -0.006243, 0.053052, 0.030468, -0.051833, 0.035873, -0.039295, -0.045258, -0.002197, -0.060451, -0.004243, 0.026977, 0.041675, 0.037634, 0.042415, -0.021337, -0.049679, -0.058467, -0.068811, 0.006448, -0.032934, -0.043427, 0.028789, 0.030914, -0.037229, 0.017375, -0.030138, 0.009616, 0.049248, 0.010641, 0.029654, 0.018702, 0.043883, -0.047457, 0.024901, -0.069172, 0.018140, -0.023805, 0.012604, -0.030553, -0.016828, 0.033653, 0.052417, 0.006004, -0.035566, -0.033950, 0.002395, -0.028858, 0.013932, -0.065574, -0.019286, -0.053050, -0.060467, -0.013139, -0.074987, -0.035768, 0.021452, -0.008519, 0.023466, -0.016331, 0.024306, 0.021611, -0.037582, -0.044513, -0.045726, -0.056693, 0.030330, 0.034668, -0.058852, -0.017257, -0.014952, -0.000639, -0.019974, 0.025327, 0.001983, -0.054244, 0.051603, 0.038388, 0.015515, -0.072526, -0.035993, 0.015004, 0.064454, -0.002750, 0.051742, 0.060143, 0.000682, 0.012763, -0.033107, -0.001869, -0.047685, -0.064777, -0.011076, -0.037702, 0.053189, 0.054049, -0.017832, 0.012471, 0.008640, -0.030642, -0.018540, 0.035996, -0.073031, 0.048112, 0.016220, -0.007835, -0.036903, -0.037670, 0.019894, -0.064113, 0.034508, -0.036320, -0.024120, -0.063628, -0.025893, -0.020802, -0.025792, 0.040300, 0.030130, 0.049089, -0.054394, 0.011787, 0.007567, -0.021120, 0.035683, 0.037385, 0.023238, -0.028976, 0.073598, 0.006217, 0.040897, 0.018799, -0.061076, 0.024536, -0.047734, -0.028061, 0.007791, -0.035025, -0.038373, 0.035987, 0.053807, -0.018555, 0.025038, -0.023145, 0.004924, 0.035923, -0.030824, -0.010480, -0.046636, 0.017235, -0.053826, -0.017749, -0.064428, -0.064945, -0.067419, 0.035769, 0.043495, 0.032042, 0.030467, -0.043934, -0.022736, -0.063755, -0.058774, 0.030956, -0.001594, 0.043389, 0.003404, -0.005366, 0.032117, 0.008757, -0.007181, -0.064514, -0.063542, -0.075102, 0.033610, 0.008420, -0.028950, -0.044775, 0.001903, 0.006789, -0.014003, 0.029608, 0.040581, 0.043683, 0.023242, 0.027869, 0.018387, 0.014706, -0.071986, 0.015937, -0.050202, 0.029909, -0.005677, -0.019189, -0.033824, 0.003996, -0.035718, 0.000043, 0.027857, -0.022409, 0.014002, -0.045619, -0.027709, 0.032160, -0.063608, -0.045884, 0.019235, 0.013244, 0.007891, 0.009886, 0.042178, -0.038783, 0.039000, 0.004692, -0.015272, 0.042428, -0.004298, 0.057148, 0.030123, 
    -0.045200, -0.000826, 0.030959, -0.038015, 0.016667, -0.049223, -0.095523, 0.000345, 0.028178, -0.023090, -0.034368, 0.015280, -0.014234, -0.004938, 0.029997, -0.030996, -0.030273, -0.026834, -0.054694, -0.027060, -0.019899, -0.026137, -0.051084, 0.030120, 0.038219, -0.062384, 0.038991, 0.031017, 0.012260, 0.009007, -0.015142, -0.075498, 0.008292, -0.041055, -0.012467, -0.035691, -0.028019, 0.020015, 0.042862, -0.042356, -0.004754, 0.039800, -0.051854, -0.061428, -0.041210, -0.023438, -0.018705, 0.042730, -0.065210, -0.028941, -0.045132, -0.021123, -0.016297, -0.022299, -0.028452, -0.021632, 0.029744, -0.037548, -0.013570, -0.013747, -0.046879, -0.004997, -0.056536, -0.058632, -0.014850, 0.041926, -0.018460, -0.025482, -0.035711, -0.030799, -0.048882, -0.000028, -0.062730, 0.052869, -0.017702, -0.013444, -0.052919, -0.022643, -0.018496, -0.008658, -0.065661, -0.065741, 0.052589, -0.041671, 0.040360, -0.037256, 0.018875, -0.020470, 0.016518, 0.025699, -0.066287, -0.033974, 0.042261, -0.036225, -0.068944, -0.063331, 0.013960, -0.058872, 0.040934, -0.069382, -0.055215, -0.007306, 0.033047, -0.058003, -0.050947, -0.005084, 0.042701, -0.067545, -0.032706, 0.046291, 0.046536, 0.042951, -0.045729, -0.008973, -0.082606, -0.023891, 0.032232, -0.001361, 0.035771, -0.001087, -0.017573, 0.037401, 0.006436, -0.069427, -0.013143, 0.005667, 0.027558, 0.041962, 0.030882, -0.041335, 0.006362, -0.004886, 0.022552, -0.017954, -0.047166, -0.038661, -0.032810, -0.000468, 0.062310, -0.031539, -0.034624, 0.039817, 0.030302, 0.007144, -0.038830, 0.022879, 0.002355, 0.034430, 0.038744, 0.000291, -0.024229, -0.051498, -0.008403, 0.001319, 0.022876, 0.023442, 0.046669, -0.009976, -0.017267, 0.032068, -0.010516, 0.023662, -0.029298, -0.024817, 0.036367, 0.030535, 0.013171, 0.016484, -0.004211, 0.032090, -0.011351, -0.047423, 0.002654, -0.051744, -0.027487, -0.049632, -0.064370, 0.003057, -0.003165, 0.018445, -0.037547, 0.001259, -0.001210, 0.013820, -0.023756, 0.027834, 0.003030, 0.048369, -0.034330, 0.007427, 0.044257, 0.045240, -0.035361, 0.084586, 0.027063, 0.059738, 0.043829, -0.001237, 0.002134, -0.039475, 0.014896, 0.021625, 0.006485, -0.005898, -0.067680, 0.028665, -0.021168, 0.057359, 0.052458, 0.043557, 0.003016, 0.045465, 0.024153, -0.034735, 0.047281, 0.004281, -0.048902, -0.000896, -0.021788, -0.015047, 0.009952, -0.052586, -0.022384, 0.001835, -0.041375, 0.039297, -0.043208, 0.028096, -0.024538, -0.053268, -0.051554, -0.048662, -0.051117, 0.039291, 0.038769, 0.012380, 0.038454, -0.034044, -0.053424, -0.027273, 0.035370, 0.040114, -0.061272, -0.047386, -0.031660, 0.008482, -0.068084, -0.028648, 0.076649, 0.021381, -0.059616, -0.027592, -0.051465, 0.000390, -0.049741, -0.003408, 0.008891, 0.019574, -0.037537, 0.044572, -0.065234, -0.032729, 0.032421, 0.045603, 0.011882, -0.045795, -0.032511, -0.027851, -0.054669, -0.053539, -0.035331, -0.018923, -0.014151, -0.030576, 0.011358, 0.008149, -0.005909, -0.043093, 0.022128, -0.009987, 0.036001, -0.030661, -0.010526, -0.031621, -0.033603, 0.029709, -0.043638, 0.001606, 0.010836, -0.026441, -0.016533, -0.074863, -0.062576, 0.002305, -0.011772, 0.054655, 0.017077, -0.030705, -0.043455, 0.014308, 0.053250, 0.007196, -0.041819, -0.036916, 0.025585, -0.006356, -0.000924, -0.022478, -0.014446, 0.000516, -0.043754, 0.061233, 0.030585, -0.033247, -0.048059, -0.034453, -0.001283, -0.028362, 0.001760, -0.002849, -0.013435, 0.011049, 0.003903, 0.023506, -0.005826, -0.000602, 0.060825, 0.010358, 0.021306, -0.032417, -0.032528, 0.012638, -0.016249, 0.000743, -0.063101, 0.002078, -0.085551, 0.049242, -0.001185, 0.015235, -0.017104, -0.047701, -0.008789, 0.056395, -0.037955, 0.026099, 0.031082, 0.051060, -0.015272, 0.014550, 0.040709, -0.072923, 0.007277, -0.007777, 0.033731, -0.027620, -0.009583, 0.000416, 0.007359, -0.049063, 0.022046, 0.004629, 0.037906, -0.032813, -0.003417, 0.041474, -0.049630, -0.052748, 0.027612, -0.001278, -0.025878, -0.015687, -0.024736, 0.017799, 0.067467, -0.013242, -0.010325, -0.056846, 0.044141, 0.012930, 0.008313, 0.036531, -0.056888, 0.005465, -0.011809, -0.011094, -0.036506, 0.004733, 0.053882, 0.009136, 0.016641, -0.087166, 0.004942, -0.087042, -0.044351, -0.012393, 0.004321, -0.042541, 0.006197, 0.040608, -0.020692, -0.030428, -0.031567, 0.027029, 0.023596, 0.017182, -0.048375, 0.034609, -0.024667, 0.029052, -0.063964, 0.034819, 0.028712, -0.024169, -0.058196, 0.039868, 0.001954, 0.065614, -0.078857, 0.022571, -0.016268, 0.041590, 0.039614, 0.025936, 0.049967, 0.065027, -0.054225, -0.043519, -0.054621, -0.033511, -0.046471, -0.009230, -0.045213, 0.049726, -0.045304, -0.008871, -0.036111, 0.023174, -0.009595, -0.000885, -0.067043, -0.046764, 0.005190, 0.068039, 0.002063, -0.035268, -0.056166, -0.006415, 0.027959, 0.014835, 0.038782, 0.012354, -0.006935, -0.005115, 0.052899, -0.006313, -0.005607, 0.055373, -0.032813, -0.010822, -0.040300, 0.041290, -0.065384, 0.031984, 0.062738, 0.053123, 0.043748, 0.014401, -0.041143, -0.014794, 0.005213, -0.050630, -0.019296, 0.067885, 0.030087, 0.043130, -0.043601, -0.073680, 0.046848, 0.024894, 0.049031, 0.010336, -0.046731, 0.009035, -0.025240, -0.034627, -0.020637, -0.047482, -0.078065, -0.049683, -0.040600, -0.056938, -0.024827, -0.079127, -0.026876, 0.033162, -0.041714, -0.017114, 0.054769, 0.057071, -0.040329, 0.033644, -0.053033, 0.035206, 0.025771, -0.013988, 0.014112, -0.041330, -0.008525, 0.033107, 0.067500, -0.062820, 
    -0.008519, -0.018182, -0.048398, 0.021296, 0.017580, -0.008323, 0.052388, 0.061320, -0.021029, -0.054903, -0.014583, -0.046162, 0.028460, -0.063051, 0.064826, 0.053134, 0.000802, -0.003727, -0.023309, 0.001044, -0.046113, -0.020671, 0.018039, 0.082098, 0.034356, 0.035387, -0.064439, 0.048400, -0.042432, -0.062458, 0.026589, -0.009476, 0.029505, 0.042011, -0.036870, -0.034046, 0.029883, 0.002407, 0.021243, -0.058232, 0.003759, 0.044301, -0.025528, 0.045801, -0.023165, -0.020861, -0.023382, 0.036300, -0.051842, -0.002948, 0.061870, -0.019047, -0.007181, 0.011889, -0.002408, -0.002846, 0.041359, 0.007308, -0.047367, -0.060265, -0.116556, -0.061744, -0.038196, 0.062705, 0.036856, -0.008310, -0.016533, -0.028355, -0.033997, 0.028857, -0.004256, 0.011876, -0.069055, 0.015365, -0.070440, 0.010063, 0.027351, 0.008126, -0.049393, -0.105138, -0.063655, -0.008345, -0.059169, 0.053219, 0.017410, 0.018525, -0.025507, 0.047412, 0.064850, -0.051678, -0.026628, -0.072358, -0.051211, -0.003588, -0.030870, 0.070561, 0.005008, 0.076490, -0.026818, -0.061799, 0.013886, -0.048925, -0.040844, 0.018433, 0.077217, -0.030370, 0.061952, 0.020129, 0.025035, -0.044158, 0.012803, 0.025525, -0.006687, 0.008491, -0.014781, 0.047310, -0.038934, -0.013429, -0.067771, -0.055887, 0.018698, -0.018595, 0.016002, 0.051315, 0.015554, -0.082742, -0.054560, -0.081534, 0.016986, -0.021448, 0.011987, 0.030994, 0.011034, 0.058815, -0.059630, -0.049525, -0.056415, 0.023460, 0.051746, 0.040010, -0.017218, -0.031310, 0.070421, 0.031594, 0.007089, 0.000080, 0.035513, -0.014133, -0.005514, 0.009200, -0.014358, 0.064284, -0.059440, -0.007329, -0.077936, 0.003042, 0.009095, 0.029828, 0.029423, 0.022877, -0.045102, -0.041541, -0.055021, 0.010818, -0.059368, -0.043644, -0.044612, 0.060112, 0.043145, 0.030316, 0.019835, 0.043013, -0.005369, 0.027681, 0.022699, 0.022446, -0.003894, 0.035493, -0.004044, 0.045297, -0.024811, -0.021339, 0.024277, -0.018162, -0.005072, 0.053291, 0.060872, 0.045132, 0.042811, 0.009694, 0.018255, -0.023386, -0.042159, 0.032882, -0.032937, 0.058607, 0.057359, 0.031334, 0.036292, 0.001131, 0.036556, 0.036144, -0.021576, -0.001011, -0.041652, -0.009878, 0.028614, -0.044721, 0.042543, 0.043445, -0.013736, 0.022417, -0.067047, -0.069498, 0.014039, -0.047513, -0.027808, -0.057742, 0.036169, 0.001132, 0.027783, 0.002646, -0.014834, 0.030749, -0.037094, -0.025809, 0.008904, 0.011117, 0.001197, 0.002726, 0.033319, -0.054682, -0.040203, -0.037454, -0.041177, -0.040782, 0.022660, -0.047946, 0.046082, 0.002902, -0.024220, 0.014778, -0.014718, 0.051053, -0.027118, 0.050830, -0.056420, -0.010700, -0.053564, -0.028652, -0.062983, -0.019933, 0.015762, 0.014047, -0.025867, 0.018732, 0.014454, -0.010711, 0.004614, -0.037599, 0.046254, 0.001521, 0.013259, -0.055656, -0.032036, 0.027171, -0.030284, -0.002944, -0.059604, -0.052776, 0.047444, 0.016897, -0.046040, 0.042410, 0.028371, -0.055127, -0.032052, -0.012933, 0.013299, 0.025486, -0.034441, -0.021852, 0.014120, -0.063209, -0.044069, 0.026195, -0.002846, 0.025754, 0.045518, 0.028186, 0.005431, -0.033744, -0.061347, 0.017543, 0.027565, 0.019410, -0.053948, -0.028808, -0.040501, 0.012405, -0.025469, 0.010076, -0.017329, 0.047077, -0.031402, -0.026143, 0.041110, 0.011841, -0.057896, -0.067238, 0.019013, -0.025775, -0.019456, 0.066359, 0.017724, 0.010403, 0.035467, 0.042264, 0.011914, 0.033137, 0.030201, 0.015591, 0.027766, -0.025665, -0.047527, 0.038469, 0.025679, -0.057018, -0.043955, 0.006908, -0.052833, 0.008616, 0.027618, 0.000736, -0.046635, -0.061295, -0.004875, 0.023592, -0.037425, 0.032821, -0.042998, 0.004508, 0.039978, 0.028655, -0.030617, 0.016669, -0.008402, 0.014840, 0.005390, 0.058228, -0.010598, 0.022616, -0.023596, 0.028641, 0.035617, -0.010850, 0.037995, 0.003077, -0.033944, 0.006229, -0.010389, -0.032460, -0.017000, -0.034061, -0.025720, 0.029676, -0.053099, 0.047709, -0.001782, -0.053248, 0.008929, -0.021970, 0.048167, 0.010707, -0.044419, 0.038376, 0.019133, 0.050764, -0.045033, -0.007042, 0.017443, -0.052796, 0.027191, -0.052640, 0.004507, -0.060510, 0.026974, 0.051668, 0.016477, 0.030698, 0.020385, 0.002713, 0.046489, 0.001692, -0.056721, 0.048908, -0.019325, -0.041178, 0.036009, -0.027128, 0.006037, 0.053201, -0.039457, -0.020281, -0.025964, 0.009337, -0.004578, 0.011225, 0.023376, -0.031345, -0.000936, 0.043943, -0.052756, 0.025628, 0.055821, 0.046087, 0.028833, 0.007436, 0.027075, -0.051615, -0.001607, -0.065279, 0.021565, -0.058568, -0.003474, -0.057266, 0.041397, 0.010644, -0.011834, 0.013598, -0.031031, 0.043252, -0.034132, 0.023849, -0.015286, 0.011630, 0.027313, -0.036940, 0.020442, 0.055136, -0.044865, -0.000626, 0.031221, 0.031652, 0.014040, -0.039265, 0.028288, 0.017781, -0.063745, 0.031491, 0.039860, 0.006852, -0.038016, 0.003088, 0.036445, -0.001842, 0.028274, -0.016211, 0.027981, 0.003581, -0.013122, -0.048971, 0.031869, -0.039718, 0.033284, 0.041720, -0.056984, 0.003134, -0.026123, -0.021635, 0.017972, 0.009356, -0.055979, -0.028192, 0.019692, -0.011866, 0.049563, 0.000485, -0.047378, -0.057749, -0.008506, -0.035832, -0.049015, 0.015811, 0.019503, -0.011333, -0.026849, -0.018031, 0.039447, 0.009746, -0.058252, -0.039394, -0.039766, -0.017549, 0.006650, 0.027265, -0.027708, 0.042051, 0.031485, 0.010096, -0.038426, 0.019803, 0.003921, 0.028562, -0.037280, 0.036268, -0.014598, -0.042882, -0.050973, 0.048472, -0.022775, -0.056967, 
